digraph Tree {
node [shape=box, style="filled, rounded", color="black", fontname=helvetica] ;
graph [ranksep=equally, splines=polyline] ;
edge [fontname=helvetica] ;
0 [label="totals_pageviews <= 31.5\nmse = 2.51043607152e+15\nsamples = 100.0%\nvalue = 1671635.87", fillcolor="#e5813900"] ;
1 [label="totals_pageviews <= 15.5\nmse = 5.53412317224e+14\nsamples = 98.9%\nvalue = 881854.11", fillcolor="#e5813900"] ;
0 -> 1 [labeldistance=2.5, labelangle=45, headlabel="True"] ;
2 [label="visitNumber <= 295.0\nmse = 1.29365804025e+14\nsamples = 95.5%\nvalue = 260772.89", fillcolor="#e5813900"] ;
1 -> 2 ;
3 [label="totals_pageviews <= 10.5\nmse = 1.05051649416e+14\nsamples = 95.5%\nvalue = 248917.54", fillcolor="#e5813900"] ;
2 -> 3 ;
4 [label="totals_pageviews <= 8.5\nmse = 3.80794385056e+13\nsamples = 92.0%\nvalue = 63572.19", fillcolor="#e5813900"] ;
3 -> 4 ;
5 [label="totals_pageviews <= 7.5\nmse = 4.56870938875e+12\nsamples = 89.5%\nvalue = 15063.42", fillcolor="#e5813900"] ;
4 -> 5 ;
6 [label="(...)", fillcolor="#C0C0C0"] ;
5 -> 6 ;
265 [label="(...)", fillcolor="#C0C0C0"] ;
5 -> 265 ;
482 [label="visitNumber <= 4.5\nmse = 1.24188475707e+15\nsamples = 2.5%\nvalue = 1810693.12", fillcolor="#e5813900"] ;
4 -> 482 ;
483 [label="(...)", fillcolor="#C0C0C0"] ;
482 -> 483 ;
1082 [label="(...)", fillcolor="#C0C0C0"] ;
482 -> 1082 ;
1305 [label="visitNumber <= 2.5\nmse = 1.81697749645e+15\nsamples = 3.5%\nvalue = 5053002.0", fillcolor="#e5813900"] ;
3 -> 1305 ;
1306 [label="visitNumber <= 1.5\nmse = 5.02463078002e+14\nsamples = 2.9%\nvalue = 2549298.06", fillcolor="#e5813900"] ;
1305 -> 1306 ;
1307 [label="(...)", fillcolor="#C0C0C0"] ;
1306 -> 1307 ;
2578 [label="(...)", fillcolor="#C0C0C0"] ;
1306 -> 2578 ;
3345 [label="geoNetwork_continent <= 1.5\nmse = 7.63177527274e+15\nsamples = 0.6%\nvalue = 16428953.81", fillcolor="#e5813900"] ;
1305 -> 3345 ;
3346 [label="(...)", fillcolor="#C0C0C0"] ;
3345 -> 3346 ;
3349 [label="(...)", fillcolor="#C0C0C0"] ;
3345 -> 3349 ;
4818 [label="totals_pageviews <= 10.5\nmse = 2.49562051799e+17\nsamples = 0.0%\nvalue = 130102711.86", fillcolor="#e5813901"] ;
2 -> 4818 ;
4819 [label="mse = 0.0\nsamples = 0.0%\nvalue = 0.0", fillcolor="#e5813900"] ;
4818 -> 4819 ;
4820 [label="month_local <= 3.5\nmse = 7.87691570776e+17\nsamples = 0.0%\nvalue = 1535212000.0", fillcolor="#e5813911"] ;
4818 -> 4820 ;
4821 [label="mse = 0.0\nsamples = 0.0%\nvalue = 0.0", fillcolor="#e5813900"] ;
4820 -> 4821 ;
4822 [label="visitNumber <= 300.5\nmse = 2.48090749425e+17\nsamples = 0.0%\nvalue = 1919015000.0", fillcolor="#e5813915"] ;
4820 -> 4822 ;
4823 [label="(...)", fillcolor="#C0C0C0"] ;
4822 -> 4823 ;
4824 [label="(...)", fillcolor="#C0C0C0"] ;
4822 -> 4824 ;
4827 [label="visitNumber <= 2.5\nmse = 1.21875819373e+16\nsamples = 3.4%\nvalue = 18386598.63", fillcolor="#e5813900"] ;
1 -> 4827 ;
4828 [label="visitNumber <= 1.5\nmse = 4.06653899513e+15\nsamples = 2.7%\nvalue = 10787073.76", fillcolor="#e5813900"] ;
4827 -> 4828 ;
4829 [label="geoNetwork_country <= 211.5\nmse = 1.7351673722e+15\nsamples = 2.1%\nvalue = 7568380.93", fillcolor="#e5813900"] ;
4828 -> 4829 ;
4830 [label="totals_pageviews <= 28.5\nmse = 5.13000299339e+13\nsamples = 0.8%\nvalue = 530165.05", fillcolor="#e5813900"] ;
4829 -> 4830 ;
4831 [label="(...)", fillcolor="#C0C0C0"] ;
4830 -> 4831 ;
4976 [label="(...)", fillcolor="#C0C0C0"] ;
4830 -> 4976 ;
5015 [label="totals_pageviews <= 24.5\nmse = 2.63059316715e+15\nsamples = 1.4%\nvalue = 11490771.56", fillcolor="#e5813900"] ;
4829 -> 5015 ;
5016 [label="(...)", fillcolor="#C0C0C0"] ;
5015 -> 5016 ;
7265 [label="(...)", fillcolor="#C0C0C0"] ;
5015 -> 7265 ;
8356 [label="geoNetwork_subContinent <= 12.5\nmse = 1.28881110462e+16\nsamples = 0.5%\nvalue = 23235396.4", fillcolor="#e5813900"] ;
4828 -> 8356 ;
8357 [label="geoNetwork_metro <= 61.0\nmse = 1.47442383643e+16\nsamples = 0.5%\nvalue = 26435509.76", fillcolor="#e5813900"] ;
8356 -> 8357 ;
8358 [label="(...)", fillcolor="#C0C0C0"] ;
8357 -> 8358 ;
8871 [label="(...)", fillcolor="#C0C0C0"] ;
8357 -> 8871 ;
10032 [label="geoNetwork_country <= 24.0\nmse = 2.5927631436e+14\nsamples = 0.1%\nvalue = 2331012.15", fillcolor="#e5813900"] ;
8356 -> 10032 ;
10033 [label="(...)", fillcolor="#C0C0C0"] ;
10032 -> 10033 ;
10040 [label="(...)", fillcolor="#C0C0C0"] ;
10032 -> 10040 ;
10071 [label="geoNetwork_continent <= 1.5\nmse = 4.16891939775e+16\nsamples = 0.7%\nvalue = 46960938.34", fillcolor="#e5813901"] ;
4827 -> 10071 ;
10072 [label="trafficSource_source <= 208.0\nmse = 5.05347555556e+17\nsamples = 0.0%\nvalue = 502666666.67", fillcolor="#e5813906"] ;
10071 -> 10072 ;
10073 [label="mse = 0.0\nsamples = 0.0%\nvalue = 0.0", fillcolor="#e5813900"] ;
10072 -> 10073 ;
10074 [label="mse = 0.0\nsamples = 0.0%\nvalue = 1508000000.0", fillcolor="#e5813911"] ;
10072 -> 10074 ;
10075 [label="geoNetwork_continent <= 2.5\nmse = 4.04318243408e+16\nsamples = 0.7%\nvalue = 46107911.81", fillcolor="#e5813901"] ;
10071 -> 10075 ;
10076 [label="totals_pageviews <= 20.5\nmse = 4.59892107618e+16\nsamples = 0.6%\nvalue = 52490042.91", fillcolor="#e5813901"] ;
10075 -> 10076 ;
10077 [label="(...)", fillcolor="#C0C0C0"] ;
10076 -> 10077 ;
11134 [label="(...)", fillcolor="#C0C0C0"] ;
10076 -> 11134 ;
12591 [label="totals_pageviews <= 25.5\nmse = 2.14158472155e+14\nsamples = 0.1%\nvalue = 2432479.61", fillcolor="#e5813900"] ;
10075 -> 12591 ;
12592 [label="(...)", fillcolor="#C0C0C0"] ;
12591 -> 12592 ;
12627 [label="(...)", fillcolor="#C0C0C0"] ;
12591 -> 12627 ;
12656 [label="visitNumber <= 233.5\nmse = 1.7454872181e+17\nsamples = 1.1%\nvalue = 73186641.41", fillcolor="#e5813901"] ;
0 -> 12656 [labeldistance=2.5, labelangle=-45, headlabel="False"] ;
12657 [label="totals_pageviews <= 68.5\nmse = 8.66405292285e+16\nsamples = 1.1%\nvalue = 68114564.33", fillcolor="#e5813901"] ;
12656 -> 12657 ;
12658 [label="visitNumber <= 2.5\nmse = 3.46551200553e+16\nsamples = 1.0%\nvalue = 54128440.94", fillcolor="#e5813901"] ;
12657 -> 12658 ;
12659 [label="geoNetwork_country <= 211.5\nmse = 1.90330606914e+16\nsamples = 0.7%\nvalue = 34449214.93", fillcolor="#e5813900"] ;
12658 -> 12659 ;
12660 [label="yearday_local <= 328.5\nmse = 1.20047224711e+15\nsamples = 0.2%\nvalue = 6002310.73", fillcolor="#e5813900"] ;
12659 -> 12660 ;
12661 [label="(...)", fillcolor="#C0C0C0"] ;
12660 -> 12661 ;
12800 [label="(...)", fillcolor="#C0C0C0"] ;
12660 -> 12800 ;
12835 [label="trafficSource_medium <= 1.0\nmse = 2.52800471516e+16\nsamples = 0.5%\nvalue = 45076991.75", fillcolor="#e5813900"] ;
12659 -> 12835 ;
12836 [label="(...)", fillcolor="#C0C0C0"] ;
12835 -> 12836 ;
13205 [label="(...)", fillcolor="#C0C0C0"] ;
12835 -> 13205 ;
15076 [label="trafficSource_medium <= 0.5\nmse = 7.01583662573e+16\nsamples = 0.3%\nvalue = 103084978.66", fillcolor="#e5813901"] ;
12658 -> 15076 ;
15077 [label="geoNetwork_continent <= 1.5\nmse = 1.2828157574e+17\nsamples = 0.1%\nvalue = 197052163.74", fillcolor="#e5813902"] ;
15076 -> 15077 ;
15078 [label="(...)", fillcolor="#C0C0C0"] ;
15077 -> 15078 ;
15079 [label="(...)", fillcolor="#C0C0C0"] ;
15077 -> 15079 ;
15320 [label="totals_hits <= 109.0\nmse = 5.4771895239e+16\nsamples = 0.2%\nvalue = 82107969.97", fillcolor="#e5813901"] ;
15076 -> 15320 ;
15321 [label="(...)", fillcolor="#C0C0C0"] ;
15320 -> 15321 ;
16502 [label="(...)", fillcolor="#C0C0C0"] ;
15320 -> 16502 ;
16511 [label="trafficSource_source <= 27.0\nmse = 4.8141742394e+17\nsamples = 0.1%\nvalue = 177986322.12", fillcolor="#e5813902"] ;
12657 -> 16511 ;
16512 [label="hour_local <= 10.5\nmse = 1.56367278852e+18\nsamples = 0.0%\nvalue = 321132694.3", fillcolor="#e5813904"] ;
16511 -> 16512 ;
16513 [label="visitNumber <= 4.5\nmse = 5.30182472776e+18\nsamples = 0.0%\nvalue = 709137755.1", fillcolor="#e5813908"] ;
16512 -> 16513 ;
16514 [label="(...)", fillcolor="#C0C0C0"] ;
16513 -> 16514 ;
16551 [label="(...)", fillcolor="#C0C0C0"] ;
16513 -> 16551 ;
16558 [label="yearday_local <= 129.0\nmse = 2.23002850691e+17\nsamples = 0.0%\nvalue = 189103194.44", fillcolor="#e5813902"] ;
16512 -> 16558 ;
16559 [label="(...)", fillcolor="#C0C0C0"] ;
16558 -> 16559 ;
16580 [label="(...)", fillcolor="#C0C0C0"] ;
16558 -> 16580 ;
16621 [label="visitNumber <= 2.5\nmse = 1.46480813979e+17\nsamples = 0.1%\nvalue = 134751189.36", fillcolor="#e5813901"] ;
16511 -> 16621 ;
16622 [label="totals_pageviews <= 199.5\nmse = 8.1860623491e+16\nsamples = 0.1%\nvalue = 85242453.33", fillcolor="#e5813901"] ;
16621 -> 16622 ;
16623 [label="(...)", fillcolor="#C0C0C0"] ;
16622 -> 16623 ;
16828 [label="(...)", fillcolor="#C0C0C0"] ;
16622 -> 16828 ;
16839 [label="totals_pageviews <= 87.5\nmse = 2.2984356708e+17\nsamples = 0.0%\nvalue = 205076098.48", fillcolor="#e5813902"] ;
16621 -> 16839 ;
16840 [label="(...)", fillcolor="#C0C0C0"] ;
16839 -> 16840 ;
16949 [label="(...)", fillcolor="#C0C0C0"] ;
16839 -> 16949 ;
17032 [label="yearday_local <= 96.0\nmse = 2.67216559374e+19\nsamples = 0.0%\nvalue = 1771871363.64", fillcolor="#e5813914"] ;
12656 -> 17032 ;
17033 [label="yearday_local <= 89.0\nmse = 5.22126914472e+19\nsamples = 0.0%\nvalue = 15903665000.0", fillcolor="#e58139af"] ;
17032 -> 17033 ;
17034 [label="mse = 0.0\nsamples = 0.0%\nvalue = 8677830000.0", fillcolor="#e5813960"] ;
17033 -> 17034 ;
17035 [label="mse = 0.0\nsamples = 0.0%\nvalue = 23129500000.0", fillcolor="#e58139ff"] ;
17033 -> 17035 ;
17036 [label="yearday_local <= 98.5\nmse = 2.20471733458e+18\nsamples = 0.0%\nvalue = 358692000.0", fillcolor="#e5813904"] ;
17032 -> 17036 ;
17037 [label="mse = 0.0\nsamples = 0.0%\nvalue = 6826960000.0", fillcolor="#e581394b"] ;
17036 -> 17037 ;
17038 [label="visitNumber <= 293.5\nmse = 2.83315441108e+15\nsamples = 0.0%\nvalue = 18256842.11", fillcolor="#e5813900"] ;
17036 -> 17038 ;
17039 [label="mse = 0.0\nsamples = 0.0%\nvalue = 0.0", fillcolor="#e5813900"] ;
17038 -> 17039 ;
17040 [label="totals_pageviews <= 70.5\nmse = 6.68476302222e+15\nsamples = 0.0%\nvalue = 115626666.67", fillcolor="#e5813901"] ;
17038 -> 17040 ;
17041 [label="(...)", fillcolor="#C0C0C0"] ;
17040 -> 17041 ;
17042 [label="(...)", fillcolor="#C0C0C0"] ;
17040 -> 17042 ;
{rank=same ; 0} ;
{rank=same ; 1; 12656} ;
{rank=same ; 2; 4827; 12657; 17032} ;
{rank=same ; 3; 4818; 4828; 10071; 12658; 16511; 17033; 17036} ;
{rank=same ; 4; 1305; 4820; 4829; 8356; 10072; 10075; 12659; 15076; 16512; 16621; 17038} ;
{rank=same ; 5; 482; 1306; 3345; 4822; 4830; 5015; 8357; 10032; 10076; 12591; 12660; 12835; 15077; 15320; 16513; 16558; 16622; 16839; 17040} ;
{rank=same ; 6; 265; 483; 1082; 1307; 2578; 3346; 3349; 4819; 4821; 4823; 4824; 4831; 4976; 5016; 7265; 8358; 8871; 10033; 10040; 10073; 10074; 10077; 11134; 12592; 12627; 12661; 12800; 12836; 13205; 15078; 15079; 15321; 16502; 16514; 16551; 16559; 16580; 16623; 16828; 16840; 16949; 17034; 17035; 17037; 17039; 17041; 17042} ;
}