digraph Tree {
node [shape=box, style="filled, rounded", color="black", fontname=helvetica] ;
graph [ranksep=equally, splines=polyline] ;
edge [fontname=helvetica] ;
0 [label="totals_pageviews <= 25.5\nmse = 1.75816098662e+15\nsamples = 100.0%\nvalue = 1641153.28", fillcolor="#e5813900"] ;
1 [label="totals_pageviews <= 12.5\nmse = 4.47258699083e+14\nsamples = 98.2%\nvalue = 682353.72", fillcolor="#e5813900"] ;
0 -> 1 [labeldistance=2.5, labelangle=45, headlabel="True"] ;
2 [label="totals_pageviews <= 9.5\nmse = 5.68793378116e+13\nsamples = 93.7%\nvalue = 132072.92", fillcolor="#e5813900"] ;
1 -> 2 ;
3 [label="totals_pageviews <= 8.5\nmse = 1.324731862e+13\nsamples = 90.8%\nvalue = 30819.39", fillcolor="#e5813900"] ;
2 -> 3 ;
4 [label="totals_pageviews <= 7.5\nmse = 4.54268410783e+12\nsamples = 89.4%\nvalue = 14246.08", fillcolor="#e5813900"] ;
3 -> 4 ;
5 [label="totals_hits <= 9.5\nmse = 3.30278676539e+12\nsamples = 87.7%\nvalue = 8802.81", fillcolor="#e5813900"] ;
4 -> 5 ;
6 [label="visitNumber <= 5.5\nmse = 2.36083521577e+12\nsamples = 87.0%\nvalue = 6651.67", fillcolor="#e5813900"] ;
5 -> 6 ;
7 [label="totals_pageviews <= 3.5\nmse = 393158601613.0\nsamples = 83.4%\nvalue = 4002.51", fillcolor="#e5813900"] ;
6 -> 7 ;
8 [label="totals_pageviews <= 2.5\nmse = 47487687970.0\nsamples = 71.3%\nvalue = 642.91", fillcolor="#e5813900"] ;
7 -> 8 ;
9 [label="visitNumber <= 2.5\nmse = 4023148515.96\nsamples = 63.6%\nvalue = 134.83", fillcolor="#e5813900"] ;
8 -> 9 ;
10 [label="hour_local <= 3.5\nmse = 1425118871.33\nsamples = 59.7%\nvalue = 59.45", fillcolor="#e5813900"] ;
9 -> 10 ;
11 [label="weekday_local <= 1.5\nmse = 17683149681.6\nsamples = 4.8%\nvalue = 737.74", fillcolor="#e5813900"] ;
10 -> 11 ;
12 [label="yearday_local <= 322.5\nmse = 126778656667.0\nsamples = 0.7%\nvalue = 5290.22", fillcolor="#e5813900"] ;
11 -> 12 ;
13 [label="mse = 0.0\nsamples = 0.6%\nvalue = 0.0", fillcolor="#e5813900"] ;
12 -> 13 ;
14 [label="hour_local <= 2.5\nmse = 844940667316.0\nsamples = 0.1%\nvalue = 35301.91", fillcolor="#e5813900"] ;
12 -> 14 ;
15 [label="mse = 0.0\nsamples = 0.1%\nvalue = 0.0", fillcolor="#e5813900"] ;
14 -> 15 ;
16 [label="geoNetwork_continent <= 2.5\nmse = 5.47150265348e+12\nsamples = 0.0%\nvalue = 230480.77", fillcolor="#e5813900"] ;
14 -> 16 ;
17 [label="yearday_local <= 336.5\nmse = 2.206313856e+13\nsamples = 0.0%\nvalue = 958800.0", fillcolor="#e5813900"] ;
16 -> 17 ;
18 [label="mse = 3.81086311224e+13\nsamples = 0.0%\nvalue = 1712142.86", fillcolor="#e5813900"] ;
17 -> 18 ;
19 [label="mse = 0.0\nsamples = 0.0%\nvalue = 0.0", fillcolor="#e5813900"] ;
17 -> 19 ;
20 [label="mse = 0.0\nsamples = 0.0%\nvalue = 0.0", fillcolor="#e5813900"] ;
16 -> 20 ;
21 [label="mse = 0.0\nsamples = 4.1%\nvalue = 0.0", fillcolor="#e5813900"] ;
11 -> 21 ;
22 [label="mse = 0.0\nsamples = 54.8%\nvalue = 0.0", fillcolor="#e5813900"] ;
10 -> 22 ;
23 [label="yearday_local <= 41.5\nmse = 43332597702.2\nsamples = 3.9%\nvalue = 1275.29", fillcolor="#e5813900"] ;
9 -> 23 ;
24 [label="yearday_local <= 40.5\nmse = 389949432022.0\nsamples = 0.4%\nvalue = 11479.73", fillcolor="#e5813900"] ;
23 -> 24 ;
25 [label="mse = 0.0\nsamples = 0.4%\nvalue = 0.0", fillcolor="#e5813900"] ;
24 -> 25 ;
26 [label="hour_local <= 9.5\nmse = 2.02503896684e+13\nsamples = 0.0%\nvalue = 606785.71", fillcolor="#e5813900"] ;
24 -> 26 ;
27 [label="mse = 8.19863005917e+13\nsamples = 0.0%\nvalue = 2613846.15", fillcolor="#e5813900"] ;
26 -> 27 ;
28 [label="mse = 0.0\nsamples = 0.0%\nvalue = 0.0", fillcolor="#e5813900"] ;
26 -> 28 ;
29 [label="mse = 0.0\nsamples = 3.5%\nvalue = 0.0", fillcolor="#e5813900"] ;
23 -> 29 ;
30 [label="totals_newVisits <= 0.5\nmse = 405009477546.0\nsamples = 7.7%\nvalue = 4822.39", fillcolor="#e5813900"] ;
8 -> 30 ;
31 [label="trafficSource_isTrueDirect <= 0.5\nmse = 2.13680920406e+12\nsamples = 1.5%\nvalue = 25448.94", fillcolor="#e5813900"] ;
30 -> 31 ;
32 [label="hour_local <= 13.5\nmse = 9.71221664733e+12\nsamples = 0.3%\nvalue = 115795.04", fillcolor="#e5813900"] ;
31 -> 32 ;
33 [label="hour_local <= 12.5\nmse = 2.26097665553e+13\nsamples = 0.1%\nvalue = 270064.31", fillcolor="#e5813900"] ;
32 -> 33 ;
34 [label="mse = 0.0\nsamples = 0.1%\nvalue = 0.0", fillcolor="#e5813900"] ;
33 -> 34 ;
35 [label="yearday_local <= 188.5\nmse = 1.16247339746e+14\nsamples = 0.0%\nvalue = 1407653.63", fillcolor="#e5813900"] ;
33 -> 35 ;
36 [label="yearday_local <= 157.0\nmse = 2.24893190001e+14\nsamples = 0.0%\nvalue = 2768901.1", fillcolor="#e5813901"] ;
35 -> 36 ;
37 [label="mse = 0.0\nsamples = 0.0%\nvalue = 0.0", fillcolor="#e5813900"] ;
36 -> 37 ;
38 [label="mse = 1.2522461716e+15\nsamples = 0.0%\nvalue = 19382307.69", fillcolor="#e5813904"] ;
36 -> 38 ;
39 [label="mse = 0.0\nsamples = 0.0%\nvalue = 0.0", fillcolor="#e5813900"] ;
35 -> 39 ;
40 [label="mse = 0.0\nsamples = 0.2%\nvalue = 0.0", fillcolor="#e5813900"] ;
32 -> 40 ;
41 [label="mse = 0.0\nsamples = 1.1%\nvalue = 0.0", fillcolor="#e5813900"] ;
31 -> 41 ;
42 [label="mse = 0.0\nsamples = 6.2%\nvalue = 0.0", fillcolor="#e5813900"] ;
30 -> 42 ;
43 [label="totals_newVisits <= 0.5\nmse = 2.42532536215e+12\nsamples = 12.1%\nvalue = 23757.75", fillcolor="#e5813900"] ;
7 -> 43 ;
44 [label="trafficSource_source <= 373.0\nmse = 1.03322854841e+13\nsamples = 2.7%\nvalue = 92335.7", fillcolor="#e5813900"] ;
43 -> 44 ;
45 [label="totals_pageviews <= 6.5\nmse = 4.51882610788e+12\nsamples = 2.7%\nvalue = 62506.75", fillcolor="#e5813900"] ;
44 -> 45 ;
46 [label="trafficSource_source <= 0.5\nmse = 2.67082116188e+12\nsamples = 2.3%\nvalue = 37197.84", fillcolor="#e5813900"] ;
45 -> 46 ;
47 [label="yearday_local <= 102.5\nmse = 8.17992357009e+12\nsamples = 0.4%\nvalue = 106627.2", fillcolor="#e5813900"] ;
46 -> 47 ;
48 [label="yearday_local <= 100.5\nmse = 2.81184835328e+13\nsamples = 0.1%\nvalue = 367782.96", fillcolor="#e5813900"] ;
47 -> 48 ;
49 [label="geoNetwork_country <= 43.5\nmse = 5.43018358826e+12\nsamples = 0.1%\nvalue = 139844.5", fillcolor="#e5813900"] ;
48 -> 49 ;
50 [label="totals_pageviews <= 5.5\nmse = 9.85610102758e+13\nsamples = 0.0%\nvalue = 2718837.21", fillcolor="#e5813901"] ;
49 -> 50 ;
51 [label="mse = 0.0\nsamples = 0.0%\nvalue = 0.0", fillcolor="#e5813900"] ;
50 -> 51 ;
52 [label="mse = 2.69584775148e+14\nsamples = 0.0%\nvalue = 8993076.92", fillcolor="#e5813902"] ;
50 -> 52 ;
53 [label="mse = 0.0\nsamples = 0.1%\nvalue = 0.0", fillcolor="#e5813900"] ;
49 -> 53 ;
54 [label="mse = 8.46920872562e+14\nsamples = 0.0%\nvalue = 9441904.76", fillcolor="#e5813902"] ;
48 -> 54 ;
55 [label="mse = 0.0\nsamples = 0.3%\nvalue = 0.0", fillcolor="#e5813900"] ;
47 -> 55 ;
56 [label="trafficSource_isTrueDirect <= 0.5\nmse = 1.39359961015e+12\nsamples = 1.9%\nvalue = 21118.77", fillcolor="#e5813900"] ;
46 -> 56 ;
57 [label="hour_local <= 17.5\nmse = 4.55653937252e+12\nsamples = 0.5%\nvalue = 61912.44", fillcolor="#e5813900"] ;
56 -> 57 ;
58 [label="hour_local <= 8.5\nmse = 1.5728398681e+12\nsamples = 0.4%\nvalue = 27804.69", fillcolor="#e5813900"] ;
57 -> 58 ;
59 [label="hour_local <= 7.5\nmse = 9.65449493112e+12\nsamples = 0.1%\nvalue = 171105.77", fillcolor="#e5813900"] ;
58 -> 59 ;
60 [label="yearday_local <= 25.5\nmse = 94284714403.5\nsamples = 0.1%\nvalue = 23832.34", fillcolor="#e5813900"] ;
59 -> 60 ;
61 [label="totals_pageviews <= 4.5\nmse = 1.12476213018e+12\nsamples = 0.0%\nvalue = 306153.85", fillcolor="#e5813900"] ;
60 -> 61 ;
62 [label="mse = 2.534464e+12\nsamples = 0.0%\nvalue = 796000.0", fillcolor="#e5813900"] ;
61 -> 62 ;
63 [label="mse = 0.0\nsamples = 0.0%\nvalue = 0.0", fillcolor="#e5813900"] ;
61 -> 63 ;
64 [label="mse = 0.0\nsamples = 0.0%\nvalue = 0.0", fillcolor="#e5813900"] ;
60 -> 64 ;
65 [label="yearday_local <= 157.5\nmse = 4.81466746579e+13\nsamples = 0.0%\nvalue = 770975.61", fillcolor="#e5813900"] ;
59 -> 65 ;
66 [label="mse = 1.81259337868e+14\nsamples = 0.0%\nvalue = 3010476.19", fillcolor="#e5813901"] ;
65 -> 66 ;
67 [label="mse = 0.0\nsamples = 0.0%\nvalue = 0.0", fillcolor="#e5813900"] ;
65 -> 67 ;
68 [label="mse = 0.0\nsamples = 0.3%\nvalue = 0.0", fillcolor="#e5813900"] ;
58 -> 68 ;
69 [label="totals_hits <= 4.5\nmse = 1.29194043624e+13\nsamples = 0.1%\nvalue = 157653.51", fillcolor="#e5813900"] ;
57 -> 69 ;
70 [label="hour_local <= 19.5\nmse = 4.5445881786e+13\nsamples = 0.0%\nvalue = 557286.82", fillcolor="#e5813900"] ;
69 -> 70 ;
71 [label="yearday_local <= 154.5\nmse = 1.34474233748e+14\nsamples = 0.0%\nvalue = 1671860.47", fillcolor="#e5813900"] ;
70 -> 71 ;
72 [label="mse = 0.0\nsamples = 0.0%\nvalue = 0.0", fillcolor="#e5813900"] ;
71 -> 72 ;
73 [label="month_local <= 8.5\nmse = 2.32311685714e+14\nsamples = 0.0%\nvalue = 2934285.71", fillcolor="#e5813901"] ;
71 -> 73 ;
74 [label="mse = 7.48536257639e+14\nsamples = 0.0%\nvalue = 8249166.67", fillcolor="#e5813902"] ;
73 -> 74 ;
75 [label="yearday_local <= 338.0\nmse = 5.27547024105e+13\nsamples = 0.0%\nvalue = 1210540.54", fillcolor="#e5813900"] ;
73 -> 75 ;
76 [label="mse = 0.0\nsamples = 0.0%\nvalue = 0.0", fillcolor="#e5813900"] ;
75 -> 76 ;
77 [label="mse = 1.33060578061e+14\nsamples = 0.0%\nvalue = 3199285.71", fillcolor="#e5813901"] ;
75 -> 77 ;
78 [label="mse = 0.0\nsamples = 0.0%\nvalue = 0.0", fillcolor="#e5813900"] ;
70 -> 78 ;
79 [label="mse = 0.0\nsamples = 0.1%\nvalue = 0.0", fillcolor="#e5813900"] ;
69 -> 79 ;
80 [label="hour_local <= 0.5\nmse = 210897973437.0\nsamples = 1.4%\nvalue = 5876.02", fillcolor="#e5813900"] ;
56 -> 80 ;
81 [label="weekday_local <= 5.5\nmse = 8.69101633691e+12\nsamples = 0.0%\nvalue = 204903.85", fillcolor="#e5813900"] ;
80 -> 81 ;
82 [label="mse = 0.0\nsamples = 0.0%\nvalue = 0.0", fillcolor="#e5813900"] ;
81 -> 82 ;
83 [label="totals_hits <= 4.5\nmse = 3.24261413554e+13\nsamples = 0.0%\nvalue = 774909.09", fillcolor="#e5813900"] ;
81 -> 83 ;
84 [label="mse = 8.6282059e+13\nsamples = 0.0%\nvalue = 2131000.0", fillcolor="#e5813900"] ;
83 -> 84 ;
85 [label="mse = 0.0\nsamples = 0.0%\nvalue = 0.0", fillcolor="#e5813900"] ;
83 -> 85 ;
86 [label="hour_local <= 10.5\nmse = 15797512191.6\nsamples = 1.3%\nvalue = 1318.8", fillcolor="#e5813900"] ;
80 -> 86 ;
87 [label="hour_local <= 9.5\nmse = 75102229544.1\nsamples = 0.3%\nvalue = 6272.25", fillcolor="#e5813900"] ;
86 -> 87 ;
88 [label="mse = 0.0\nsamples = 0.2%\nvalue = 0.0", fillcolor="#e5813900"] ;
87 -> 88 ;
89 [label="yearday_local <= 151.5\nmse = 210131905470.0\nsamples = 0.1%\nvalue = 17565.98", fillcolor="#e5813900"] ;
87 -> 89 ;
90 [label="yearday_local <= 145.5\nmse = 567265375409.0\nsamples = 0.0%\nvalue = 47539.68", fillcolor="#e5813900"] ;
89 -> 90 ;
91 [label="mse = 0.0\nsamples = 0.0%\nvalue = 0.0", fillcolor="#e5813900"] ;
90 -> 91 ;
92 [label="mse = 1.18611900826e+13\nsamples = 0.0%\nvalue = 1089090.91", fillcolor="#e5813900"] ;
90 -> 92 ;
93 [label="mse = 0.0\nsamples = 0.1%\nvalue = 0.0", fillcolor="#e5813900"] ;
89 -> 93 ;
94 [label="mse = 0.0\nsamples = 1.1%\nvalue = 0.0", fillcolor="#e5813900"] ;
86 -> 94 ;
95 [label="trafficSource_source <= 265.0\nmse = 1.63989692534e+13\nsamples = 0.4%\nvalue = 225629.36", fillcolor="#e5813900"] ;
45 -> 95 ;
96 [label="visitNumber <= 4.5\nmse = 1.01531445784e+13\nsamples = 0.3%\nvalue = 119715.91", fillcolor="#e5813900"] ;
95 -> 96 ;
97 [label="trafficSource_source <= 27.0\nmse = 2.90800409883e+12\nsamples = 0.2%\nvalue = 59028.29", fillcolor="#e5813900"] ;
96 -> 97 ;
98 [label="visitNumber <= 3.5\nmse = 1.1806997691e+13\nsamples = 0.1%\nvalue = 240551.38", fillcolor="#e5813900"] ;
97 -> 98 ;
99 [label="month_local <= 11.5\nmse = 4.49209946757e+12\nsamples = 0.1%\nvalue = 112647.89", fillcolor="#e5813900"] ;
98 -> 99 ;
100 [label="mse = 0.0\nsamples = 0.0%\nvalue = 0.0", fillcolor="#e5813900"] ;
99 -> 100 ;
101 [label="yearday_local <= 344.5\nmse = 2.75639290859e+13\nsamples = 0.0%\nvalue = 701578.95", fillcolor="#e5813900"] ;
99 -> 101 ;
102 [label="mse = 1.06069394388e+14\nsamples = 0.0%\nvalue = 2856428.57", fillcolor="#e5813901"] ;
101 -> 102 ;
103 [label="mse = 0.0\nsamples = 0.0%\nvalue = 0.0", fillcolor="#e5813900"] ;
101 -> 103 ;
104 [label="totals_hits <= 7.5\nmse = 6.962801875e+13\nsamples = 0.0%\nvalue = 1272500.0", fillcolor="#e5813900"] ;
98 -> 104 ;
105 [label="mse = 0.0\nsamples = 0.0%\nvalue = 0.0", fillcolor="#e5813900"] ;
104 -> 105 ;
106 [label="mse = 3.09617787654e+14\nsamples = 0.0%\nvalue = 6221111.11", fillcolor="#e5813901"] ;
104 -> 106 ;
107 [label="mse = 0.0\nsamples = 0.2%\nvalue = 0.0", fillcolor="#e5813900"] ;
97 -> 107 ;
108 [label="trafficSource_isTrueDirect <= 0.5\nmse = 9.74810774783e+13\nsamples = 0.0%\nvalue = 856119.4", fillcolor="#e5813900"] ;
96 -> 108 ;
109 [label="mse = 8.18886656e+14\nsamples = 0.0%\nvalue = 7648000.0", fillcolor="#e5813901"] ;
108 -> 109 ;
110 [label="mse = 0.0\nsamples = 0.0%\nvalue = 0.0", fillcolor="#e5813900"] ;
108 -> 110 ;
111 [label="geoNetwork_country <= 167.5\nmse = 3.24839962919e+13\nsamples = 0.1%\nvalue = 500162.0", fillcolor="#e5813900"] ;
95 -> 111 ;
112 [label="trafficSource_isTrueDirect <= 0.5\nmse = 2.05729660938e+14\nsamples = 0.0%\nvalue = 5421250.0", fillcolor="#e5813901"] ;
111 -> 112 ;
113 [label="mse = 0.0\nsamples = 0.0%\nvalue = 0.0", fillcolor="#e5813900"] ;
112 -> 113 ;
114 [label="mse = 3.73082360331e+14\nsamples = 0.0%\nvalue = 11828181.82", fillcolor="#e5813902"] ;
112 -> 114 ;
115 [label="weekday_local <= 6.5\nmse = 2.52162057782e+13\nsamples = 0.1%\nvalue = 319847.33", fillcolor="#e5813900"] ;
111 -> 115 ;
116 [label="yearday_local <= 347.5\nmse = 9.72235876366e+12\nsamples = 0.1%\nvalue = 170940.99", fillcolor="#e5813900"] ;
115 -> 116 ;
117 [label="hour_local <= 11.5\nmse = 7.61522279036e+12\nsamples = 0.1%\nvalue = 113513.51", fillcolor="#e5813900"] ;
116 -> 117 ;
118 [label="yearday_local <= 278.5\nmse = 2.7534573375e+13\nsamples = 0.0%\nvalue = 412269.94", fillcolor="#e5813900"] ;
117 -> 118 ;
119 [label="mse = 0.0\nsamples = 0.0%\nvalue = 0.0", fillcolor="#e5813900"] ;
118 -> 119 ;
120 [label="yearday_local <= 305.5\nmse = 9.6036294896e+13\nsamples = 0.0%\nvalue = 1460869.57", fillcolor="#e5813900"] ;
118 -> 120 ;
121 [label="mse = 3.73209917355e+14\nsamples = 0.0%\nvalue = 6109090.91", fillcolor="#e5813901"] ;
120 -> 121 ;
122 [label="mse = 0.0\nsamples = 0.0%\nvalue = 0.0", fillcolor="#e5813900"] ;
120 -> 122 ;
123 [label="mse = 0.0\nsamples = 0.1%\nvalue = 0.0", fillcolor="#e5813900"] ;
117 -> 123 ;
124 [label="totals_hits <= 7.5\nmse = 4.43637662041e+13\nsamples = 0.0%\nvalue = 1142285.71", fillcolor="#e5813900"] ;
116 -> 124 ;
125 [label="mse = 0.0\nsamples = 0.0%\nvalue = 0.0", fillcolor="#e5813900"] ;
124 -> 125 ;
126 [label="mse = 1.43856036e+14\nsamples = 0.0%\nvalue = 3998000.0", fillcolor="#e5813901"] ;
124 -> 126 ;
127 [label="month_local <= 8.5\nmse = 3.60552710204e+14\nsamples = 0.0%\nvalue = 3654285.71", fillcolor="#e5813901"] ;
115 -> 127 ;
128 [label="mse = 0.0\nsamples = 0.0%\nvalue = 0.0", fillcolor="#e5813900"] ;
127 -> 128 ;
129 [label="mse = 7.99744488889e+14\nsamples = 0.0%\nvalue = 8526666.67", fillcolor="#e5813902"] ;
127 -> 129 ;
130 [label="hour_local <= 2.5\nmse = 3.29405273438e+14\nsamples = 0.0%\nvalue = 1743750.0", fillcolor="#e5813900"] ;
44 -> 130 ;
131 [label="mse = 3.58986888889e+15\nsamples = 0.0%\nvalue = 21183333.33", fillcolor="#e5813904"] ;
130 -> 131 ;
132 [label="mse = 0.0\nsamples = 0.0%\nvalue = 0.0", fillcolor="#e5813900"] ;
130 -> 132 ;
133 [label="trafficSource_isTrueDirect <= 0.5\nmse = 121319726471.0\nsamples = 9.4%\nvalue = 3790.18", fillcolor="#e5813900"] ;
43 -> 133 ;
134 [label="yearday_local <= 7.5\nmse = 44364129651.3\nsamples = 7.7%\nvalue = 920.05", fillcolor="#e5813900"] ;
133 -> 134 ;
135 [label="hour_local <= 3.5\nmse = 2.98480687875e+12\nsamples = 0.1%\nvalue = 61979.43", fillcolor="#e5813900"] ;
134 -> 135 ;
136 [label="yearday_local <= 6.5\nmse = 2.42178204543e+13\nsamples = 0.0%\nvalue = 507578.95", fillcolor="#e5813900"] ;
135 -> 136 ;
137 [label="mse = 0.0\nsamples = 0.0%\nvalue = 0.0", fillcolor="#e5813900"] ;
136 -> 137 ;
138 [label="mse = 1.77617030556e+14\nsamples = 0.0%\nvalue = 4018333.33", fillcolor="#e5813901"] ;
136 -> 138 ;
139 [label="mse = 0.0\nsamples = 0.1%\nvalue = 0.0", fillcolor="#e5813900"] ;
135 -> 139 ;
140 [label="mse = 0.0\nsamples = 7.6%\nvalue = 0.0", fillcolor="#e5813900"] ;
134 -> 140 ;
141 [label="yearday_local <= 231.5\nmse = 485009113922.0\nsamples = 1.6%\nvalue = 17362.63", fillcolor="#e5813900"] ;
133 -> 141 ;
142 [label="mse = 0.0\nsamples = 1.1%\nvalue = 0.0", fillcolor="#e5813900"] ;
141 -> 142 ;
143 [label="yearday_local <= 236.5\nmse = 1.44592626437e+12\nsamples = 0.5%\nvalue = 51826.02", fillcolor="#e5813900"] ;
141 -> 143 ;
144 [label="totals_pageviews <= 5.5\nmse = 2.15136345836e+13\nsamples = 0.0%\nvalue = 775454.55", fillcolor="#e5813900"] ;
143 -> 144 ;
145 [label="mse = 0.0\nsamples = 0.0%\nvalue = 0.0", fillcolor="#e5813900"] ;
144 -> 145 ;
146 [label="totals_hits <= 6.5\nmse = 5.62685956731e+13\nsamples = 0.0%\nvalue = 2132500.0", fillcolor="#e5813900"] ;
144 -> 146 ;
147 [label="mse = 1.00080016e+14\nsamples = 0.0%\nvalue = 5002000.0", fillcolor="#e5813901"] ;
146 -> 147 ;
148 [label="hour_local <= 15.5\nmse = 3.38157966399e+13\nsamples = 0.0%\nvalue = 969189.19", fillcolor="#e5813900"] ;
146 -> 148 ;
149 [label="mse = 0.0\nsamples = 0.0%\nvalue = 0.0", fillcolor="#e5813900"] ;
148 -> 149 ;
150 [label="mse = 1.06276e+14\nsamples = 0.0%\nvalue = 3260000.0", fillcolor="#e5813901"] ;
148 -> 150 ;
151 [label="yearday_local <= 334.5\nmse = 620278655180.0\nsamples = 0.5%\nvalue = 22840.34", fillcolor="#e5813900"] ;
143 -> 151 ;
152 [label="mse = 0.0\nsamples = 0.3%\nvalue = 0.0", fillcolor="#e5813900"] ;
151 -> 152 ;
153 [label="yearday_local <= 335.5\nmse = 1.86395544108e+12\nsamples = 0.2%\nvalue = 68752.11", fillcolor="#e5813900"] ;
151 -> 153 ;
154 [label="totals_pageviews <= 5.5\nmse = 4.08997868512e+13\nsamples = 0.0%\nvalue = 1598823.53", fillcolor="#e5813900"] ;
153 -> 154 ;
155 [label="mse = 0.0\nsamples = 0.0%\nvalue = 0.0", fillcolor="#e5813900"] ;
154 -> 155 ;
156 [label="mse = 1.026045e+14\nsamples = 0.0%\nvalue = 4530000.0", fillcolor="#e5813901"] ;
154 -> 156 ;
157 [label="mse = 0.0\nsamples = 0.2%\nvalue = 0.0", fillcolor="#e5813900"] ;
153 -> 157 ;
158 [label="geoNetwork_country <= 103.0\nmse = 4.75077167403e+13\nsamples = 3.6%\nvalue = 67439.89", fillcolor="#e5813900"] ;
6 -> 158 ;
159 [label="geoNetwork_country <= 101.5\nmse = 2.73057965111e+14\nsamples = 0.6%\nvalue = 259624.88", fillcolor="#e5813900"] ;
158 -> 159 ;
160 [label="mse = 0.0\nsamples = 0.5%\nvalue = 0.0", fillcolor="#e5813900"] ;
159 -> 160 ;
161 [label="yearday_local <= 70.0\nmse = 2.21339911085e+15\nsamples = 0.1%\nvalue = 2108216.43", fillcolor="#e5813900"] ;
159 -> 161 ;
162 [label="month_local <= 2.5\nmse = 9.22188207048e+15\nsamples = 0.0%\nvalue = 8840336.13", fillcolor="#e5813902"] ;
161 -> 162 ;
163 [label="mse = 0.0\nsamples = 0.0%\nvalue = 0.0", fillcolor="#e5813900"] ;
162 -> 163 ;
164 [label="mse = 6.88615822222e+16\nsamples = 0.0%\nvalue = 70133333.33", fillcolor="#e581390d"] ;
162 -> 164 ;
165 [label="mse = 0.0\nsamples = 0.1%\nvalue = 0.0", fillcolor="#e5813900"] ;
161 -> 165 ;
166 [label="totals_hits <= 7.5\nmse = 2.98003359644e+12\nsamples = 3.0%\nvalue = 29506.55", fillcolor="#e5813900"] ;
158 -> 166 ;
167 [label="hour_local <= 2.5\nmse = 2.06542281566e+12\nsamples = 3.0%\nvalue = 20345.99", fillcolor="#e5813900"] ;
166 -> 167 ;
168 [label="trafficSource_isTrueDirect <= 0.5\nmse = 2.54201002494e+13\nsamples = 0.1%\nvalue = 243706.29", fillcolor="#e5813900"] ;
167 -> 168 ;
169 [label="visitNumber <= 6.5\nmse = 2.91266608182e+14\nsamples = 0.0%\nvalue = 2864383.56", fillcolor="#e5813901"] ;
168 -> 169 ;
170 [label="mse = 1.42293168639e+15\nsamples = 0.0%\nvalue = 16084615.38", fillcolor="#e5813903"] ;
169 -> 170 ;
171 [label="mse = 0.0\nsamples = 0.0%\nvalue = 0.0", fillcolor="#e5813900"] ;
169 -> 171 ;
172 [label="mse = 0.0\nsamples = 0.1%\nvalue = 0.0", fillcolor="#e5813900"] ;
168 -> 172 ;
173 [label="yearday_local <= 347.5\nmse = 1.01312818084e+12\nsamples = 2.8%\nvalue = 10304.43", fillcolor="#e5813900"] ;
167 -> 173 ;
174 [label="mse = 0.0\nsamples = 2.6%\nvalue = 0.0", fillcolor="#e5813900"] ;
173 -> 174 ;
175 [label="yearday_local <= 348.5\nmse = 1.34009290016e+13\nsamples = 0.2%\nvalue = 136474.67", fillcolor="#e5813900"] ;
173 -> 175 ;
176 [label="visitNumber <= 7.5\nmse = 2.0345931088e+14\nsamples = 0.0%\nvalue = 2114623.66", fillcolor="#e5813900"] ;
175 -> 176 ;
177 [label="mse = 7.67654317202e+14\nsamples = 0.0%\nvalue = 8550434.78", fillcolor="#e5813902"] ;
176 -> 177 ;
178 [label="mse = 0.0\nsamples = 0.0%\nvalue = 0.0", fillcolor="#e5813900"] ;
176 -> 178 ;
179 [label="mse = 0.0\nsamples = 0.2%\nvalue = 0.0", fillcolor="#e5813900"] ;
175 -> 179 ;
180 [label="visitNumber <= 18.5\nmse = 3.40064069378e+13\nsamples = 0.1%\nvalue = 341262.8", fillcolor="#e5813900"] ;
166 -> 180 ;
181 [label="mse = 0.0\nsamples = 0.1%\nvalue = 0.0", fillcolor="#e5813900"] ;
180 -> 181 ;
182 [label="visitNumber <= 20.5\nmse = 1.45924171556e+14\nsamples = 0.0%\nvalue = 1481333.33", fillcolor="#e5813900"] ;
180 -> 182 ;
183 [label="mse = 7.93792068431e+14\nsamples = 0.0%\nvalue = 8694782.61", fillcolor="#e5813902"] ;
182 -> 183 ;
184 [label="mse = 0.0\nsamples = 0.0%\nvalue = 0.0", fillcolor="#e5813900"] ;
182 -> 184 ;
185 [label="visitNumber <= 5.5\nmse = 1.20773803754e+14\nsamples = 0.7%\nvalue = 277237.65", fillcolor="#e5813900"] ;
5 -> 185 ;
186 [label="mse = 0.0\nsamples = 0.6%\nvalue = 0.0", fillcolor="#e5813900"] ;
185 -> 186 ;
187 [label="totals_pageviews <= 5.5\nmse = 1.80952342773e+15\nsamples = 0.0%\nvalue = 4191442.31", fillcolor="#e5813901"] ;
185 -> 187 ;
188 [label="weekday_local <= 2.5\nmse = 1.76235043898e+16\nsamples = 0.0%\nvalue = 45094137.93", fillcolor="#e5813908"] ;
187 -> 188 ;
189 [label="mse = 3.19927470781e+16\nsamples = 0.0%\nvalue = 93409285.71", fillcolor="#e5813911"] ;
188 -> 189 ;
190 [label="mse = 0.0\nsamples = 0.0%\nvalue = 0.0", fillcolor="#e5813900"] ;
188 -> 190 ;
191 [label="mse = 0.0\nsamples = 0.0%\nvalue = 0.0", fillcolor="#e5813900"] ;
187 -> 191 ;
192 [label="trafficSource_source <= 5.5\nmse = 6.75102018085e+13\nsamples = 1.7%\nvalue = 291022.37", fillcolor="#e5813900"] ;
4 -> 192 ;
193 [label="hour_local <= 14.5\nmse = 3.17382370017e+14\nsamples = 0.3%\nvalue = 1025392.35", fillcolor="#e5813900"] ;
192 -> 193 ;
194 [label="geoNetwork_country <= 211.5\nmse = 6.17590129628e+14\nsamples = 0.2%\nvalue = 1935541.34", fillcolor="#e5813900"] ;
193 -> 194 ;
195 [label="mse = 0.0\nsamples = 0.1%\nvalue = 0.0", fillcolor="#e5813900"] ;
194 -> 195 ;
196 [label="hour_local <= 9.5\nmse = 9.89175485046e+14\nsamples = 0.1%\nvalue = 3111566.46", fillcolor="#e5813901"] ;
194 -> 196 ;
197 [label="visitNumber <= 2.5\nmse = 5.98391928008e+12\nsamples = 0.0%\nvalue = 245769.23", fillcolor="#e5813900"] ;
196 -> 197 ;
198 [label="mse = 0.0\nsamples = 0.0%\nvalue = 0.0", fillcolor="#e5813900"] ;
197 -> 198 ;
199 [label="visitNumber <= 3.5\nmse = 2.97971893333e+13\nsamples = 0.0%\nvalue = 1278000.0", fillcolor="#e5813900"] ;
197 -> 199 ;
200 [label="mse = 9.489621875e+13\nsamples = 0.0%\nvalue = 4792500.0", fillcolor="#e5813901"] ;
199 -> 200 ;
201 [label="mse = 0.0\nsamples = 0.0%\nvalue = 0.0", fillcolor="#e5813900"] ;
199 -> 201 ;
202 [label="weekday_local <= 4.5\nmse = 1.55956526853e+15\nsamples = 0.1%\nvalue = 4796482.41", fillcolor="#e5813901"] ;
196 -> 202 ;
203 [label="weekday_local <= 2.5\nmse = 5.91403724295e+14\nsamples = 0.0%\nvalue = 2615035.21", fillcolor="#e5813900"] ;
202 -> 203 ;
204 [label="totals_hits <= 8.5\nmse = 1.21944990449e+15\nsamples = 0.0%\nvalue = 5460808.82", fillcolor="#e5813901"] ;
203 -> 204 ;
205 [label="mse = 0.0\nsamples = 0.0%\nvalue = 0.0", fillcolor="#e5813900"] ;
204 -> 205 ;
206 [label="totals_hits <= 10.5\nmse = 2.22390639553e+15\nsamples = 0.0%\nvalue = 10173561.64", fillcolor="#e5813902"] ;
204 -> 206 ;
207 [label="hour_local <= 12.5\nmse = 4.18902089803e+15\nsamples = 0.0%\nvalue = 20072162.16", fillcolor="#e5813904"] ;
206 -> 207 ;
208 [label="mse = 7.82413690525e+15\nsamples = 0.0%\nvalue = 38759444.44", fillcolor="#e5813907"] ;
207 -> 208 ;
209 [label="mse = 1.00969529086e+14\nsamples = 0.0%\nvalue = 2368421.05", fillcolor="#e5813900"] ;
207 -> 209 ;
210 [label="mse = 0.0\nsamples = 0.0%\nvalue = 0.0", fillcolor="#e5813900"] ;
206 -> 210 ;
211 [label="mse = 0.0\nsamples = 0.0%\nvalue = 0.0", fillcolor="#e5813900"] ;
203 -> 211 ;
212 [label="weekday_local <= 5.5\nmse = 3.93008784731e+15\nsamples = 0.0%\nvalue = 10230964.91", fillcolor="#e5813902"] ;
202 -> 212 ;
213 [label="totals_hits <= 9.5\nmse = 6.66084868221e+15\nsamples = 0.0%\nvalue = 17308939.39", fillcolor="#e5813903"] ;
212 -> 213 ;
214 [label="yearday_local <= 191.5\nmse = 1.1754382512e+16\nsamples = 0.0%\nvalue = 28401388.89", fillcolor="#e5813905"] ;
213 -> 214 ;
215 [label="mse = 3.21255190972e+16\nsamples = 0.0%\nvalue = 54041666.67", fillcolor="#e581390a"] ;
214 -> 215 ;
216 [label="mse = 1.07574633594e+15\nsamples = 0.0%\nvalue = 15581250.0", fillcolor="#e5813903"] ;
214 -> 216 ;
217 [label="mse = 2.23776056e+14\nsamples = 0.0%\nvalue = 3998000.0", fillcolor="#e5813901"] ;
213 -> 217 ;
218 [label="totals_newVisits <= 0.5\nmse = 1.16913234375e+13\nsamples = 0.0%\nvalue = 498750.0", fillcolor="#e5813900"] ;
212 -> 218 ;
219 [label="mse = 4.06951668639e+13\nsamples = 0.0%\nvalue = 1841538.46", fillcolor="#e5813900"] ;
218 -> 219 ;
220 [label="mse = 0.0\nsamples = 0.0%\nvalue = 0.0", fillcolor="#e5813900"] ;
218 -> 220 ;
221 [label="visitNumber <= 18.5\nmse = 1.81402408455e+12\nsamples = 0.1%\nvalue = 74043.21", fillcolor="#e5813900"] ;
193 -> 221 ;
222 [label="yearday_local <= 10.0\nmse = 1.19057217818e+12\nsamples = 0.1%\nvalue = 48988.53", fillcolor="#e5813900"] ;
221 -> 222 ;
223 [label="geoNetwork_country <= 152.5\nmse = 1.02945184256e+13\nsamples = 0.0%\nvalue = 558529.41", fillcolor="#e5813900"] ;
222 -> 223 ;
224 [label="mse = 0.0\nsamples = 0.0%\nvalue = 0.0", fillcolor="#e5813900"] ;
223 -> 224 ;
225 [label="mse = 2.11300839844e+13\nsamples = 0.0%\nvalue = 1186875.0", fillcolor="#e5813900"] ;
223 -> 225 ;
226 [label="hour_local <= 15.5\nmse = 846046635383.0\nsamples = 0.1%\nvalue = 30259.46", fillcolor="#e5813900"] ;
222 -> 226 ;
227 [label="yearday_local <= 83.5\nmse = 5.44029019512e+12\nsamples = 0.0%\nvalue = 195734.27", fillcolor="#e5813900"] ;
226 -> 227 ;
228 [label="mse = 4.8747384e+13\nsamples = 0.0%\nvalue = 1866000.0", fillcolor="#e5813900"] ;
227 -> 228 ;
229 [label="mse = 0.0\nsamples = 0.0%\nvalue = 0.0", fillcolor="#e5813900"] ;
227 -> 229 ;
230 [label="mse = 0.0\nsamples = 0.1%\nvalue = 0.0", fillcolor="#e5813900"] ;
226 -> 230 ;
231 [label="mse = 4.43432023669e+13\nsamples = 0.0%\nvalue = 1922307.69", fillcolor="#e5813900"] ;
221 -> 231 ;
232 [label="visitNumber <= 2.5\nmse = 1.60652932895e+13\nsamples = 1.4%\nvalue = 140218.99", fillcolor="#e5813900"] ;
192 -> 232 ;
233 [label="totals_newVisits <= 0.5\nmse = 1.41074911838e+12\nsamples = 1.2%\nvalue = 38230.7", fillcolor="#e5813900"] ;
232 -> 233 ;
234 [label="yearday_local <= 197.5\nmse = 6.62138183787e+12\nsamples = 0.2%\nvalue = 180805.6", fillcolor="#e5813900"] ;
233 -> 234 ;
235 [label="weekday_local <= 5.5\nmse = 1.38562467054e+12\nsamples = 0.1%\nvalue = 49609.93", fillcolor="#e5813900"] ;
234 -> 235 ;
236 [label="mse = 0.0\nsamples = 0.1%\nvalue = 0.0", fillcolor="#e5813900"] ;
235 -> 236 ;
237 [label="totals_hits <= 8.5\nmse = 5.71414651817e+12\nsamples = 0.0%\nvalue = 205735.29", fillcolor="#e5813900"] ;
235 -> 237 ;
238 [label="hour_local <= 13.5\nmse = 1.56510867139e+13\nsamples = 0.0%\nvalue = 571020.41", fillcolor="#e5813900"] ;
237 -> 238 ;
239 [label="mse = 3.90355878116e+13\nsamples = 0.0%\nvalue = 1472631.58", fillcolor="#e5813900"] ;
238 -> 239 ;
240 [label="mse = 0.0\nsamples = 0.0%\nvalue = 0.0", fillcolor="#e5813900"] ;
238 -> 240 ;
241 [label="mse = 0.0\nsamples = 0.0%\nvalue = 0.0", fillcolor="#e5813900"] ;
237 -> 241 ;
242 [label="yearday_local <= 201.5\nmse = 1.16971373702e+13\nsamples = 0.1%\nvalue = 308823.53", fillcolor="#e5813900"] ;
234 -> 242 ;
243 [label="mse = 1.48332812654e+14\nsamples = 0.0%\nvalue = 2953888.89", fillcolor="#e5813901"] ;
242 -> 243 ;
244 [label="weekday_local <= 4.5\nmse = 7.07316463999e+12\nsamples = 0.1%\nvalue = 223803.57", fillcolor="#e5813900"] ;
242 -> 244 ;
245 [label="hour_local <= 5.5\nmse = 1.64255990285e+12\nsamples = 0.1%\nvalue = 65402.6", fillcolor="#e5813900"] ;
244 -> 245 ;
246 [label="yearday_local <= 317.5\nmse = 2.26129525377e+13\nsamples = 0.0%\nvalue = 932592.59", fillcolor="#e5813900"] ;
245 -> 246 ;
247 [label="mse = 6.26204839506e+13\nsamples = 0.0%\nvalue = 2797777.78", fillcolor="#e5813901"] ;
246 -> 247 ;
248 [label="mse = 0.0\nsamples = 0.0%\nvalue = 0.0", fillcolor="#e5813900"] ;
246 -> 248 ;
249 [label="mse = 0.0\nsamples = 0.1%\nvalue = 0.0", fillcolor="#e5813900"] ;
245 -> 249 ;
250 [label="totals_hits <= 9.5\nmse = 1.88438553469e+13\nsamples = 0.0%\nvalue = 572285.71", fillcolor="#e5813900"] ;
244 -> 250 ;
251 [label="yearday_local <= 302.5\nmse = 3.76553596674e+13\nsamples = 0.0%\nvalue = 1164534.88", fillcolor="#e5813900"] ;
250 -> 251 ;
252 [label="yearday_local <= 278.5\nmse = 7.2598436344e+13\nsamples = 0.0%\nvalue = 2329069.77", fillcolor="#e5813900"] ;
251 -> 252 ;
253 [label="weekday_local <= 6.5\nmse = 3.84431632691e+13\nsamples = 0.0%\nvalue = 1096060.61", fillcolor="#e5813900"] ;
252 -> 253 ;
254 [label="mse = 0.0\nsamples = 0.0%\nvalue = 0.0", fillcolor="#e5813900"] ;
253 -> 254 ;
255 [label="mse = 9.28948331361e+13\nsamples = 0.0%\nvalue = 2782307.69", fillcolor="#e5813901"] ;
253 -> 255 ;
256 [label="mse = 1.63737616e+14\nsamples = 0.0%\nvalue = 6398000.0", fillcolor="#e5813901"] ;
252 -> 256 ;
257 [label="mse = 0.0\nsamples = 0.0%\nvalue = 0.0", fillcolor="#e5813900"] ;
251 -> 257 ;
258 [label="mse = 0.0\nsamples = 0.0%\nvalue = 0.0", fillcolor="#e5813900"] ;
250 -> 258 ;
259 [label="yearday_local <= 15.5\nmse = 548058583979.0\nsamples = 1.0%\nvalue = 14732.28", fillcolor="#e5813900"] ;
233 -> 259 ;
260 [label="yearday_local <= 14.5\nmse = 2.0027015076e+12\nsamples = 0.0%\nvalue = 126324.11", fillcolor="#e5813900"] ;
259 -> 260 ;
261 [label="mse = 0.0\nsamples = 0.0%\nvalue = 0.0", fillcolor="#e5813900"] ;
260 -> 261 ;
262 [label="mse = 3.79874975207e+13\nsamples = 0.0%\nvalue = 2905454.55", fillcolor="#e5813901"] ;
260 -> 262 ;
263 [label="trafficSource_source <= 265.0\nmse = 492442257179.0\nsamples = 1.0%\nvalue = 10503.3", fillcolor="#e5813900"] ;
259 -> 263 ;
264 [label="hour_local <= 21.5\nmse = 41245430449.9\nsamples = 0.8%\nvalue = 2808.26", fillcolor="#e5813900"] ;
263 -> 264 ;
265 [label="mse = 0.0\nsamples = 0.7%\nvalue = 0.0", fillcolor="#e5813900"] ;
264 -> 265 ;
266 [label="yearday_local <= 123.5\nmse = 395954808810.0\nsamples = 0.1%\nvalue = 27003.68", fillcolor="#e5813900"] ;
264 -> 266 ;
267 [label="yearday_local <= 120.5\nmse = 1.30780652513e+12\nsamples = 0.0%\nvalue = 89573.17", fillcolor="#e5813900"] ;
266 -> 267 ;
268 [label="mse = 0.0\nsamples = 0.0%\nvalue = 0.0", fillcolor="#e5813900"] ;
267 -> 268 ;
269 [label="mse = 1.64844243056e+13\nsamples = 0.0%\nvalue = 1224166.67", fillcolor="#e5813900"] ;
267 -> 269 ;
270 [label="mse = 0.0\nsamples = 0.1%\nvalue = 0.0", fillcolor="#e5813900"] ;
266 -> 270 ;
271 [label="weekday_local <= 4.5\nmse = 2.12481564905e+12\nsamples = 0.2%\nvalue = 38359.86", fillcolor="#e5813900"] ;
263 -> 271 ;
272 [label="mse = 0.0\nsamples = 0.1%\nvalue = 0.0", fillcolor="#e5813900"] ;
271 -> 272 ;
273 [label="yearday_local <= 153.5\nmse = 6.66479475e+12\nsamples = 0.1%\nvalue = 120500.0", fillcolor="#e5813900"] ;
271 -> 273 ;
274 [label="yearday_local <= 139.5\nmse = 1.87339588919e+13\nsamples = 0.0%\nvalue = 340061.35", fillcolor="#e5813900"] ;
273 -> 274 ;
275 [label="mse = 0.0\nsamples = 0.0%\nvalue = 0.0", fillcolor="#e5813900"] ;
274 -> 275 ;
276 [label="mse = 1.80028412109e+14\nsamples = 0.0%\nvalue = 3464375.0", fillcolor="#e5813901"] ;
274 -> 276 ;
277 [label="mse = 0.0\nsamples = 0.0%\nvalue = 0.0", fillcolor="#e5813900"] ;
273 -> 277 ;
278 [label="hour_local <= 1.5\nmse = 8.92156179021e+13\nsamples = 0.2%\nvalue = 651490.68", fillcolor="#e5813900"] ;
232 -> 278 ;
279 [label="totals_hits <= 8.5\nmse = 2.56924971336e+14\nsamples = 0.0%\nvalue = 4387674.42", fillcolor="#e5813901"] ;
278 -> 279 ;
280 [label="mse = 7.02878005917e+14\nsamples = 0.0%\nvalue = 14513076.92", fillcolor="#e5813903"] ;
279 -> 280 ;
281 [label="mse = 0.0\nsamples = 0.0%\nvalue = 0.0", fillcolor="#e5813900"] ;
279 -> 281 ;
282 [label="yearday_local <= 336.5\nmse = 8.42199488993e+13\nsamples = 0.2%\nvalue = 548966.18", fillcolor="#e5813900"] ;
278 -> 282 ;
283 [label="yearday_local <= 124.5\nmse = 1.49223036808e+13\nsamples = 0.2%\nvalue = 346379.56", fillcolor="#e5813900"] ;
282 -> 283 ;
284 [label="yearday_local <= 108.5\nmse = 4.33377525969e+13\nsamples = 0.1%\nvalue = 1003354.98", fillcolor="#e5813900"] ;
283 -> 284 ;
285 [label="yearday_local <= 48.5\nmse = 1.48158431463e+13\nsamples = 0.1%\nvalue = 398897.06", fillcolor="#e5813900"] ;
284 -> 285 ;
286 [label="yearday_local <= 45.0\nmse = 2.87617329304e+13\nsamples = 0.0%\nvalue = 782451.92", fillcolor="#e5813900"] ;
285 -> 286 ;
287 [label="visitNumber <= 6.5\nmse = 1.37833800614e+13\nsamples = 0.0%\nvalue = 425783.78", fillcolor="#e5813900"] ;
286 -> 287 ;
288 [label="mse = 0.0\nsamples = 0.0%\nvalue = 0.0", fillcolor="#e5813900"] ;
287 -> 288 ;
289 [label="visitNumber <= 9.5\nmse = 3.56403649184e+13\nsamples = 0.0%\nvalue = 1125285.71", fillcolor="#e5813900"] ;
287 -> 289 ;
290 [label="yearday_local <= 23.5\nmse = 7.92213512222e+13\nsamples = 0.0%\nvalue = 2625666.67", fillcolor="#e5813900"] ;
289 -> 290 ;
291 [label="mse = 0.0\nsamples = 0.0%\nvalue = 0.0", fillcolor="#e5813900"] ;
290 -> 291 ;
292 [label="mse = 1.52876465816e+14\nsamples = 0.0%\nvalue = 5626428.57", fillcolor="#e5813901"] ;
290 -> 292 ;
293 [label="mse = 0.0\nsamples = 0.0%\nvalue = 0.0", fillcolor="#e5813900"] ;
289 -> 293 ;
294 [label="mse = 1.39986246125e+14\nsamples = 0.0%\nvalue = 3651304.35", fillcolor="#e5813901"] ;
286 -> 294 ;
295 [label="mse = 0.0\nsamples = 0.0%\nvalue = 0.0", fillcolor="#e5813900"] ;
285 -> 295 ;
296 [label="hour_local <= 12.5\nmse = 2.35218425789e+14\nsamples = 0.0%\nvalue = 5570370.37", fillcolor="#e5813901"] ;
284 -> 296 ;
297 [label="mse = 5.79215960938e+14\nsamples = 0.0%\nvalue = 17471250.0", fillcolor="#e5813903"] ;
296 -> 297 ;
298 [label="hour_local <= 17.5\nmse = 5.63419445983e+12\nsamples = 0.0%\nvalue = 559473.68", fillcolor="#e5813900"] ;
296 -> 298 ;
299 [label="mse = 0.0\nsamples = 0.0%\nvalue = 0.0", fillcolor="#e5813900"] ;
298 -> 299 ;
300 [label="mse = 1.68094561983e+13\nsamples = 0.0%\nvalue = 1932727.27", fillcolor="#e5813900"] ;
298 -> 300 ;
301 [label="trafficSource_source <= 76.0\nmse = 132871235979.0\nsamples = 0.1%\nvalue = 12103.52", fillcolor="#e5813900"] ;
283 -> 301 ;
302 [label="geoNetwork_country <= 194.0\nmse = 2.80724722222e+12\nsamples = 0.0%\nvalue = 261666.67", fillcolor="#e5813900"] ;
301 -> 302 ;
303 [label="mse = 0.0\nsamples = 0.0%\nvalue = 0.0", fillcolor="#e5813900"] ;
302 -> 303 ;
304 [label="mse = 8.57610177515e+12\nsamples = 0.0%\nvalue = 845384.62", fillcolor="#e5813900"] ;
302 -> 304 ;
305 [label="mse = 0.0\nsamples = 0.1%\nvalue = 0.0", fillcolor="#e5813900"] ;
301 -> 305 ;
306 [label="yearday_local <= 339.5\nmse = 5.63867307418e+14\nsamples = 0.0%\nvalue = 1957817.26", fillcolor="#e5813900"] ;
282 -> 306 ;
307 [label="mse = 8.303631875e+15\nsamples = 0.0%\nvalue = 27475000.0", fillcolor="#e5813905"] ;
306 -> 307 ;
308 [label="trafficSource_source <= 271.5\nmse = 1.68537016333e+13\nsamples = 0.0%\nvalue = 302648.65", fillcolor="#e5813900"] ;
306 -> 308 ;
309 [label="mse = 0.0\nsamples = 0.0%\nvalue = 0.0", fillcolor="#e5813900"] ;
308 -> 309 ;
310 [label="mse = 2.07925720918e+14\nsamples = 0.0%\nvalue = 3999285.71", fillcolor="#e5813901"] ;
308 -> 310 ;
311 [label="visitNumber <= 19.5\nmse = 5.62260672312e+14\nsamples = 1.4%\nvalue = 1078242.98", fillcolor="#e5813900"] ;
3 -> 311 ;
312 [label="visitNumber <= 3.5\nmse = 2.00927861113e+14\nsamples = 1.4%\nvalue = 820641.43", fillcolor="#e5813900"] ;
311 -> 312 ;
313 [label="yearday_local <= 338.5\nmse = 4.49007703634e+13\nsamples = 1.2%\nvalue = 368877.23", fillcolor="#e5813900"] ;
312 -> 313 ;
314 [label="visitNumber <= 2.5\nmse = 2.02124393396e+13\nsamples = 1.1%\nvalue = 215492.1", fillcolor="#e5813900"] ;
313 -> 314 ;
315 [label="geoNetwork_country <= 211.5\nmse = 1.00843582429e+13\nsamples = 1.1%\nvalue = 159334.53", fillcolor="#e5813900"] ;
314 -> 315 ;
316 [label="mse = 0.0\nsamples = 0.4%\nvalue = 0.0", fillcolor="#e5813900"] ;
315 -> 316 ;
317 [label="totals_newVisits <= 0.5\nmse = 1.64083071634e+13\nsamples = 0.7%\nvalue = 259665.61", fillcolor="#e5813900"] ;
315 -> 317 ;
318 [label="trafficSource_source <= 258.0\nmse = 2.38484833552e+13\nsamples = 0.1%\nvalue = 589032.26", fillcolor="#e5813900"] ;
317 -> 318 ;
319 [label="weekday_local <= 2.5\nmse = 240611044507.0\nsamples = 0.1%\nvalue = 49568.03", fillcolor="#e5813900"] ;
318 -> 319 ;
320 [label="totals_hits <= 10.5\nmse = 713058823529.0\nsamples = 0.0%\nvalue = 150000.0", fillcolor="#e5813900"] ;
319 -> 320 ;
321 [label="totals_hits <= 9.5\nmse = 1.29411339976e+12\nsamples = 0.0%\nvalue = 279878.05", fillcolor="#e5813900"] ;
320 -> 321 ;
322 [label="yearday_local <= 30.5\nmse = 751510327148.0\nsamples = 0.0%\nvalue = 109218.75", fillcolor="#e5813900"] ;
321 -> 322 ;
323 [label="mse = 2.86289648438e+12\nsamples = 0.0%\nvalue = 436875.0", fillcolor="#e5813900"] ;
322 -> 323 ;
324 [label="mse = 0.0\nsamples = 0.0%\nvalue = 0.0", fillcolor="#e5813900"] ;
322 -> 324 ;
325 [label="mse = 2.75162222222e+12\nsamples = 0.0%\nvalue = 886666.67", fillcolor="#e5813900"] ;
321 -> 325 ;
326 [label="mse = 0.0\nsamples = 0.0%\nvalue = 0.0", fillcolor="#e5813900"] ;
320 -> 326 ;
327 [label="mse = 0.0\nsamples = 0.0%\nvalue = 0.0", fillcolor="#e5813900"] ;
319 -> 327 ;
328 [label="totals_hits <= 10.5\nmse = 6.60331144656e+13\nsamples = 0.0%\nvalue = 1588120.0", fillcolor="#e5813900"] ;
318 -> 328 ;
329 [label="trafficSource_isTrueDirect <= 0.5\nmse = 1.19635571e+14\nsamples = 0.0%\nvalue = 2962000.0", fillcolor="#e5813901"] ;
328 -> 329 ;
330 [label="hour_local <= 13.0\nmse = 2.1640062304e+14\nsamples = 0.0%\nvalue = 7896400.0", fillcolor="#e5813901"] ;
329 -> 330 ;
331 [label="mse = 1.64670763889e+14\nsamples = 0.0%\nvalue = 6988333.33", fillcolor="#e5813901"] ;
330 -> 331 ;
332 [label="mse = 2.62687501775e+14\nsamples = 0.0%\nvalue = 8734615.38", fillcolor="#e5813902"] ;
330 -> 332 ;
333 [label="weekday_local <= 1.5\nmse = 8.60774647756e+13\nsamples = 0.0%\nvalue = 1663473.68", fillcolor="#e5813900"] ;
329 -> 333 ;
334 [label="mse = 3.03114915789e+14\nsamples = 0.0%\nvalue = 5960000.0", fillcolor="#e5813901"] ;
333 -> 334 ;
335 [label="yearday_local <= 279.5\nmse = 2.60493087777e+13\nsamples = 0.0%\nvalue = 589342.11", fillcolor="#e5813900"] ;
333 -> 335 ;
336 [label="mse = 0.0\nsamples = 0.0%\nvalue = 0.0", fillcolor="#e5813900"] ;
335 -> 336 ;
337 [label="mse = 1.42448101775e+14\nsamples = 0.0%\nvalue = 3445384.62", fillcolor="#e5813901"] ;
335 -> 337 ;
338 [label="weekday_local <= 5.5\nmse = 1.32032499941e+13\nsamples = 0.0%\nvalue = 319923.08", fillcolor="#e5813900"] ;
328 -> 338 ;
339 [label="mse = 0.0\nsamples = 0.0%\nvalue = 0.0", fillcolor="#e5813900"] ;
338 -> 339 ;
340 [label="mse = 1.42952735537e+14\nsamples = 0.0%\nvalue = 3780909.09", fillcolor="#e5813901"] ;
338 -> 340 ;
341 [label="weekday_local <= 3.5\nmse = 1.49547530189e+13\nsamples = 0.5%\nvalue = 196417.99", fillcolor="#e5813900"] ;
317 -> 341 ;
342 [label="month_local <= 10.5\nmse = 1.99087362254e+12\nsamples = 0.3%\nvalue = 78767.41", fillcolor="#e5813900"] ;
341 -> 342 ;
343 [label="trafficSource_isTrueDirect <= 0.5\nmse = 746368281767.0\nsamples = 0.3%\nvalue = 30073.49", fillcolor="#e5813900"] ;
342 -> 343 ;
344 [label="weekday_local <= 1.5\nmse = 77395100628.0\nsamples = 0.2%\nvalue = 7285.81", fillcolor="#e5813900"] ;
343 -> 344 ;
345 [label="trafficSource_source <= 260.0\nmse = 274929994646.0\nsamples = 0.1%\nvalue = 25926.83", fillcolor="#e5813900"] ;
344 -> 345 ;
346 [label="mse = 0.0\nsamples = 0.0%\nvalue = 0.0", fillcolor="#e5813900"] ;
345 -> 346 ;
347 [label="yearday_local <= 145.5\nmse = 807078940013.0\nsamples = 0.0%\nvalue = 76474.82", fillcolor="#e5813900"] ;
345 -> 347 ;
348 [label="month_local <= 4.5\nmse = 2.21473924e+12\nsamples = 0.0%\nvalue = 212600.0", fillcolor="#e5813900"] ;
347 -> 348 ;
349 [label="mse = 0.0\nsamples = 0.0%\nvalue = 0.0", fillcolor="#e5813900"] ;
348 -> 349 ;
350 [label="mse = 6.25588373702e+12\nsamples = 0.0%\nvalue = 625294.12", fillcolor="#e5813900"] ;
348 -> 350 ;
351 [label="mse = 0.0\nsamples = 0.0%\nvalue = 0.0", fillcolor="#e5813900"] ;
347 -> 351 ;
352 [label="mse = 0.0\nsamples = 0.1%\nvalue = 0.0", fillcolor="#e5813900"] ;
344 -> 352 ;
353 [label="hour_local <= 9.5\nmse = 3.88091186368e+12\nsamples = 0.0%\nvalue = 137322.58", fillcolor="#e5813900"] ;
343 -> 353 ;
354 [label="weekday_local <= 1.5\nmse = 2.16895059592e+13\nsamples = 0.0%\nvalue = 658627.45", fillcolor="#e5813900"] ;
353 -> 354 ;
355 [label="mse = 8.61886743056e+13\nsamples = 0.0%\nvalue = 2799166.67", fillcolor="#e5813901"] ;
354 -> 355 ;
356 [label="mse = 0.0\nsamples = 0.0%\nvalue = 0.0", fillcolor="#e5813900"] ;
354 -> 356 ;
357 [label="hour_local <= 12.5\nmse = 310150761020.0\nsamples = 0.0%\nvalue = 34671.81", fillcolor="#e5813900"] ;
353 -> 357 ;
358 [label="yearday_local <= 111.0\nmse = 1.2033117539e+12\nsamples = 0.0%\nvalue = 136060.61", fillcolor="#e5813900"] ;
357 -> 358 ;
359 [label="mse = 5.34859795918e+12\nsamples = 0.0%\nvalue = 641428.57", fillcolor="#e5813900"] ;
358 -> 359 ;
360 [label="mse = 0.0\nsamples = 0.0%\nvalue = 0.0", fillcolor="#e5813900"] ;
358 -> 360 ;
361 [label="mse = 0.0\nsamples = 0.0%\nvalue = 0.0", fillcolor="#e5813900"] ;
357 -> 361 ;
362 [label="yearday_local <= 319.5\nmse = 1.4659628308e+13\nsamples = 0.0%\nvalue = 585470.59", fillcolor="#e5813900"] ;
342 -> 362 ;
363 [label="hour_local <= 14.5\nmse = 4.38325956447e+13\nsamples = 0.0%\nvalue = 1843148.15", fillcolor="#e5813900"] ;
362 -> 363 ;
364 [label="mse = 9.89849473923e+13\nsamples = 0.0%\nvalue = 4739523.81", fillcolor="#e5813901"] ;
363 -> 364 ;
365 [label="mse = 0.0\nsamples = 0.0%\nvalue = 0.0", fillcolor="#e5813900"] ;
363 -> 365 ;
366 [label="mse = 0.0\nsamples = 0.0%\nvalue = 0.0", fillcolor="#e5813900"] ;
362 -> 366 ;
367 [label="weekday_local <= 4.5\nmse = 2.90927394305e+13\nsamples = 0.3%\nvalue = 325011.27", fillcolor="#e5813900"] ;
341 -> 367 ;
368 [label="hour_local <= 21.5\nmse = 8.14777209789e+13\nsamples = 0.1%\nvalue = 852250.8", fillcolor="#e5813900"] ;
367 -> 368 ;
369 [label="totals_hits <= 11.5\nmse = 6.79485130009e+13\nsamples = 0.1%\nvalue = 593350.52", fillcolor="#e5813900"] ;
368 -> 369 ;
370 [label="mse = 0.0\nsamples = 0.1%\nvalue = 0.0", fillcolor="#e5813900"] ;
369 -> 370 ;
371 [label="hour_local <= 11.5\nmse = 2.70297165234e+14\nsamples = 0.0%\nvalue = 2398125.0", fillcolor="#e5813900"] ;
369 -> 371 ;
372 [label="hour_local <= 8.5\nmse = 8.98593444021e+14\nsamples = 0.0%\nvalue = 8422682.93", fillcolor="#e5813902"] ;
371 -> 372 ;
373 [label="mse = 0.0\nsamples = 0.0%\nvalue = 0.0", fillcolor="#e5813900"] ;
372 -> 373 ;
374 [label="mse = 2.01860223398e+15\nsamples = 0.0%\nvalue = 21583125.0", fillcolor="#e5813904"] ;
372 -> 374 ;
375 [label="mse = 0.0\nsamples = 0.0%\nvalue = 0.0", fillcolor="#e5813900"] ;
371 -> 375 ;
376 [label="yearday_local <= 99.5\nmse = 2.63162136938e+14\nsamples = 0.0%\nvalue = 4619250.0", fillcolor="#e5813901"] ;
368 -> 376 ;
377 [label="mse = 6.06932496e+14\nsamples = 0.0%\nvalue = 12318000.0", fillcolor="#e5813902"] ;
376 -> 377 ;
378 [label="mse = 0.0\nsamples = 0.0%\nvalue = 0.0", fillcolor="#e5813900"] ;
376 -> 378 ;
379 [label="yearday_local <= 140.5\nmse = 577357958306.0\nsamples = 0.2%\nvalue = 40338.54", fillcolor="#e5813900"] ;
367 -> 379 ;
380 [label="yearday_local <= 112.5\nmse = 1.4366737593e+12\nsamples = 0.1%\nvalue = 100802.6", fillcolor="#e5813900"] ;
379 -> 380 ;
381 [label="mse = 0.0\nsamples = 0.1%\nvalue = 0.0", fillcolor="#e5813900"] ;
380 -> 381 ;
382 [label="totals_hits <= 9.5\nmse = 6.21371973928e+12\nsamples = 0.0%\nvalue = 446826.92", fillcolor="#e5813900"] ;
380 -> 382 ;
383 [label="weekday_local <= 5.5\nmse = 1.47214494898e+13\nsamples = 0.0%\nvalue = 999285.71", fillcolor="#e5813900"] ;
382 -> 383 ;
384 [label="mse = 0.0\nsamples = 0.0%\nvalue = 0.0", fillcolor="#e5813900"] ;
383 -> 384 ;
385 [label="mse = 2.98700725762e+13\nsamples = 0.0%\nvalue = 2208947.37", fillcolor="#e5813900"] ;
383 -> 385 ;
386 [label="hour_local <= 18.5\nmse = 103603017690.0\nsamples = 0.0%\nvalue = 72580.65", fillcolor="#e5813900"] ;
382 -> 386 ;
387 [label="mse = 0.0\nsamples = 0.0%\nvalue = 0.0", fillcolor="#e5813900"] ;
386 -> 387 ;
388 [label="mse = 378826530612.0\nsamples = 0.0%\nvalue = 321428.57", fillcolor="#e5813900"] ;
386 -> 388 ;
389 [label="mse = 0.0\nsamples = 0.1%\nvalue = 0.0", fillcolor="#e5813900"] ;
379 -> 389 ;
390 [label="hour_local <= 16.5\nmse = 1.63058705195e+14\nsamples = 0.1%\nvalue = 1011296.66", fillcolor="#e5813900"] ;
314 -> 390 ;
391 [label="trafficSource_source <= 234.5\nmse = 2.95007050246e+12\nsamples = 0.0%\nvalue = 145056.18", fillcolor="#e5813900"] ;
390 -> 391 ;
392 [label="mse = 0.0\nsamples = 0.0%\nvalue = 0.0", fillcolor="#e5813900"] ;
391 -> 392 ;
393 [label="yearday_local <= 220.5\nmse = 8.03909912866e+12\nsamples = 0.0%\nvalue = 400310.08", fillcolor="#e5813900"] ;
391 -> 393 ;
394 [label="weekday_local <= 3.5\nmse = 1.56413816331e+13\nsamples = 0.0%\nvalue = 794461.54", fillcolor="#e5813900"] ;
393 -> 394 ;
395 [label="mse = 0.0\nsamples = 0.0%\nvalue = 0.0", fillcolor="#e5813900"] ;
394 -> 395 ;
396 [label="yearday_local <= 166.5\nmse = 2.96032431589e+13\nsamples = 0.0%\nvalue = 1564848.48", fillcolor="#e5813900"] ;
394 -> 396 ;
397 [label="mse = 1.44829728395e+13\nsamples = 0.0%\nvalue = 1332222.22", fillcolor="#e5813900"] ;
396 -> 397 ;
398 [label="mse = 4.7604704e+13\nsamples = 0.0%\nvalue = 1844000.0", fillcolor="#e5813900"] ;
396 -> 398 ;
399 [label="mse = 0.0\nsamples = 0.0%\nvalue = 0.0", fillcolor="#e5813900"] ;
393 -> 399 ;
400 [label="hour_local <= 17.5\nmse = 5.29790586236e+14\nsamples = 0.0%\nvalue = 3026862.75", fillcolor="#e5813901"] ;
390 -> 400 ;
401 [label="mse = 3.82669198504e+15\nsamples = 0.0%\nvalue = 21217894.74", fillcolor="#e5813904"] ;
400 -> 401 ;
402 [label="hour_local <= 19.5\nmse = 8.74598124861e+12\nsamples = 0.0%\nvalue = 447537.31", fillcolor="#e5813900"] ;
400 -> 402 ;
403 [label="weekday_local <= 4.5\nmse = 2.38783219556e+13\nsamples = 0.0%\nvalue = 1275957.45", fillcolor="#e5813900"] ;
402 -> 403 ;
404 [label="mse = 0.0\nsamples = 0.0%\nvalue = 0.0", fillcolor="#e5813900"] ;
403 -> 404 ;
405 [label="mse = 5.31324232687e+13\nsamples = 0.0%\nvalue = 3156315.79", fillcolor="#e5813901"] ;
403 -> 405 ;
406 [label="mse = 0.0\nsamples = 0.0%\nvalue = 0.0", fillcolor="#e5813900"] ;
402 -> 406 ;
407 [label="yearday_local <= 343.5\nmse = 2.94053191655e+14\nsamples = 0.1%\nvalue = 1933527.08", fillcolor="#e5813900"] ;
313 -> 407 ;
408 [label="totals_hits <= 9.5\nmse = 1.04761619169e+15\nsamples = 0.0%\nvalue = 5399649.12", fillcolor="#e5813901"] ;
407 -> 408 ;
409 [label="weekday_local <= 3.5\nmse = 3.2343211461e+15\nsamples = 0.0%\nvalue = 15909019.61", fillcolor="#e5813903"] ;
408 -> 409 ;
410 [label="trafficSource_source <= 157.0\nmse = 1.72306992628e+14\nsamples = 0.0%\nvalue = 2480689.66", fillcolor="#e5813900"] ;
409 -> 410 ;
411 [label="mse = 0.0\nsamples = 0.0%\nvalue = 0.0", fillcolor="#e5813900"] ;
410 -> 411 ;
412 [label="mse = 5.11147022222e+14\nsamples = 0.0%\nvalue = 7993333.33", fillcolor="#e5813901"] ;
410 -> 412 ;
413 [label="mse = 6.71959321818e+15\nsamples = 0.0%\nvalue = 33610000.0", fillcolor="#e5813906"] ;
409 -> 413 ;
414 [label="trafficSource_source <= 27.0\nmse = 5.13772016389e+13\nsamples = 0.0%\nvalue = 933166.67", fillcolor="#e5813900"] ;
408 -> 414 ;
415 [label="mse = 4.08090900592e+14\nsamples = 0.0%\nvalue = 8613846.15", fillcolor="#e5813902"] ;
414 -> 415 ;
416 [label="mse = 0.0\nsamples = 0.0%\nvalue = 0.0", fillcolor="#e5813900"] ;
414 -> 416 ;
417 [label="yearday_local <= 363.5\nmse = 6.9628007611e+13\nsamples = 0.1%\nvalue = 922081.91", fillcolor="#e5813900"] ;
407 -> 417 ;
418 [label="hour_local <= 19.5\nmse = 5.6897556581e+13\nsamples = 0.1%\nvalue = 594130.84", fillcolor="#e5813900"] ;
417 -> 418 ;
419 [label="yearday_local <= 358.5\nmse = 120095945442.0\nsamples = 0.1%\nvalue = 24233.58", fillcolor="#e5813900"] ;
418 -> 419 ;
420 [label="mse = 0.0\nsamples = 0.1%\nvalue = 0.0", fillcolor="#e5813900"] ;
419 -> 420 ;
421 [label="trafficSource_source <= 74.0\nmse = 643708160000.0\nsamples = 0.0%\nvalue = 132800.0", fillcolor="#e5813900"] ;
419 -> 421 ;
422 [label="mse = 2.71254375e+12\nsamples = 0.0%\nvalue = 622500.0", fillcolor="#e5813900"] ;
421 -> 422 ;
423 [label="mse = 0.0\nsamples = 0.0%\nvalue = 0.0", fillcolor="#e5813900"] ;
421 -> 423 ;
424 [label="hour_local <= 20.5\nmse = 2.4044279706e+14\nsamples = 0.0%\nvalue = 2483064.52", fillcolor="#e5813900"] ;
418 -> 424 ;
425 [label="mse = 9.34198838776e+14\nsamples = 0.0%\nvalue = 9425714.29", fillcolor="#e5813902"] ;
424 -> 425 ;
426 [label="yearday_local <= 355.5\nmse = 1.99384589844e+13\nsamples = 0.0%\nvalue = 458125.0", fillcolor="#e5813900"] ;
424 -> 426 ;
427 [label="mse = 0.0\nsamples = 0.0%\nvalue = 0.0", fillcolor="#e5813900"] ;
426 -> 427 ;
428 [label="mse = 9.64441196676e+13\nsamples = 0.0%\nvalue = 2314736.84", fillcolor="#e5813900"] ;
426 -> 428 ;
429 [label="hour_local <= 13.5\nmse = 1.90209229758e+14\nsamples = 0.0%\nvalue = 4362352.94", fillcolor="#e5813901"] ;
417 -> 429 ;
430 [label="mse = 4.09816974e+14\nsamples = 0.0%\nvalue = 11124000.0", fillcolor="#e5813902"] ;
429 -> 430 ;
431 [label="mse = 0.0\nsamples = 0.0%\nvalue = 0.0", fillcolor="#e5813900"] ;
429 -> 431 ;
432 [label="trafficSource_source <= 27.0\nmse = 1.57115533914e+15\nsamples = 0.1%\nvalue = 4840062.96", fillcolor="#e5813901"] ;
312 -> 432 ;
433 [label="totals_hits <= 9.5\nmse = 8.47850718205e+15\nsamples = 0.0%\nvalue = 19639078.95", fillcolor="#e5813904"] ;
432 -> 433 ;
434 [label="yearday_local <= 231.0\nmse = 2.09913802504e+16\nsamples = 0.0%\nvalue = 50166785.71", fillcolor="#e5813909"] ;
433 -> 434 ;
435 [label="mse = 3.89576670284e+16\nsamples = 0.0%\nvalue = 108051538.46", fillcolor="#e5813914"] ;
434 -> 435 ;
436 [label="mse = 0.0\nsamples = 0.0%\nvalue = 0.0", fillcolor="#e5813900"] ;
434 -> 436 ;
437 [label="hour_local <= 8.5\nmse = 3.18580273438e+14\nsamples = 0.0%\nvalue = 1831250.0", fillcolor="#e5813900"] ;
433 -> 437 ;
438 [label="mse = 2.3608475e+15\nsamples = 0.0%\nvalue = 14650000.0", fillcolor="#e5813903"] ;
437 -> 438 ;
439 [label="mse = 0.0\nsamples = 0.0%\nvalue = 0.0", fillcolor="#e5813900"] ;
437 -> 439 ;
440 [label="trafficSource_source <= 265.0\nmse = 2.10950257201e+14\nsamples = 0.1%\nvalue = 2031760.3", fillcolor="#e5813900"] ;
432 -> 440 ;
441 [label="hour_local <= 2.5\nmse = 1.83501267913e+13\nsamples = 0.1%\nvalue = 458741.42", fillcolor="#e5813900"] ;
440 -> 441 ;
442 [label="totals_hits <= 10.5\nmse = 1.64024447451e+14\nsamples = 0.0%\nvalue = 3900967.74", fillcolor="#e5813901"] ;
441 -> 442 ;
443 [label="mse = 3.05437616e+14\nsamples = 0.0%\nvalue = 8062000.0", fillcolor="#e5813901"] ;
442 -> 443 ;
444 [label="mse = 0.0\nsamples = 0.0%\nvalue = 0.0", fillcolor="#e5813900"] ;
442 -> 444 ;
445 [label="trafficSource_isTrueDirect <= 0.5\nmse = 6.25341037637e+12\nsamples = 0.1%\nvalue = 195911.33", fillcolor="#e5813900"] ;
441 -> 445 ;
446 [label="visitNumber <= 5.5\nmse = 2.65759901358e+13\nsamples = 0.0%\nvalue = 767444.44", fillcolor="#e5813900"] ;
445 -> 446 ;
447 [label="mse = 0.0\nsamples = 0.0%\nvalue = 0.0", fillcolor="#e5813900"] ;
446 -> 447 ;
448 [label="weekday_local <= 3.5\nmse = 6.25921516435e+13\nsamples = 0.0%\nvalue = 1866756.76", fillcolor="#e5813900"] ;
446 -> 448 ;
449 [label="mse = 1.27307008997e+14\nsamples = 0.0%\nvalue = 4062941.18", fillcolor="#e5813901"] ;
448 -> 449 ;
450 [label="mse = 0.0\nsamples = 0.0%\nvalue = 0.0", fillcolor="#e5813900"] ;
448 -> 450 ;
451 [label="yearday_local <= 341.0\nmse = 345803792461.0\nsamples = 0.0%\nvalue = 33132.91", fillcolor="#e5813900"] ;
445 -> 451 ;
452 [label="mse = 0.0\nsamples = 0.0%\nvalue = 0.0", fillcolor="#e5813900"] ;
451 -> 452 ;
453 [label="yearday_local <= 343.5\nmse = 2.96044097222e+12\nsamples = 0.0%\nvalue = 290833.33", fillcolor="#e5813900"] ;
451 -> 453 ;
454 [label="mse = 8.37381875e+12\nsamples = 0.0%\nvalue = 872500.0", fillcolor="#e5813900"] ;
453 -> 454 ;
455 [label="mse = 0.0\nsamples = 0.0%\nvalue = 0.0", fillcolor="#e5813900"] ;
453 -> 455 ;
456 [label="weekday_local <= 1.5\nmse = 4.35639229334e+14\nsamples = 0.1%\nvalue = 3920247.25", fillcolor="#e5813901"] ;
440 -> 456 ;
457 [label="totals_hits <= 10.5\nmse = 1.53513490458e+15\nsamples = 0.0%\nvalue = 9986781.61", fillcolor="#e5813902"] ;
456 -> 457 ;
458 [label="hour_local <= 10.5\nmse = 2.41491225639e+15\nsamples = 0.0%\nvalue = 16393396.23", fillcolor="#e5813903"] ;
457 -> 458 ;
459 [label="mse = 7.81730442431e+15\nsamples = 0.0%\nvalue = 41015833.33", fillcolor="#e5813908"] ;
458 -> 459 ;
460 [label="yearday_local <= 166.5\nmse = 6.043464558e+14\nsamples = 0.0%\nvalue = 9186829.27", fillcolor="#e5813902"] ;
458 -> 460 ;
461 [label="mse = 1.31600970489e+15\nsamples = 0.0%\nvalue = 21061333.33", fillcolor="#e5813904"] ;
460 -> 461 ;
462 [label="mse = 6.54913775148e+13\nsamples = 0.0%\nvalue = 2336153.85", fillcolor="#e5813900"] ;
460 -> 462 ;
463 [label="mse = 0.0\nsamples = 0.0%\nvalue = 0.0", fillcolor="#e5813900"] ;
457 -> 463 ;
464 [label="yearday_local <= 114.0\nmse = 7.51207997133e+13\nsamples = 0.0%\nvalue = 2014873.65", fillcolor="#e5813900"] ;
456 -> 464 ;
465 [label="weekday_local <= 2.5\nmse = 2.30823134113e+12\nsamples = 0.0%\nvalue = 172025.32", fillcolor="#e5813900"] ;
464 -> 465 ;
466 [label="mse = 1.410811875e+13\nsamples = 0.0%\nvalue = 1132500.0", fillcolor="#e5813900"] ;
465 -> 466 ;
467 [label="mse = 0.0\nsamples = 0.0%\nvalue = 0.0", fillcolor="#e5813900"] ;
465 -> 467 ;
468 [label="yearday_local <= 135.5\nmse = 1.02276639876e+14\nsamples = 0.0%\nvalue = 2750151.52", fillcolor="#e5813901"] ;
464 -> 468 ;
469 [label="mse = 3.52726505859e+14\nsamples = 0.0%\nvalue = 8399375.0", fillcolor="#e5813902"] ;
468 -> 469 ;
470 [label="hour_local <= 8.5\nmse = 7.72068206014e+13\nsamples = 0.0%\nvalue = 2253516.48", fillcolor="#e5813900"] ;
468 -> 470 ;
471 [label="mse = 2.78631125e+14\nsamples = 0.0%\nvalue = 7465000.0", fillcolor="#e5813901"] ;
470 -> 471 ;
472 [label="visitNumber <= 4.5\nmse = 6.09361610519e+13\nsamples = 0.0%\nvalue = 1885647.06", fillcolor="#e5813900"] ;
470 -> 472 ;
473 [label="yearday_local <= 256.5\nmse = 1.45844688889e+14\nsamples = 0.0%\nvalue = 4646666.67", fillcolor="#e5813901"] ;
472 -> 473 ;
474 [label="mse = 0.0\nsamples = 0.0%\nvalue = 0.0", fillcolor="#e5813900"] ;
473 -> 474 ;
475 [label="yearday_local <= 317.5\nmse = 2.26889347222e+14\nsamples = 0.0%\nvalue = 8131666.67", fillcolor="#e5813902"] ;
473 -> 475 ;
476 [label="mse = 3.15578340828e+14\nsamples = 0.0%\nvalue = 15012307.69", fillcolor="#e5813903"] ;
475 -> 476 ;
477 [label="mse = 0.0\nsamples = 0.0%\nvalue = 0.0", fillcolor="#e5813900"] ;
475 -> 477 ;
478 [label="yearday_local <= 207.5\nmse = 2.97534155273e+13\nsamples = 0.0%\nvalue = 979687.5", fillcolor="#e5813900"] ;
472 -> 478 ;
479 [label="totals_hits <= 9.5\nmse = 9.4764477721e+13\nsamples = 0.0%\nvalue = 3389189.19", fillcolor="#e5813901"] ;
478 -> 479 ;
480 [label="mse = 1.8427921875e+14\nsamples = 0.0%\nvalue = 7837500.0", fillcolor="#e5813901"] ;
479 -> 480 ;
481 [label="mse = 0.0\nsamples = 0.0%\nvalue = 0.0", fillcolor="#e5813900"] ;
479 -> 481 ;
482 [label="mse = 0.0\nsamples = 0.0%\nvalue = 0.0", fillcolor="#e5813900"] ;
478 -> 482 ;
483 [label="visitNumber <= 21.5\nmse = 2.44317420596e+16\nsamples = 0.0%\nvalue = 18310141.84", fillcolor="#e5813903"] ;
311 -> 483 ;
484 [label="mse = 2.03186143558e+17\nsamples = 0.0%\nvalue = 172115333.33", fillcolor="#e5813920"] ;
483 -> 484 ;
485 [label="mse = 0.0\nsamples = 0.0%\nvalue = 0.0", fillcolor="#e5813900"] ;
483 -> 485 ;
486 [label="visitNumber <= 252.5\nmse = 1.44018005816e+15\nsamples = 2.8%\nvalue = 3367243.05", fillcolor="#e5813901"] ;
2 -> 486 ;
487 [label="visitNumber <= 2.5\nmse = 1.11786724105e+15\nsamples = 2.8%\nvalue = 3238878.66", fillcolor="#e5813901"] ;
486 -> 487 ;
488 [label="totals_newVisits <= 0.5\nmse = 3.44129880991e+14\nsamples = 2.4%\nvalue = 1454581.75", fillcolor="#e5813900"] ;
487 -> 488 ;
489 [label="geoNetwork_country <= 211.5\nmse = 1.29762666892e+15\nsamples = 0.4%\nvalue = 4743031.71", fillcolor="#e5813901"] ;
488 -> 489 ;
490 [label="geoNetwork_country <= 10.5\nmse = 3.68672988274e+13\nsamples = 0.1%\nvalue = 520201.26", fillcolor="#e5813900"] ;
489 -> 490 ;
491 [label="mse = 1.16849126378e+15\nsamples = 0.0%\nvalue = 9480714.29", fillcolor="#e5813902"] ;
490 -> 491 ;
492 [label="yearday_local <= 12.5\nmse = 1.51170345206e+13\nsamples = 0.1%\nvalue = 359577.46", fillcolor="#e5813900"] ;
490 -> 492 ;
493 [label="mse = 1.7578006875e+14\nsamples = 0.0%\nvalue = 3997500.0", fillcolor="#e5813901"] ;
492 -> 493 ;
494 [label="geoNetwork_country <= 39.0\nmse = 9.59046854457e+12\nsamples = 0.1%\nvalue = 244240.42", fillcolor="#e5813900"] ;
492 -> 494 ;
495 [label="totals_hits <= 16.5\nmse = 2.69729190773e+13\nsamples = 0.0%\nvalue = 799517.24", fillcolor="#e5813900"] ;
494 -> 495 ;
496 [label="weekday_local <= 4.5\nmse = 1.11576581899e+13\nsamples = 0.0%\nvalue = 499621.21", fillcolor="#e5813900"] ;
495 -> 496 ;
497 [label="totals_pageviews <= 10.5\nmse = 2.12029279196e+13\nsamples = 0.0%\nvalue = 969852.94", fillcolor="#e5813900"] ;
496 -> 497 ;
498 [label="yearday_local <= 190.5\nmse = 4.361742656e+13\nsamples = 0.0%\nvalue = 1918800.0", fillcolor="#e5813900"] ;
497 -> 498 ;
499 [label="mse = 2.34140683594e+13\nsamples = 0.0%\nvalue = 1249375.0", fillcolor="#e5813900"] ;
498 -> 499 ;
500 [label="mse = 7.73215209877e+13\nsamples = 0.0%\nvalue = 3108888.89", fillcolor="#e5813901"] ;
498 -> 500 ;
501 [label="trafficSource_source <= 93.5\nmse = 7.34330816658e+12\nsamples = 0.0%\nvalue = 418139.53", fillcolor="#e5813900"] ;
497 -> 501 ;
502 [label="mse = 2.67173884298e+13\nsamples = 0.0%\nvalue = 1634545.45", fillcolor="#e5813900"] ;
501 -> 502 ;
503 [label="mse = 0.0\nsamples = 0.0%\nvalue = 0.0", fillcolor="#e5813900"] ;
501 -> 503 ;
504 [label="mse = 0.0\nsamples = 0.0%\nvalue = 0.0", fillcolor="#e5813900"] ;
496 -> 504 ;
505 [label="mse = 1.77372809467e+14\nsamples = 0.0%\nvalue = 3844615.38", fillcolor="#e5813901"] ;
495 -> 505 ;
506 [label="totals_hits <= 10.5\nmse = 5.38171667521e+12\nsamples = 0.1%\nvalue = 112679.74", fillcolor="#e5813900"] ;
494 -> 506 ;
507 [label="trafficSource_source <= 108.0\nmse = 3.86685361094e+13\nsamples = 0.0%\nvalue = 699625.0", fillcolor="#e5813900"] ;
506 -> 507 ;
508 [label="mse = 1.56198161219e+14\nsamples = 0.0%\nvalue = 2945789.47", fillcolor="#e5813901"] ;
507 -> 508 ;
509 [label="mse = 0.0\nsamples = 0.0%\nvalue = 0.0", fillcolor="#e5813900"] ;
507 -> 509 ;
510 [label="yearday_local <= 39.5\nmse = 316584434889.0\nsamples = 0.1%\nvalue = 24417.29", fillcolor="#e5813900"] ;
506 -> 510 ;
511 [label="hour_local <= 12.5\nmse = 3.24375432526e+12\nsamples = 0.0%\nvalue = 254705.88", fillcolor="#e5813900"] ;
510 -> 511 ;
512 [label="mse = 1.84559484375e+13\nsamples = 0.0%\nvalue = 1623750.0", fillcolor="#e5813900"] ;
511 -> 512 ;
513 [label="mse = 0.0\nsamples = 0.0%\nvalue = 0.0", fillcolor="#e5813900"] ;
511 -> 513 ;
514 [label="mse = 0.0\nsamples = 0.1%\nvalue = 0.0", fillcolor="#e5813900"] ;
510 -> 514 ;
515 [label="totals_hits <= 14.5\nmse = 1.84583113216e+15\nsamples = 0.3%\nvalue = 6617487.44", fillcolor="#e5813901"] ;
489 -> 515 ;
516 [label="trafficSource_source <= 5.5\nmse = 2.61639240543e+15\nsamples = 0.2%\nvalue = 9046690.76", fillcolor="#e5813902"] ;
515 -> 516 ;
517 [label="yearday_local <= 72.0\nmse = 4.97643696121e+15\nsamples = 0.0%\nvalue = 19315437.79", fillcolor="#e5813904"] ;
516 -> 517 ;
518 [label="weekday_local <= 4.5\nmse = 1.3780916705e+16\nsamples = 0.0%\nvalue = 49257380.95", fillcolor="#e5813909"] ;
517 -> 518 ;
519 [label="mse = 2.6116564509e+16\nsamples = 0.0%\nvalue = 83049000.0", fillcolor="#e581390f"] ;
518 -> 519 ;
520 [label="mse = 5.84927472107e+14\nsamples = 0.0%\nvalue = 18537727.27", fillcolor="#e5813903"] ;
518 -> 520 ;
521 [label="yearday_local <= 158.5\nmse = 2.59655748246e+15\nsamples = 0.0%\nvalue = 12129371.43", fillcolor="#e5813902"] ;
517 -> 521 ;
522 [label="weekday_local <= 3.5\nmse = 8.42014029711e+15\nsamples = 0.0%\nvalue = 25289285.71", fillcolor="#e5813905"] ;
521 -> 522 ;
523 [label="mse = 2.10173005982e+16\nsamples = 0.0%\nvalue = 64975333.33", fillcolor="#e581390c"] ;
522 -> 523 ;
524 [label="yearday_local <= 114.0\nmse = 6.06220274348e+13\nsamples = 0.0%\nvalue = 3241481.48", fillcolor="#e5813901"] ;
522 -> 524 ;
525 [label="mse = 3.69030909722e+13\nsamples = 0.0%\nvalue = 2164166.67", fillcolor="#e5813900"] ;
524 -> 525 ;
526 [label="mse = 7.79259022222e+13\nsamples = 0.0%\nvalue = 4103333.33", fillcolor="#e5813901"] ;
524 -> 526 ;
527 [label="weekday_local <= 5.5\nmse = 6.85571492238e+14\nsamples = 0.0%\nvalue = 7973609.02", fillcolor="#e5813901"] ;
521 -> 527 ;
528 [label="hour_local <= 9.5\nmse = 4.58551840694e+14\nsamples = 0.0%\nvalue = 5585818.18", fillcolor="#e5813901"] ;
527 -> 528 ;
529 [label="mse = 1.85156408889e+15\nsamples = 0.0%\nvalue = 15213333.33", fillcolor="#e5813903"] ;
528 -> 529 ;
530 [label="totals_pageviews <= 10.5\nmse = 1.64323036578e+14\nsamples = 0.0%\nvalue = 3702173.91", fillcolor="#e5813901"] ;
528 -> 530 ;
531 [label="hour_local <= 15.5\nmse = 563340616549.0\nsamples = 0.0%\nvalue = 115813.95", fillcolor="#e5813900"] ;
530 -> 531 ;
532 [label="mse = 0.0\nsamples = 0.0%\nvalue = 0.0", fillcolor="#e5813900"] ;
531 -> 532 ;
533 [label="mse = 2.04961983471e+12\nsamples = 0.0%\nvalue = 452727.27", fillcolor="#e5813900"] ;
531 -> 533 ;
534 [label="yearday_local <= 288.5\nmse = 2.86838528197e+14\nsamples = 0.0%\nvalue = 6849387.76", fillcolor="#e5813901"] ;
530 -> 534 ;
535 [label="hour_local <= 14.5\nmse = 6.62674646465e+13\nsamples = 0.0%\nvalue = 2373333.33", fillcolor="#e5813900"] ;
534 -> 535 ;
536 [label="mse = 1.30918064889e+14\nsamples = 0.0%\nvalue = 5221333.33", fillcolor="#e5813901"] ;
535 -> 536 ;
537 [label="mse = 0.0\nsamples = 0.0%\nvalue = 0.0", fillcolor="#e5813900"] ;
535 -> 537 ;
538 [label="mse = 6.15216748438e+14\nsamples = 0.0%\nvalue = 16081250.0", fillcolor="#e5813903"] ;
534 -> 538 ;
539 [label="mse = 1.61363597921e+15\nsamples = 0.0%\nvalue = 19393478.26", fillcolor="#e5813904"] ;
527 -> 539 ;
540 [label="trafficSource_source <= 260.0\nmse = 2.09125440866e+15\nsamples = 0.1%\nvalue = 6879066.15", fillcolor="#e5813901"] ;
516 -> 540 ;
541 [label="totals_pageviews <= 11.5\nmse = 7.53543953095e+13\nsamples = 0.1%\nvalue = 1903942.13", fillcolor="#e5813900"] ;
540 -> 541 ;
542 [label="weekday_local <= 1.5\nmse = 3.05551579687e+13\nsamples = 0.1%\nvalue = 1084026.26", fillcolor="#e5813900"] ;
541 -> 542 ;
543 [label="yearday_local <= 131.5\nmse = 5.2064187669e+13\nsamples = 0.0%\nvalue = 2454651.16", fillcolor="#e5813900"] ;
542 -> 543 ;
544 [label="mse = 1.32490237673e+14\nsamples = 0.0%\nvalue = 7217894.74", fillcolor="#e5813901"] ;
543 -> 544 ;
545 [label="totals_pageviews <= 10.5\nmse = 2.09981700156e+13\nsamples = 0.0%\nvalue = 1103880.6", fillcolor="#e5813900"] ;
543 -> 545 ;
546 [label="yearday_local <= 216.5\nmse = 6.60623465223e+12\nsamples = 0.0%\nvalue = 530204.08", fillcolor="#e5813900"] ;
545 -> 546 ;
547 [label="mse = 2.19661668639e+13\nsamples = 0.0%\nvalue = 1998461.54", fillcolor="#e5813900"] ;
546 -> 547 ;
548 [label="mse = 0.0\nsamples = 0.0%\nvalue = 0.0", fillcolor="#e5813900"] ;
546 -> 548 ;
549 [label="mse = 5.6841491358e+13\nsamples = 0.0%\nvalue = 2665555.56", fillcolor="#e5813900"] ;
545 -> 549 ;
550 [label="yearday_local <= 315.5\nmse = 2.50328184393e+13\nsamples = 0.1%\nvalue = 766307.28", fillcolor="#e5813900"] ;
542 -> 550 ;
551 [label="trafficSource_source <= 126.0\nmse = 1.98614196732e+13\nsamples = 0.0%\nvalue = 377165.61", fillcolor="#e5813900"] ;
550 -> 551 ;
552 [label="totals_pageviews <= 10.5\nmse = 1.65765980229e+14\nsamples = 0.0%\nvalue = 2350645.16", fillcolor="#e5813900"] ;
551 -> 552 ;
553 [label="mse = 3.77044040237e+14\nsamples = 0.0%\nvalue = 5605384.62", fillcolor="#e5813901"] ;
552 -> 553 ;
554 [label="mse = 0.0\nsamples = 0.0%\nvalue = 0.0", fillcolor="#e5813900"] ;
552 -> 554 ;
555 [label="hour_local <= 16.5\nmse = 3.40558983381e+12\nsamples = 0.0%\nvalue = 160989.4", fillcolor="#e5813900"] ;
551 -> 555 ;
556 [label="mse = 0.0\nsamples = 0.0%\nvalue = 0.0", fillcolor="#e5813900"] ;
555 -> 556 ;
557 [label="hour_local <= 17.5\nmse = 8.97673958704e+12\nsamples = 0.0%\nvalue = 429811.32", fillcolor="#e5813900"] ;
555 -> 557 ;
558 [label="mse = 3.68595222222e+13\nsamples = 0.0%\nvalue = 1898333.33", fillcolor="#e5813900"] ;
557 -> 558 ;
559 [label="mse = 0.0\nsamples = 0.0%\nvalue = 0.0", fillcolor="#e5813900"] ;
557 -> 559 ;
560 [label="weekday_local <= 4.5\nmse = 4.80912561404e+13\nsamples = 0.0%\nvalue = 2910000.0", fillcolor="#e5813901"] ;
550 -> 560 ;
561 [label="mse = 0.0\nsamples = 0.0%\nvalue = 0.0", fillcolor="#e5813900"] ;
560 -> 561 ;
562 [label="mse = 8.8159657845e+13\nsamples = 0.0%\nvalue = 7211739.13", fillcolor="#e5813901"] ;
560 -> 562 ;
563 [label="trafficSource_isTrueDirect <= 0.5\nmse = 2.70182672743e+14\nsamples = 0.0%\nvalue = 5807083.33", fillcolor="#e5813901"] ;
541 -> 563 ;
564 [label="totals_hits <= 12.5\nmse = 5.92846930316e+14\nsamples = 0.0%\nvalue = 13937407.41", fillcolor="#e5813903"] ;
563 -> 564 ;
565 [label="mse = 2.04965751479e+13\nsamples = 0.0%\nvalue = 1306923.08", fillcolor="#e5813900"] ;
564 -> 565 ;
566 [label="mse = 8.38627738776e+14\nsamples = 0.0%\nvalue = 25665714.29", fillcolor="#e5813905"] ;
564 -> 566 ;
567 [label="yearday_local <= 53.0\nmse = 1.07935175299e+14\nsamples = 0.0%\nvalue = 2625652.17", fillcolor="#e5813900"] ;
563 -> 567 ;
568 [label="mse = 5.41831128395e+14\nsamples = 0.0%\nvalue = 12442222.22", fillcolor="#e5813902"] ;
567 -> 568 ;
569 [label="yearday_local <= 247.5\nmse = 2.62278116389e+13\nsamples = 0.0%\nvalue = 1153166.67", fillcolor="#e5813900"] ;
567 -> 569 ;
570 [label="mse = 0.0\nsamples = 0.0%\nvalue = 0.0", fillcolor="#e5813900"] ;
569 -> 570 ;
571 [label="yearday_local <= 316.0\nmse = 5.29458167092e+13\nsamples = 0.0%\nvalue = 2471071.43", fillcolor="#e5813900"] ;
569 -> 571 ;
572 [label="mse = 9.88619869822e+13\nsamples = 0.0%\nvalue = 5322307.69", fillcolor="#e5813901"] ;
571 -> 572 ;
573 [label="mse = 0.0\nsamples = 0.0%\nvalue = 0.0", fillcolor="#e5813900"] ;
571 -> 573 ;
574 [label="weekday_local <= 1.5\nmse = 4.37582172266e+15\nsamples = 0.1%\nvalue = 12671157.89", fillcolor="#e5813902"] ;
540 -> 574 ;
575 [label="totals_hits <= 13.5\nmse = 1.8622633816e+16\nsamples = 0.0%\nvalue = 31719800.0", fillcolor="#e5813906"] ;
574 -> 575 ;
576 [label="hour_local <= 16.5\nmse = 4.63073008362e+14\nsamples = 0.0%\nvalue = 8870921.05", fillcolor="#e5813902"] ;
575 -> 576 ;
577 [label="hour_local <= 14.5\nmse = 5.45855985354e+14\nsamples = 0.0%\nvalue = 10874032.26", fillcolor="#e5813902"] ;
576 -> 577 ;
578 [label="totals_pageviews <= 10.5\nmse = 1.87867758058e+14\nsamples = 0.0%\nvalue = 6353181.82", fillcolor="#e5813901"] ;
577 -> 578 ;
579 [label="mse = 1.4236009344e+14\nsamples = 0.0%\nvalue = 3518400.0", fillcolor="#e5813901"] ;
578 -> 579 ;
580 [label="mse = 2.23259874238e+14\nsamples = 0.0%\nvalue = 10083157.89", fillcolor="#e5813902"] ;
578 -> 580 ;
581 [label="mse = 1.24885465833e+15\nsamples = 0.0%\nvalue = 21925000.0", fillcolor="#e5813904"] ;
577 -> 581 ;
582 [label="mse = 0.0\nsamples = 0.0%\nvalue = 0.0", fillcolor="#e5813900"] ;
576 -> 582 ;
583 [label="mse = 6.92394693498e+16\nsamples = 0.0%\nvalue = 104074583.33", fillcolor="#e5813913"] ;
575 -> 583 ;
584 [label="hour_local <= 18.5\nmse = 4.5410890569e+14\nsamples = 0.1%\nvalue = 7591520.0", fillcolor="#e5813901"] ;
574 -> 584 ;
585 [label="hour_local <= 9.5\nmse = 5.18182038379e+14\nsamples = 0.0%\nvalue = 8779065.42", fillcolor="#e5813902"] ;
584 -> 585 ;
586 [label="month_local <= 8.5\nmse = 5.21258340237e+13\nsamples = 0.0%\nvalue = 1769230.77", fillcolor="#e5813900"] ;
585 -> 586 ;
587 [label="weekday_local <= 3.5\nmse = 1.7042976e+13\nsamples = 0.0%\nvalue = 708000.0", fillcolor="#e5813900"] ;
586 -> 587 ;
588 [label="mse = 4.6906475e+13\nsamples = 0.0%\nvalue = 2065000.0", fillcolor="#e5813900"] ;
587 -> 588 ;
589 [label="mse = 0.0\nsamples = 0.0%\nvalue = 0.0", fillcolor="#e5813900"] ;
587 -> 589 ;
590 [label="mse = 1.17262847751e+14\nsamples = 0.0%\nvalue = 3954117.65", fillcolor="#e5813901"] ;
586 -> 590 ;
591 [label="yearday_local <= 106.0\nmse = 5.96939743939e+14\nsamples = 0.0%\nvalue = 10134126.39", fillcolor="#e5813902"] ;
585 -> 591 ;
592 [label="yearday_local <= 80.5\nmse = 1.36960996886e+15\nsamples = 0.0%\nvalue = 17248474.58", fillcolor="#e5813903"] ;
591 -> 592 ;
593 [label="hour_local <= 12.5\nmse = 2.5961404042e+14\nsamples = 0.0%\nvalue = 7233095.24", fillcolor="#e5813901"] ;
592 -> 593 ;
594 [label="mse = 4.98303577734e+14\nsamples = 0.0%\nvalue = 16788125.0", fillcolor="#e5813903"] ;
593 -> 594 ;
595 [label="month_local <= 2.5\nmse = 2.19698059172e+13\nsamples = 0.0%\nvalue = 1353076.92", fillcolor="#e5813900"] ;
593 -> 595 ;
596 [label="mse = 0.0\nsamples = 0.0%\nvalue = 0.0", fillcolor="#e5813900"] ;
595 -> 596 ;
597 [label="mse = 4.9505296e+13\nsamples = 0.0%\nvalue = 3518000.0", fillcolor="#e5813901"] ;
595 -> 597 ;
598 [label="mse = 3.25187400623e+15\nsamples = 0.0%\nvalue = 41992352.94", fillcolor="#e5813908"] ;
592 -> 598 ;
599 [label="totals_pageviews <= 10.5\nmse = 3.61640921079e+14\nsamples = 0.0%\nvalue = 8135333.33", fillcolor="#e5813902"] ;
591 -> 599 ;
600 [label="totals_hits <= 10.5\nmse = 2.25614330741e+14\nsamples = 0.0%\nvalue = 4772022.47", fillcolor="#e5813901"] ;
599 -> 600 ;
601 [label="trafficSource_isTrueDirect <= 0.5\nmse = 4.02527402765e+14\nsamples = 0.0%\nvalue = 9047111.11", fillcolor="#e5813902"] ;
600 -> 601 ;
602 [label="mse = 5.57998246222e+14\nsamples = 0.0%\nvalue = 18662666.67", fillcolor="#e5813903"] ;
601 -> 602 ;
603 [label="hour_local <= 14.5\nmse = 2.55447799556e+14\nsamples = 0.0%\nvalue = 4239333.33", fillcolor="#e5813901"] ;
601 -> 603 ;
604 [label="mse = 1.8375e+14\nsamples = 0.0%\nvalue = 3500000.0", fillcolor="#e5813901"] ;
603 -> 604 ;
605 [label="mse = 3.36049495918e+14\nsamples = 0.0%\nvalue = 5084285.71", fillcolor="#e5813901"] ;
603 -> 605 ;
606 [label="yearday_local <= 278.5\nmse = 6.87218403926e+12\nsamples = 0.0%\nvalue = 399772.73", fillcolor="#e5813900"] ;
600 -> 606 ;
607 [label="mse = 0.0\nsamples = 0.0%\nvalue = 0.0", fillcolor="#e5813900"] ;
606 -> 607 ;
608 [label="mse = 3.05588246914e+13\nsamples = 0.0%\nvalue = 1954444.44", fillcolor="#e5813900"] ;
606 -> 608 ;
609 [label="totals_hits <= 12.5\nmse = 4.47253357995e+14\nsamples = 0.0%\nvalue = 10609173.55", fillcolor="#e5813902"] ;
599 -> 609 ;
610 [label="hour_local <= 15.5\nmse = 1.33456026992e+14\nsamples = 0.0%\nvalue = 5226206.9", fillcolor="#e5813901"] ;
609 -> 610 ;
611 [label="month_local <= 7.5\nmse = 6.53746603082e+13\nsamples = 0.0%\nvalue = 3742653.06", fillcolor="#e5813901"] ;
610 -> 611 ;
612 [label="mse = 1.08962134694e+14\nsamples = 0.0%\nvalue = 8732857.14", fillcolor="#e5813902"] ;
611 -> 612 ;
613 [label="mse = 0.0\nsamples = 0.0%\nvalue = 0.0", fillcolor="#e5813900"] ;
611 -> 613 ;
614 [label="mse = 4.26898422222e+14\nsamples = 0.0%\nvalue = 13303333.33", fillcolor="#e5813902"] ;
610 -> 614 ;
615 [label="totals_pageviews <= 11.5\nmse = 6.84910088486e+14\nsamples = 0.0%\nvalue = 15564920.63", fillcolor="#e5813903"] ;
609 -> 615 ;
616 [label="yearday_local <= 242.0\nmse = 1.03613663669e+15\nsamples = 0.0%\nvalue = 22586923.08", fillcolor="#e5813904"] ;
615 -> 616 ;
617 [label="mse = 1.26346956889e+15\nsamples = 0.0%\nvalue = 31793333.33", fillcolor="#e5813906"] ;
616 -> 617 ;
618 [label="mse = 4.5295027438e+14\nsamples = 0.0%\nvalue = 10032727.27", fillcolor="#e5813902"] ;
616 -> 618 ;
619 [label="yearday_local <= 226.0\nmse = 3.79104907816e+14\nsamples = 0.0%\nvalue = 10630540.54", fillcolor="#e5813902"] ;
615 -> 619 ;
620 [label="mse = 9.11949093333e+13\nsamples = 0.0%\nvalue = 2718000.0", fillcolor="#e5813901"] ;
619 -> 620 ;
621 [label="mse = 5.03614606612e+14\nsamples = 0.0%\nvalue = 16025454.55", fillcolor="#e5813903"] ;
619 -> 621 ;
622 [label="totals_pageviews <= 11.5\nmse = 1.50128061728e+13\nsamples = 0.0%\nvalue = 532222.22", fillcolor="#e5813900"] ;
584 -> 622 ;
623 [label="mse = 0.0\nsamples = 0.0%\nvalue = 0.0", fillcolor="#e5813900"] ;
622 -> 623 ;
624 [label="mse = 6.82634380165e+13\nsamples = 0.0%\nvalue = 2612727.27", fillcolor="#e5813900"] ;
622 -> 624 ;
625 [label="totals_pageviews <= 11.5\nmse = 4.46446099803e+13\nsamples = 0.1%\nvalue = 1078369.96", fillcolor="#e5813900"] ;
515 -> 625 ;
626 [label="yearday_local <= 18.0\nmse = 5.2035015647e+12\nsamples = 0.0%\nvalue = 133951.89", fillcolor="#e5813900"] ;
625 -> 626 ;
627 [label="mse = 1.16068363889e+14\nsamples = 0.0%\nvalue = 3248333.33", fillcolor="#e5813901"] ;
626 -> 627 ;
628 [label="mse = 0.0\nsamples = 0.0%\nvalue = 0.0", fillcolor="#e5813900"] ;
626 -> 628 ;
629 [label="totals_hits <= 15.5\nmse = 8.74744904175e+13\nsamples = 0.0%\nvalue = 2156117.65", fillcolor="#e5813900"] ;
625 -> 629 ;
630 [label="yearday_local <= 262.5\nmse = 2.70808851562e+14\nsamples = 0.0%\nvalue = 5766250.0", fillcolor="#e5813901"] ;
629 -> 630 ;
631 [label="hour_local <= 16.0\nmse = 4.97335311556e+14\nsamples = 0.0%\nvalue = 12301333.33", fillcolor="#e5813902"] ;
630 -> 631 ;
632 [label="mse = 1.35459013889e+14\nsamples = 0.0%\nvalue = 5578333.33", fillcolor="#e5813901"] ;
631 -> 632 ;
633 [label="mse = 6.88365366667e+14\nsamples = 0.0%\nvalue = 16783333.33", fillcolor="#e5813903"] ;
631 -> 633 ;
634 [label="mse = 0.0\nsamples = 0.0%\nvalue = 0.0", fillcolor="#e5813900"] ;
630 -> 634 ;
635 [label="hour_local <= 20.5\nmse = 2.02126637647e+13\nsamples = 0.0%\nvalue = 946439.79", fillcolor="#e5813900"] ;
629 -> 635 ;
636 [label="totals_hits <= 20.5\nmse = 1.56211039048e+13\nsamples = 0.0%\nvalue = 565783.13", fillcolor="#e5813900"] ;
635 -> 636 ;
637 [label="hour_local <= 14.5\nmse = 2.26106326068e+12\nsamples = 0.0%\nvalue = 176598.64", fillcolor="#e5813900"] ;
636 -> 637 ;
638 [label="mse = 0.0\nsamples = 0.0%\nvalue = 0.0", fillcolor="#e5813900"] ;
637 -> 638 ;
639 [label="hour_local <= 15.5\nmse = 6.34797354864e+12\nsamples = 0.0%\nvalue = 509019.61", fillcolor="#e5813900"] ;
637 -> 639 ;
640 [label="mse = 1.94688462222e+13\nsamples = 0.0%\nvalue = 1730666.67", fillcolor="#e5813900"] ;
639 -> 640 ;
641 [label="mse = 0.0\nsamples = 0.0%\nvalue = 0.0", fillcolor="#e5813900"] ;
639 -> 641 ;
642 [label="mse = 1.08747295291e+14\nsamples = 0.0%\nvalue = 3576842.11", fillcolor="#e5813901"] ;
636 -> 642 ;
643 [label="totals_hits <= 16.5\nmse = 4.3349928e+13\nsamples = 0.0%\nvalue = 3474000.0", fillcolor="#e5813901"] ;
635 -> 643 ;
644 [label="mse = 2.20504243056e+13\nsamples = 0.0%\nvalue = 1415833.33", fillcolor="#e5813900"] ;
643 -> 644 ;
645 [label="mse = 5.54913928994e+13\nsamples = 0.0%\nvalue = 5373846.15", fillcolor="#e5813901"] ;
643 -> 645 ;
646 [label="geoNetwork_continent <= 2.5\nmse = 1.58255119792e+14\nsamples = 2.0%\nvalue = 822084.05", fillcolor="#e5813900"] ;
488 -> 646 ;
647 [label="trafficSource_isTrueDirect <= 0.5\nmse = 2.28240065507e+14\nsamples = 1.4%\nvalue = 1183599.39", fillcolor="#e5813900"] ;
646 -> 647 ;
648 [label="trafficSource_source <= 258.0\nmse = 1.49878706614e+14\nsamples = 1.1%\nvalue = 826162.73", fillcolor="#e5813900"] ;
647 -> 648 ;
649 [label="yearday_local <= 319.5\nmse = 1.12462343697e+14\nsamples = 0.8%\nvalue = 523301.09", fillcolor="#e5813900"] ;
648 -> 649 ;
650 [label="geoNetwork_country <= 214.5\nmse = 1.70390035909e+13\nsamples = 0.7%\nvalue = 343513.68", fillcolor="#e5813900"] ;
649 -> 650 ;
651 [label="totals_hits <= 23.5\nmse = 1.35814003547e+13\nsamples = 0.7%\nvalue = 306740.83", fillcolor="#e5813900"] ;
650 -> 651 ;
652 [label="totals_pageviews <= 11.5\nmse = 1.2047039132e+13\nsamples = 0.7%\nvalue = 281891.89", fillcolor="#e5813900"] ;
651 -> 652 ;
653 [label="yearday_local <= 25.5\nmse = 7.66438032904e+12\nsamples = 0.5%\nvalue = 185883.89", fillcolor="#e5813900"] ;
652 -> 653 ;
654 [label="yearday_local <= 23.5\nmse = 4.06234955435e+13\nsamples = 0.0%\nvalue = 840612.24", fillcolor="#e5813900"] ;
653 -> 654 ;
655 [label="weekday_local <= 4.5\nmse = 3.32339994808e+12\nsamples = 0.0%\nvalue = 176651.16", fillcolor="#e5813900"] ;
654 -> 655 ;
656 [label="mse = 0.0\nsamples = 0.0%\nvalue = 0.0", fillcolor="#e5813900"] ;
655 -> 656 ;
657 [label="totals_pageviews <= 10.5\nmse = 9.24026572022e+12\nsamples = 0.0%\nvalue = 499736.84", fillcolor="#e5813900"] ;
655 -> 657 ;
658 [label="mse = 0.0\nsamples = 0.0%\nvalue = 0.0", fillcolor="#e5813900"] ;
657 -> 658 ;
659 [label="totals_hits <= 11.5\nmse = 1.99651266436e+13\nsamples = 0.0%\nvalue = 1117058.82", fillcolor="#e5813900"] ;
657 -> 659 ;
660 [label="mse = 4.41575632653e+13\nsamples = 0.0%\nvalue = 2712857.14", fillcolor="#e5813901"] ;
659 -> 660 ;
661 [label="mse = 0.0\nsamples = 0.0%\nvalue = 0.0", fillcolor="#e5813900"] ;
659 -> 661 ;
662 [label="mse = 2.82139209e+14\nsamples = 0.0%\nvalue = 5599000.0", fillcolor="#e5813901"] ;
654 -> 662 ;
663 [label="yearday_local <= 173.5\nmse = 5.10561530309e+12\nsamples = 0.5%\nvalue = 135756.25", fillcolor="#e5813900"] ;
653 -> 663 ;
664 [label="yearday_local <= 172.5\nmse = 1.06724123799e+13\nsamples = 0.2%\nvalue = 261525.77", fillcolor="#e5813900"] ;
663 -> 664 ;
665 [label="totals_hits <= 12.5\nmse = 8.90553297802e+12\nsamples = 0.2%\nvalue = 227773.93", fillcolor="#e5813900"] ;
664 -> 665 ;
666 [label="yearday_local <= 128.5\nmse = 1.4473478933e+13\nsamples = 0.1%\nvalue = 371549.77", fillcolor="#e5813900"] ;
665 -> 666 ;
667 [label="totals_hits <= 11.5\nmse = 8.88456873547e+12\nsamples = 0.1%\nvalue = 194367.28", fillcolor="#e5813900"] ;
666 -> 667 ;
668 [label="mse = 0.0\nsamples = 0.1%\nvalue = 0.0", fillcolor="#e5813900"] ;
667 -> 668 ;
669 [label="yearday_local <= 36.0\nmse = 3.40520399154e+13\nsamples = 0.0%\nvalue = 754191.62", fillcolor="#e5813900"] ;
667 -> 669 ;
670 [label="mse = 1.83684380859e+14\nsamples = 0.0%\nvalue = 3499375.0", fillcolor="#e5813901"] ;
669 -> 670 ;
671 [label="hour_local <= 22.5\nmse = 1.73138261217e+13\nsamples = 0.0%\nvalue = 463311.26", fillcolor="#e5813900"] ;
669 -> 671 ;
672 [label="yearday_local <= 94.5\nmse = 4.49257055766e+12\nsamples = 0.0%\nvalue = 181086.96", fillcolor="#e5813900"] ;
671 -> 672 ;
673 [label="mse = 0.0\nsamples = 0.0%\nvalue = 0.0", fillcolor="#e5813900"] ;
672 -> 673 ;
674 [label="yearday_local <= 103.5\nmse = 1.35693848889e+13\nsamples = 0.0%\nvalue = 555333.33", fillcolor="#e5813900"] ;
672 -> 674 ;
675 [label="mse = 4.770486875e+13\nsamples = 0.0%\nvalue = 2082500.0", fillcolor="#e5813900"] ;
674 -> 675 ;
676 [label="mse = 0.0\nsamples = 0.0%\nvalue = 0.0", fillcolor="#e5813900"] ;
674 -> 676 ;
677 [label="mse = 1.43595330178e+14\nsamples = 0.0%\nvalue = 3459230.77", fillcolor="#e5813901"] ;
671 -> 677 ;
678 [label="yearday_local <= 132.5\nmse = 2.94964173872e+13\nsamples = 0.0%\nvalue = 858050.85", fillcolor="#e5813900"] ;
666 -> 678 ;
679 [label="weekday_local <= 3.5\nmse = 1.20818090861e+14\nsamples = 0.0%\nvalue = 4115897.44", fillcolor="#e5813901"] ;
678 -> 679 ;
680 [label="totals_hits <= 10.5\nmse = 4.02407278464e+13\nsamples = 0.0%\nvalue = 1244074.07", fillcolor="#e5813900"] ;
679 -> 680 ;
681 [label="mse = 0.0\nsamples = 0.0%\nvalue = 0.0", fillcolor="#e5813900"] ;
680 -> 681 ;
682 [label="mse = 7.48354352041e+13\nsamples = 0.0%\nvalue = 2399285.71", fillcolor="#e5813900"] ;
680 -> 682 ;
683 [label="mse = 2.4180826875e+14\nsamples = 0.0%\nvalue = 10577500.0", fillcolor="#e5813902"] ;
679 -> 683 ;
684 [label="hour_local <= 12.5\nmse = 8.90037873689e+12\nsamples = 0.0%\nvalue = 213096.45", fillcolor="#e5813900"] ;
678 -> 684 ;
685 [label="hour_local <= 11.5\nmse = 2.5910703141e+13\nsamples = 0.0%\nvalue = 626567.16", fillcolor="#e5813900"] ;
684 -> 685 ;
686 [label="mse = 0.0\nsamples = 0.0%\nvalue = 0.0", fillcolor="#e5813900"] ;
685 -> 686 ;
687 [label="mse = 1.74056335802e+14\nsamples = 0.0%\nvalue = 4664444.44", fillcolor="#e5813901"] ;
685 -> 687 ;
688 [label="mse = 0.0\nsamples = 0.0%\nvalue = 0.0", fillcolor="#e5813900"] ;
684 -> 688 ;
689 [label="mse = 0.0\nsamples = 0.1%\nvalue = 0.0", fillcolor="#e5813900"] ;
665 -> 689 ;
690 [label="mse = 1.92517271006e+14\nsamples = 0.0%\nvalue = 4005384.62", fillcolor="#e5813901"] ;
664 -> 690 ;
691 [label="yearday_local <= 250.5\nmse = 439772792670.0\nsamples = 0.3%\nvalue = 30888.25", fillcolor="#e5813900"] ;
663 -> 691 ;
692 [label="yearday_local <= 249.5\nmse = 836131848649.0\nsamples = 0.1%\nvalue = 58842.79", fillcolor="#e5813900"] ;
691 -> 692 ;
693 [label="yearday_local <= 244.5\nmse = 622172812704.0\nsamples = 0.1%\nvalue = 37241.38", fillcolor="#e5813900"] ;
692 -> 693 ;
694 [label="totals_hits <= 11.5\nmse = 348202266535.0\nsamples = 0.1%\nvalue = 20519.32", fillcolor="#e5813900"] ;
693 -> 694 ;
695 [label="totals_pageviews <= 10.5\nmse = 968647072294.0\nsamples = 0.0%\nvalue = 57205.39", fillcolor="#e5813900"] ;
694 -> 695 ;
696 [label="mse = 0.0\nsamples = 0.0%\nvalue = 0.0", fillcolor="#e5813900"] ;
695 -> 696 ;
697 [label="hour_local <= 13.5\nmse = 2.74888963572e+12\nsamples = 0.0%\nvalue = 163365.38", fillcolor="#e5813900"] ;
695 -> 697 ;
698 [label="weekday_local <= 3.5\nmse = 7.0360899375e+12\nsamples = 0.0%\nvalue = 424750.0", fillcolor="#e5813900"] ;
697 -> 698 ;
699 [label="mse = 2.38562066116e+13\nsamples = 0.0%\nvalue = 1544545.45", fillcolor="#e5813900"] ;
698 -> 699 ;
700 [label="mse = 0.0\nsamples = 0.0%\nvalue = 0.0", fillcolor="#e5813900"] ;
698 -> 700 ;
701 [label="mse = 0.0\nsamples = 0.0%\nvalue = 0.0", fillcolor="#e5813900"] ;
697 -> 701 ;
702 [label="mse = 0.0\nsamples = 0.1%\nvalue = 0.0", fillcolor="#e5813900"] ;
694 -> 702 ;
703 [label="hour_local <= 8.5\nmse = 3.7759188653e+12\nsamples = 0.0%\nvalue = 232253.52", fillcolor="#e5813900"] ;
693 -> 703 ;
704 [label="mse = 1.69194728889e+13\nsamples = 0.0%\nvalue = 1099333.33", fillcolor="#e5813900"] ;
703 -> 704 ;
705 [label="mse = 0.0\nsamples = 0.0%\nvalue = 0.0", fillcolor="#e5813900"] ;
703 -> 705 ;
706 [label="mse = 1.08211868512e+13\nsamples = 0.0%\nvalue = 1201176.47", fillcolor="#e5813900"] ;
692 -> 706 ;
707 [label="mse = 0.0\nsamples = 0.1%\nvalue = 0.0", fillcolor="#e5813900"] ;
691 -> 707 ;
708 [label="hour_local <= 10.5\nmse = 2.39922298459e+13\nsamples = 0.2%\nvalue = 545645.93", fillcolor="#e5813900"] ;
652 -> 708 ;
709 [label="mse = 0.0\nsamples = 0.1%\nvalue = 0.0", fillcolor="#e5813900"] ;
708 -> 709 ;
710 [label="hour_local <= 15.5\nmse = 3.28712243953e+13\nsamples = 0.1%\nvalue = 751086.72", fillcolor="#e5813900"] ;
708 -> 710 ;
711 [label="yearday_local <= 229.5\nmse = 6.73626438294e+13\nsamples = 0.1%\nvalue = 1559661.97", fillcolor="#e5813900"] ;
710 -> 711 ;
712 [label="yearday_local <= 216.5\nmse = 1.01398267259e+14\nsamples = 0.0%\nvalue = 2339336.28", fillcolor="#e5813900"] ;
711 -> 712 ;
713 [label="yearday_local <= 96.5\nmse = 8.85757118106e+13\nsamples = 0.0%\nvalue = 1628947.37", fillcolor="#e5813900"] ;
712 -> 713 ;
714 [label="mse = 0.0\nsamples = 0.0%\nvalue = 0.0", fillcolor="#e5813900"] ;
713 -> 714 ;
715 [label="yearday_local <= 106.5\nmse = 1.50841782326e+14\nsamples = 0.0%\nvalue = 2837083.33", fillcolor="#e5813901"] ;
713 -> 715 ;
716 [label="mse = 8.96738026531e+14\nsamples = 0.0%\nvalue = 15638571.43", fillcolor="#e5813903"] ;
715 -> 716 ;
717 [label="yearday_local <= 146.0\nmse = 2.7824228916e+13\nsamples = 0.0%\nvalue = 1146320.75", fillcolor="#e5813900"] ;
715 -> 717 ;
718 [label="totals_hits <= 13.5\nmse = 5.57067387524e+13\nsamples = 0.0%\nvalue = 2272173.91", fillcolor="#e5813900"] ;
717 -> 718 ;
719 [label="mse = 0.0\nsamples = 0.0%\nvalue = 0.0", fillcolor="#e5813900"] ;
718 -> 719 ;
720 [label="yearday_local <= 123.5\nmse = 1.01087928922e+14\nsamples = 0.0%\nvalue = 4544347.83", fillcolor="#e5813901"] ;
718 -> 720 ;
721 [label="mse = 1.46700544e+14\nsamples = 0.0%\nvalue = 6056000.0", fillcolor="#e5813901"] ;
720 -> 721 ;
722 [label="mse = 6.28914130178e+13\nsamples = 0.0%\nvalue = 3381538.46", fillcolor="#e5813901"] ;
720 -> 722 ;
723 [label="yearday_local <= 201.0\nmse = 4.73081830556e+12\nsamples = 0.0%\nvalue = 283166.67", fillcolor="#e5813900"] ;
717 -> 723 ;
724 [label="mse = 0.0\nsamples = 0.0%\nvalue = 0.0", fillcolor="#e5813900"] ;
723 -> 724 ;
725 [label="mse = 1.59811820069e+13\nsamples = 0.0%\nvalue = 999411.76", fillcolor="#e5813900"] ;
723 -> 725 ;
726 [label="mse = 1.76560161938e+14\nsamples = 0.0%\nvalue = 11072941.18", fillcolor="#e5813902"] ;
712 -> 726 ;
727 [label="hour_local <= 14.5\nmse = 4.8035582477e+12\nsamples = 0.0%\nvalue = 193720.93", fillcolor="#e5813900"] ;
711 -> 727 ;
728 [label="mse = 0.0\nsamples = 0.0%\nvalue = 0.0", fillcolor="#e5813900"] ;
727 -> 728 ;
729 [label="totals_hits <= 14.5\nmse = 1.68653576389e+13\nsamples = 0.0%\nvalue = 694166.67", fillcolor="#e5813900"] ;
727 -> 729 ;
730 [label="mse = 4.770486875e+13\nsamples = 0.0%\nvalue = 2082500.0", fillcolor="#e5813900"] ;
729 -> 730 ;
731 [label="mse = 0.0\nsamples = 0.0%\nvalue = 0.0", fillcolor="#e5813900"] ;
729 -> 731 ;
732 [label="trafficSource_source <= 134.5\nmse = 1.01648537446e+13\nsamples = 0.1%\nvalue = 234820.14", fillcolor="#e5813900"] ;
710 -> 732 ;
733 [label="mse = 1.134375e+14\nsamples = 0.0%\nvalue = 2750000.0", fillcolor="#e5813901"] ;
732 -> 733 ;
734 [label="weekday_local <= 6.5\nmse = 6.9119288011e+12\nsamples = 0.1%\nvalue = 160296.3", fillcolor="#e5813900"] ;
732 -> 734 ;
735 [label="mse = 0.0\nsamples = 0.1%\nvalue = 0.0", fillcolor="#e5813900"] ;
734 -> 735 ;
736 [label="yearday_local <= 237.5\nmse = 4.25487575987e+13\nsamples = 0.0%\nvalue = 1006511.63", fillcolor="#e5813900"] ;
734 -> 736 ;
737 [label="mse = 0.0\nsamples = 0.0%\nvalue = 0.0", fillcolor="#e5813900"] ;
736 -> 737 ;
738 [label="hour_local <= 19.5\nmse = 1.3786445824e+14\nsamples = 0.0%\nvalue = 3462400.0", fillcolor="#e5813901"] ;
736 -> 738 ;
739 [label="mse = 2.7865166281e+14\nsamples = 0.0%\nvalue = 7869090.91", fillcolor="#e5813901"] ;
738 -> 739 ;
740 [label="mse = 0.0\nsamples = 0.0%\nvalue = 0.0", fillcolor="#e5813900"] ;
738 -> 740 ;
741 [label="mse = 3.39849225e+14\nsamples = 0.0%\nvalue = 6145000.0", fillcolor="#e5813901"] ;
651 -> 741 ;
742 [label="totals_hits <= 12.5\nmse = 5.11834495109e+14\nsamples = 0.0%\nvalue = 5941290.32", fillcolor="#e5813901"] ;
650 -> 742 ;
743 [label="mse = 1.10397927929e+15\nsamples = 0.0%\nvalue = 14167692.31", fillcolor="#e5813903"] ;
742 -> 743 ;
744 [label="mse = 0.0\nsamples = 0.0%\nvalue = 0.0", fillcolor="#e5813900"] ;
742 -> 744 ;
745 [label="yearday_local <= 320.5\nmse = 6.55357685263e+14\nsamples = 0.1%\nvalue = 1548499.4", fillcolor="#e5813900"] ;
649 -> 745 ;
746 [label="mse = 2.52858688139e+16\nsamples = 0.0%\nvalue = 55525789.47", fillcolor="#e581390a"] ;
745 -> 746 ;
747 [label="yearday_local <= 333.5\nmse = 1.0850011149e+13\nsamples = 0.1%\nvalue = 288587.22", fillcolor="#e5813900"] ;
745 -> 747 ;
748 [label="yearday_local <= 329.5\nmse = 3.27138525877e+13\nsamples = 0.0%\nvalue = 759240.51", fillcolor="#e5813900"] ;
747 -> 748 ;
749 [label="mse = 0.0\nsamples = 0.0%\nvalue = 0.0", fillcolor="#e5813900"] ;
748 -> 749 ;
750 [label="totals_hits <= 11.5\nmse = 9.82074891274e+13\nsamples = 0.0%\nvalue = 2367631.58", fillcolor="#e5813900"] ;
748 -> 750 ;
751 [label="mse = 4.08090900592e+14\nsamples = 0.0%\nvalue = 8613846.15", fillcolor="#e5813902"] ;
750 -> 751 ;
752 [label="yearday_local <= 331.5\nmse = 2.45512714034e+13\nsamples = 0.0%\nvalue = 1078730.16", fillcolor="#e5813900"] ;
750 -> 752 ;
753 [label="mse = 0.0\nsamples = 0.0%\nvalue = 0.0", fillcolor="#e5813900"] ;
752 -> 753 ;
754 [label="hour_local <= 14.5\nmse = 4.61159546875e+13\nsamples = 0.0%\nvalue = 2123750.0", fillcolor="#e5813900"] ;
752 -> 754 ;
755 [label="mse = 4.41575632653e+13\nsamples = 0.0%\nvalue = 2712857.14", fillcolor="#e5813901"] ;
754 -> 755 ;
756 [label="mse = 4.71592802469e+13\nsamples = 0.0%\nvalue = 1665555.56", fillcolor="#e5813900"] ;
754 -> 756 ;
757 [label="yearday_local <= 363.5\nmse = 1.74118437324e+12\nsamples = 0.1%\nvalue = 95268.63", fillcolor="#e5813900"] ;
747 -> 757 ;
758 [label="weekday_local <= 6.5\nmse = 526750246817.0\nsamples = 0.1%\nvalue = 31060.33", fillcolor="#e5813900"] ;
757 -> 758 ;
759 [label="mse = 0.0\nsamples = 0.1%\nvalue = 0.0", fillcolor="#e5813900"] ;
758 -> 759 ;
760 [label="totals_pageviews <= 11.5\nmse = 3.70014633159e+12\nsamples = 0.0%\nvalue = 220649.35", fillcolor="#e5813900"] ;
758 -> 760 ;
761 [label="mse = 0.0\nsamples = 0.0%\nvalue = 0.0", fillcolor="#e5813900"] ;
760 -> 761 ;
762 [label="totals_hits <= 13.5\nmse = 9.30126988889e+12\nsamples = 0.0%\nvalue = 566333.33", fillcolor="#e5813900"] ;
760 -> 762 ;
763 [label="mse = 0.0\nsamples = 0.0%\nvalue = 0.0", fillcolor="#e5813900"] ;
762 -> 763 ;
764 [label="mse = 2.38562066116e+13\nsamples = 0.0%\nvalue = 1544545.45", fillcolor="#e5813900"] ;
762 -> 764 ;
765 [label="hour_local <= 14.5\nmse = 2.2438584e+13\nsamples = 0.0%\nvalue = 1266000.0", fillcolor="#e5813900"] ;
757 -> 765 ;
766 [label="mse = 5.0086125e+13\nsamples = 0.0%\nvalue = 3165000.0", fillcolor="#e5813901"] ;
765 -> 766 ;
767 [label="mse = 0.0\nsamples = 0.0%\nvalue = 0.0", fillcolor="#e5813900"] ;
765 -> 767 ;
768 [label="yearday_local <= 108.5\nmse = 2.51488862136e+14\nsamples = 0.3%\nvalue = 1656244.48", fillcolor="#e5813900"] ;
648 -> 768 ;
769 [label="yearday_local <= 102.5\nmse = 9.11999477824e+14\nsamples = 0.1%\nvalue = 3953656.88", fillcolor="#e5813901"] ;
768 -> 769 ;
770 [label="yearday_local <= 57.0\nmse = 1.41283073588e+14\nsamples = 0.1%\nvalue = 2176330.94", fillcolor="#e5813900"] ;
769 -> 770 ;
771 [label="trafficSource_source <= 376.5\nmse = 3.70014633159e+12\nsamples = 0.0%\nvalue = 220649.35", fillcolor="#e5813900"] ;
770 -> 771 ;
772 [label="mse = 0.0\nsamples = 0.0%\nvalue = 0.0", fillcolor="#e5813900"] ;
771 -> 772 ;
773 [label="hour_local <= 15.5\nmse = 2.38562066116e+13\nsamples = 0.0%\nvalue = 1544545.45", fillcolor="#e5813900"] ;
771 -> 773 ;
774 [label="mse = 4.6185616e+13\nsamples = 0.0%\nvalue = 3398000.0", fillcolor="#e5813901"] ;
773 -> 774 ;
775 [label="mse = 0.0\nsamples = 0.0%\nvalue = 0.0", fillcolor="#e5813900"] ;
773 -> 775 ;
776 [label="yearday_local <= 64.5\nmse = 3.01502957232e+14\nsamples = 0.0%\nvalue = 4605161.29", fillcolor="#e5813901"] ;
770 -> 776 ;
777 [label="totals_pageviews <= 10.5\nmse = 1.10657547106e+15\nsamples = 0.0%\nvalue = 17872592.59", fillcolor="#e5813903"] ;
776 -> 777 ;
778 [label="mse = 5.00924277551e+14\nsamples = 0.0%\nvalue = 9137142.86", fillcolor="#e5813902"] ;
777 -> 778 ;
779 [label="mse = 1.58813796923e+15\nsamples = 0.0%\nvalue = 27280000.0", fillcolor="#e5813905"] ;
777 -> 779 ;
780 [label="trafficSource_source <= 300.0\nmse = 1.29825708991e+14\nsamples = 0.0%\nvalue = 2352201.26", fillcolor="#e5813900"] ;
776 -> 780 ;
781 [label="hour_local <= 18.5\nmse = 1.97401881171e+14\nsamples = 0.0%\nvalue = 3578529.41", fillcolor="#e5813901"] ;
780 -> 781 ;
782 [label="hour_local <= 15.5\nmse = 2.47197339359e+14\nsamples = 0.0%\nvalue = 4562625.0", fillcolor="#e5813901"] ;
781 -> 782 ;
783 [label="yearday_local <= 85.0\nmse = 1.93770164412e+14\nsamples = 0.0%\nvalue = 3563802.82", fillcolor="#e5813901"] ;
782 -> 783 ;
784 [label="totals_hits <= 13.5\nmse = 2.30736224852e+13\nsamples = 0.0%\nvalue = 779230.77", fillcolor="#e5813900"] ;
783 -> 784 ;
785 [label="mse = 0.0\nsamples = 0.0%\nvalue = 0.0", fillcolor="#e5813900"] ;
784 -> 785 ;
786 [label="mse = 6.55776639053e+13\nsamples = 0.0%\nvalue = 2337692.31", fillcolor="#e5813900"] ;
784 -> 786 ;
787 [label="hour_local <= 11.5\nmse = 3.808394e+14\nsamples = 0.0%\nvalue = 6957500.0", fillcolor="#e5813901"] ;
783 -> 787 ;
788 [label="mse = 6.33229705325e+14\nsamples = 0.0%\nvalue = 12618461.54", fillcolor="#e5813902"] ;
787 -> 788 ;
789 [label="mse = 1.71222382271e+14\nsamples = 0.0%\nvalue = 3084210.53", fillcolor="#e5813901"] ;
787 -> 789 ;
790 [label="mse = 5.98720017284e+14\nsamples = 0.0%\nvalue = 12442222.22", fillcolor="#e5813902"] ;
782 -> 790 ;
791 [label="mse = 0.0\nsamples = 0.0%\nvalue = 0.0", fillcolor="#e5813900"] ;
781 -> 791 ;
792 [label="yearday_local <= 89.5\nmse = 1.39302111419e+12\nsamples = 0.0%\nvalue = 157719.3", fillcolor="#e5813900"] ;
780 -> 792 ;
793 [label="mse = 0.0\nsamples = 0.0%\nvalue = 0.0", fillcolor="#e5813900"] ;
792 -> 793 ;
794 [label="mse = 6.17375763889e+12\nsamples = 0.0%\nvalue = 749166.67", fillcolor="#e5813900"] ;
792 -> 794 ;
795 [label="hour_local <= 14.5\nmse = 1.24098734456e+16\nsamples = 0.0%\nvalue = 32459230.77", fillcolor="#e5813906"] ;
769 -> 795 ;
796 [label="mse = 2.31663657669e+16\nsamples = 0.0%\nvalue = 60611538.46", fillcolor="#e581390b"] ;
795 -> 796 ;
797 [label="mse = 6.82762674556e+13\nsamples = 0.0%\nvalue = 4306923.08", fillcolor="#e5813901"] ;
795 -> 797 ;
798 [label="totals_hits <= 12.5\nmse = 6.6047062459e+13\nsamples = 0.2%\nvalue = 1017754.08", fillcolor="#e5813900"] ;
768 -> 798 ;
799 [label="month_local <= 10.5\nmse = 1.12497693568e+13\nsamples = 0.1%\nvalue = 370128.21", fillcolor="#e5813900"] ;
798 -> 799 ;
800 [label="totals_hits <= 11.5\nmse = 3.4424683875e+12\nsamples = 0.1%\nvalue = 133275.86", fillcolor="#e5813900"] ;
799 -> 800 ;
801 [label="mse = 0.0\nsamples = 0.0%\nvalue = 0.0", fillcolor="#e5813900"] ;
800 -> 801 ;
802 [label="yearday_local <= 164.0\nmse = 9.08952397699e+12\nsamples = 0.0%\nvalue = 354948.98", fillcolor="#e5813900"] ;
800 -> 802 ;
803 [label="mse = 4.18568888889e+13\nsamples = 0.0%\nvalue = 1446666.67", fillcolor="#e5813900"] ;
802 -> 803 ;
804 [label="yearday_local <= 278.5\nmse = 4.99725588245e+12\nsamples = 0.0%\nvalue = 223942.86", fillcolor="#e5813900"] ;
802 -> 804 ;
805 [label="mse = 0.0\nsamples = 0.0%\nvalue = 0.0", fillcolor="#e5813900"] ;
804 -> 805 ;
806 [label="totals_pageviews <= 10.5\nmse = 2.27509858291e+13\nsamples = 0.0%\nvalue = 1059189.19", fillcolor="#e5813900"] ;
804 -> 806 ;
807 [label="mse = 0.0\nsamples = 0.0%\nvalue = 0.0", fillcolor="#e5813900"] ;
806 -> 807 ;
808 [label="totals_pageviews <= 11.5\nmse = 4.032516475e+13\nsamples = 0.0%\nvalue = 1959500.0", fillcolor="#e5813900"] ;
806 -> 808 ;
809 [label="mse = 6.76066198347e+13\nsamples = 0.0%\nvalue = 3562727.27", fillcolor="#e5813901"] ;
808 -> 809 ;
810 [label="mse = 0.0\nsamples = 0.0%\nvalue = 0.0", fillcolor="#e5813900"] ;
808 -> 810 ;
811 [label="hour_local <= 10.5\nmse = 3.32564621111e+13\nsamples = 0.0%\nvalue = 1057000.0", fillcolor="#e5813900"] ;
799 -> 811 ;
812 [label="weekday_local <= 4.5\nmse = 1.87673804535e+14\nsamples = 0.0%\nvalue = 5253809.52", fillcolor="#e5813901"] ;
811 -> 812 ;
813 [label="mse = 2.75726190533e+14\nsamples = 0.0%\nvalue = 8486923.08", fillcolor="#e5813902"] ;
812 -> 813 ;
814 [label="mse = 0.0\nsamples = 0.0%\nvalue = 0.0", fillcolor="#e5813900"] ;
812 -> 814 ;
815 [label="yearday_local <= 315.0\nmse = 1.02282021202e+13\nsamples = 0.0%\nvalue = 502704.4", fillcolor="#e5813900"] ;
811 -> 815 ;
816 [label="mse = 9.45054076389e+13\nsamples = 0.0%\nvalue = 6660833.33", fillcolor="#e5813901"] ;
815 -> 816 ;
817 [label="mse = 0.0\nsamples = 0.0%\nvalue = 0.0", fillcolor="#e5813900"] ;
815 -> 817 ;
818 [label="totals_hits <= 13.5\nmse = 1.08582432983e+14\nsamples = 0.1%\nvalue = 1527432.74", fillcolor="#e5813900"] ;
798 -> 818 ;
819 [label="yearday_local <= 223.5\nmse = 3.0499111912e+14\nsamples = 0.0%\nvalue = 3115363.98", fillcolor="#e5813901"] ;
818 -> 819 ;
820 [label="yearday_local <= 177.5\nmse = 7.00989506196e+14\nsamples = 0.0%\nvalue = 5717731.96", fillcolor="#e5813901"] ;
819 -> 820 ;
821 [label="mse = 0.0\nsamples = 0.0%\nvalue = 0.0", fillcolor="#e5813900"] ;
820 -> 821 ;
822 [label="hour_local <= 17.0\nmse = 1.69874450533e+15\nsamples = 0.0%\nvalue = 14989729.73", fillcolor="#e5813903"] ;
820 -> 822 ;
823 [label="mse = 2.59932638182e+15\nsamples = 0.0%\nvalue = 25210000.0", fillcolor="#e5813905"] ;
822 -> 823 ;
824 [label="mse = 0.0\nsamples = 0.0%\nvalue = 0.0", fillcolor="#e5813900"] ;
822 -> 824 ;
825 [label="yearday_local <= 317.0\nmse = 6.43978285358e+13\nsamples = 0.0%\nvalue = 1576158.54", fillcolor="#e5813900"] ;
819 -> 825 ;
826 [label="weekday_local <= 3.5\nmse = 4.52061184198e+12\nsamples = 0.0%\nvalue = 389801.98", fillcolor="#e5813900"] ;
825 -> 826 ;
827 [label="mse = 0.0\nsamples = 0.0%\nvalue = 0.0", fillcolor="#e5813900"] ;
826 -> 827 ;
828 [label="weekday_local <= 4.5\nmse = 8.65757262591e+12\nsamples = 0.0%\nvalue = 771960.78", fillcolor="#e5813900"] ;
826 -> 828 ;
829 [label="totals_pageviews <= 10.5\nmse = 1.48775452806e+13\nsamples = 0.0%\nvalue = 1406071.43", fillcolor="#e5813900"] ;
828 -> 829 ;
830 [label="mse = 0.0\nsamples = 0.0%\nvalue = 0.0", fillcolor="#e5813900"] ;
829 -> 830 ;
831 [label="mse = 2.45730115556e+13\nsamples = 0.0%\nvalue = 2624666.67", fillcolor="#e5813900"] ;
829 -> 831 ;
832 [label="mse = 0.0\nsamples = 0.0%\nvalue = 0.0", fillcolor="#e5813900"] ;
828 -> 832 ;
833 [label="yearday_local <= 332.0\nmse = 1.54517723356e+14\nsamples = 0.0%\nvalue = 3478095.24", fillcolor="#e5813901"] ;
825 -> 833 ;
834 [label="mse = 4.56718832099e+14\nsamples = 0.0%\nvalue = 10931111.11", fillcolor="#e5813902"] ;
833 -> 834 ;
835 [label="weekday_local <= 3.5\nmse = 2.53071032099e+12\nsamples = 0.0%\nvalue = 496888.89", fillcolor="#e5813900"] ;
833 -> 835 ;
836 [label="mse = 4.64847768595e+12\nsamples = 0.0%\nvalue = 1016363.64", fillcolor="#e5813900"] ;
835 -> 836 ;
837 [label="mse = 0.0\nsamples = 0.0%\nvalue = 0.0", fillcolor="#e5813900"] ;
835 -> 837 ;
838 [label="yearday_local <= 131.5\nmse = 2.58676910601e+13\nsamples = 0.1%\nvalue = 870618.07", fillcolor="#e5813900"] ;
818 -> 838 ;
839 [label="yearday_local <= 126.5\nmse = 9.0296790664e+13\nsamples = 0.0%\nvalue = 3512051.28", fillcolor="#e5813901"] ;
838 -> 839 ;
840 [label="mse = 0.0\nsamples = 0.0%\nvalue = 0.0", fillcolor="#e5813900"] ;
839 -> 840 ;
841 [label="mse = 2.12654241e+14\nsamples = 0.0%\nvalue = 13697000.0", fillcolor="#e5813903"] ;
839 -> 841 ;
842 [label="totals_pageviews <= 11.5\nmse = 2.11332812086e+13\nsamples = 0.1%\nvalue = 696604.73", fillcolor="#e5813900"] ;
838 -> 842 ;
843 [label="trafficSource_source <= 354.5\nmse = 3.26578665496e+12\nsamples = 0.0%\nvalue = 144920.13", fillcolor="#e5813900"] ;
842 -> 843 ;
844 [label="mse = 0.0\nsamples = 0.0%\nvalue = 0.0", fillcolor="#e5813900"] ;
843 -> 844 ;
845 [label="yearday_local <= 231.5\nmse = 2.13920846881e+13\nsamples = 0.0%\nvalue = 986086.96", fillcolor="#e5813900"] ;
843 -> 845 ;
846 [label="mse = 5.6260575e+13\nsamples = 0.0%\nvalue = 2835000.0", fillcolor="#e5813901"] ;
845 -> 846 ;
847 [label="mse = 0.0\nsamples = 0.0%\nvalue = 0.0", fillcolor="#e5813900"] ;
845 -> 847 ;
848 [label="month_local <= 11.5\nmse = 4.04536749091e+13\nsamples = 0.0%\nvalue = 1315519.71", fillcolor="#e5813900"] ;
842 -> 848 ;
849 [label="yearday_local <= 263.5\nmse = 2.62566996154e+13\nsamples = 0.0%\nvalue = 901270.49", fillcolor="#e5813900"] ;
848 -> 849 ;
850 [label="yearday_local <= 163.0\nmse = 3.92240129393e+12\nsamples = 0.0%\nvalue = 235827.34", fillcolor="#e5813900"] ;
849 -> 850 ;
851 [label="mse = 2.29137128889e+13\nsamples = 0.0%\nvalue = 1279333.33", fillcolor="#e5813900"] ;
850 -> 851 ;
852 [label="weekday_local <= 5.5\nmse = 1.47740870838e+12\nsamples = 0.0%\nvalue = 109596.77", fillcolor="#e5813900"] ;
850 -> 852 ;
