digraph Tree {
node [shape=box, style="filled, rounded", color="black", fontname=helvetica] ;
graph [ranksep=equally, splines=polyline] ;
edge [fontname=helvetica] ;
0 [label="totals_pageviews <= 33.5\nmse = 3.43954529499e+15\nsamples = 100.0%\nvalue = 1746077.11", fillcolor="#e5813900"] ;
1 [label="totals_pageviews <= 19.5\nmse = 4.90777449773e+14\nsamples = 99.0%\nvalue = 926204.48", fillcolor="#e5813900"] ;
0 -> 1 [labeldistance=2.5, labelangle=45, headlabel="True"] ;
2 [label="visitNumber <= 304.5\nmse = 2.28165554526e+14\nsamples = 97.0%\nvalue = 424448.17", fillcolor="#e5813900"] ;
1 -> 2 ;
3 [label="totals_pageviews <= 12.5\nmse = 1.73653487474e+14\nsamples = 96.9%\nvalue = 402167.75", fillcolor="#e5813900"] ;
2 -> 3 ;
4 [label="totals_pageviews <= 9.5\nmse = 6.16514603342e+13\nsamples = 93.7%\nvalue = 125522.91", fillcolor="#e5813900"] ;
3 -> 4 ;
5 [label="totals_pageviews <= 7.5\nmse = 1.38494050668e+13\nsamples = 90.8%\nvalue = 31568.46", fillcolor="#e5813900"] ;
4 -> 5 ;
6 [label="(...)", fillcolor="#C0C0C0"] ;
5 -> 6 ;
255 [label="(...)", fillcolor="#C0C0C0"] ;
5 -> 255 ;
860 [label="visitNumber <= 2.5\nmse = 1.57014086652e+15\nsamples = 2.9%\nvalue = 3108483.39", fillcolor="#e5813900"] ;
4 -> 860 ;
861 [label="(...)", fillcolor="#C0C0C0"] ;
860 -> 861 ;
2130 [label="(...)", fillcolor="#C0C0C0"] ;
860 -> 2130 ;
3017 [label="visitNumber <= 2.5\nmse = 3.35351235393e+15\nsamples = 3.3%\nvalue = 8420706.81", fillcolor="#e5813900"] ;
3 -> 3017 ;
3018 [label="geoNetwork_country <= 211.5\nmse = 9.87684009311e+14\nsamples = 2.6%\nvalue = 4593105.72", fillcolor="#e5813900"] ;
3017 -> 3018 ;
3019 [label="(...)", fillcolor="#C0C0C0"] ;
3018 -> 3019 ;
3224 [label="(...)", fillcolor="#C0C0C0"] ;
3018 -> 3224 ;
6375 [label="trafficSource_source <= 260.5\nmse = 1.27972178687e+16\nsamples = 0.6%\nvalue = 24199925.06", fillcolor="#e5813900"] ;
3017 -> 6375 ;
6376 [label="(...)", fillcolor="#C0C0C0"] ;
6375 -> 6376 ;
7281 [label="(...)", fillcolor="#C0C0C0"] ;
6375 -> 7281 ;
8270 [label="totals_pageviews <= 10.5\nmse = 4.33679909199e+17\nsamples = 0.0%\nvalue = 192698947.37", fillcolor="#e5813902"] ;
2 -> 8270 ;
8271 [label="mse = 0.0\nsamples = 0.0%\nvalue = 0.0", fillcolor="#e5813900"] ;
8270 -> 8271 ;
8272 [label="weekday_local <= 2.5\nmse = 1.1214787288e+18\nsamples = 0.0%\nvalue = 1830640000.0", fillcolor="#e5813914"] ;
8270 -> 8272 ;
8273 [label="mse = 0.0\nsamples = 0.0%\nvalue = 0.0", fillcolor="#e5813900"] ;
8272 -> 8273 ;
8274 [label="weekday_local <= 4.0\nmse = 7.34548292571e+17\nsamples = 0.0%\nvalue = 2092160000.0", fillcolor="#e5813917"] ;
8272 -> 8274 ;
8275 [label="(...)", fillcolor="#C0C0C0"] ;
8274 -> 8275 ;
8278 [label="(...)", fillcolor="#C0C0C0"] ;
8274 -> 8278 ;
8279 [label="visitNumber <= 2.5\nmse = 1.2161277813e+16\nsamples = 2.1%\nvalue = 24289626.61", fillcolor="#e5813900"] ;
1 -> 8279 ;
8280 [label="geoNetwork_country <= 211.5\nmse = 5.54903815744e+15\nsamples = 1.6%\nvalue = 15418702.33", fillcolor="#e5813900"] ;
8279 -> 8280 ;
8281 [label="totals_newVisits <= 0.5\nmse = 3.50477816982e+15\nsamples = 0.5%\nvalue = 2084222.22", fillcolor="#e5813900"] ;
8280 -> 8281 ;
8282 [label="weekday_local <= 2.5\nmse = 2.19838565882e+16\nsamples = 0.1%\nvalue = 9786294.9", fillcolor="#e5813900"] ;
8281 -> 8282 ;
8283 [label="(...)", fillcolor="#C0C0C0"] ;
8282 -> 8283 ;
8314 [label="(...)", fillcolor="#C0C0C0"] ;
8282 -> 8314 ;
8375 [label="trafficSource_source <= 265.0\nmse = 5.69050929582e+13\nsamples = 0.4%\nvalue = 652600.14", fillcolor="#e5813900"] ;
8281 -> 8375 ;
8376 [label="(...)", fillcolor="#C0C0C0"] ;
8375 -> 8376 ;
8487 [label="(...)", fillcolor="#C0C0C0"] ;
8375 -> 8487 ;
8514 [label="trafficSource_source <= 265.0\nmse = 6.35232135259e+15\nsamples = 1.1%\nvalue = 21414421.8", fillcolor="#e5813900"] ;
8280 -> 8514 ;
8515 [label="trafficSource_isTrueDirect <= 0.5\nmse = 4.31063744691e+15\nsamples = 0.8%\nvalue = 15104562.67", fillcolor="#e5813900"] ;
8514 -> 8515 ;
8516 [label="(...)", fillcolor="#C0C0C0"] ;
8515 -> 8516 ;
9903 [label="(...)", fillcolor="#C0C0C0"] ;
8515 -> 9903 ;
10868 [label="yearday_local <= 247.5\nmse = 1.04695347305e+16\nsamples = 0.3%\nvalue = 34971090.6", fillcolor="#e5813900"] ;
8514 -> 10868 ;
10869 [label="(...)", fillcolor="#C0C0C0"] ;
10868 -> 10869 ;
11928 [label="(...)", fillcolor="#C0C0C0"] ;
10868 -> 11928 ;
12443 [label="trafficSource_source <= 27.0\nmse = 3.34293405926e+16\nsamples = 0.5%\nvalue = 54397089.83", fillcolor="#e5813901"] ;
8279 -> 12443 ;
12444 [label="yearday_local <= 334.0\nmse = 1.15962204195e+17\nsamples = 0.1%\nvalue = 108043911.01", fillcolor="#e5813901"] ;
12443 -> 12444 ;
12445 [label="yearday_local <= 128.5\nmse = 5.64192791086e+16\nsamples = 0.1%\nvalue = 88821766.23", fillcolor="#e5813901"] ;
12444 -> 12445 ;
12446 [label="(...)", fillcolor="#C0C0C0"] ;
12445 -> 12446 ;
12565 [label="(...)", fillcolor="#C0C0C0"] ;
12445 -> 12565 ;
12694 [label="month_local <= 11.5\nmse = 6.27337856359e+17\nsamples = 0.0%\nvalue = 284246904.76", fillcolor="#e5813903"] ;
12444 -> 12694 ;
12695 [label="(...)", fillcolor="#C0C0C0"] ;
12694 -> 12695 ;
12700 [label="(...)", fillcolor="#C0C0C0"] ;
12694 -> 12700 ;
12725 [label="trafficSource_source <= 265.0\nmse = 2.0237813441e+16\nsamples = 0.4%\nvalue = 46154127.38", fillcolor="#e5813901"] ;
12443 -> 12725 ;
12726 [label="visitNumber <= 290.5\nmse = 8.44295990584e+15\nsamples = 0.2%\nvalue = 28361892.3", fillcolor="#e5813900"] ;
12725 -> 12726 ;
12727 [label="(...)", fillcolor="#C0C0C0"] ;
12726 -> 12727 ;
13412 [label="(...)", fillcolor="#C0C0C0"] ;
12726 -> 13412 ;
13421 [label="geoNetwork_continent <= 1.5\nmse = 3.06081649554e+16\nsamples = 0.2%\nvalue = 62650811.37", fillcolor="#e5813901"] ;
12725 -> 13421 ;
13422 [label="(...)", fillcolor="#C0C0C0"] ;
13421 -> 13422 ;
13423 [label="(...)", fillcolor="#C0C0C0"] ;
13421 -> 13423 ;
14544 [label="visitNumber <= 233.5\nmse = 2.98725550699e+17\nsamples = 1.0%\nvalue = 85832153.68", fillcolor="#e5813901"] ;
0 -> 14544 [labeldistance=2.5, labelangle=-45, headlabel="False"] ;
14545 [label="visitNumber <= 4.5\nmse = 9.01589412113e+16\nsamples = 1.0%\nvalue = 71987321.24", fillcolor="#e5813901"] ;
14544 -> 14545 ;
14546 [label="totals_pageviews <= 111.5\nmse = 3.78622680876e+16\nsamples = 0.8%\nvalue = 54143318.84", fillcolor="#e5813901"] ;
14545 -> 14546 ;
14547 [label="trafficSource_source <= 27.0\nmse = 2.96544862995e+16\nsamples = 0.8%\nvalue = 49179868.23", fillcolor="#e5813901"] ;
14546 -> 14547 ;
14548 [label="yearday_local <= 114.5\nmse = 1.03652546236e+17\nsamples = 0.1%\nvalue = 95660779.08", fillcolor="#e5813901"] ;
14547 -> 14548 ;
14549 [label="(...)", fillcolor="#C0C0C0"] ;
14548 -> 14549 ;
14678 [label="(...)", fillcolor="#C0C0C0"] ;
14548 -> 14678 ;
15097 [label="visitNumber <= 2.5\nmse = 1.35262666853e+16\nsamples = 0.6%\nvalue = 39394962.93", fillcolor="#e5813900"] ;
14547 -> 15097 ;
15098 [label="(...)", fillcolor="#C0C0C0"] ;
15097 -> 15098 ;
17095 [label="(...)", fillcolor="#C0C0C0"] ;
15097 -> 17095 ;
17704 [label="geoNetwork_country <= 66.5\nmse = 3.30837040345e+17\nsamples = 0.0%\nvalue = 256742348.48", fillcolor="#e5813903"] ;
14546 -> 17704 ;
17705 [label="totals_pageviews <= 117.0\nmse = 1.13732449995e+18\nsamples = 0.0%\nvalue = 1846815000.0", fillcolor="#e5813914"] ;
17704 -> 17705 ;
17706 [label="(...)", fillcolor="#C0C0C0"] ;
17705 -> 17706 ;
17709 [label="(...)", fillcolor="#C0C0C0"] ;
17705 -> 17709 ;
17710 [label="totals_pageviews <= 223.5\nmse = 1.05163709498e+17\nsamples = 0.0%\nvalue = 154157016.13", fillcolor="#e5813902"] ;
17704 -> 17710 ;
17711 [label="(...)", fillcolor="#C0C0C0"] ;
17710 -> 17711 ;
17792 [label="(...)", fillcolor="#C0C0C0"] ;
17710 -> 17792 ;
17811 [label="trafficSource_source <= 33.5\nmse = 3.72000449115e+17\nsamples = 0.1%\nvalue = 172189654.12", fillcolor="#e5813902"] ;
14545 -> 17811 ;
17812 [label="totals_hits <= 135.0\nmse = 1.47833531435e+18\nsamples = 0.0%\nvalue = 320843297.3", fillcolor="#e5813904"] ;
17811 -> 17812 ;
17813 [label="visitNumber <= 7.5\nmse = 1.48142267699e+17\nsamples = 0.0%\nvalue = 255174085.37", fillcolor="#e5813903"] ;
17812 -> 17813 ;
17814 [label="(...)", fillcolor="#C0C0C0"] ;
17813 -> 17814 ;
17851 [label="(...)", fillcolor="#C0C0C0"] ;
17813 -> 17851 ;
17946 [label="totals_hits <= 136.5\nmse = 1.15698211633e+19\nsamples = 0.0%\nvalue = 833688571.43", fillcolor="#e5813909"] ;
17812 -> 17946 ;
17947 [label="(...)", fillcolor="#C0C0C0"] ;
17946 -> 17947 ;
17948 [label="(...)", fillcolor="#C0C0C0"] ;
17946 -> 17948 ;
17955 [label="yearday_local <= 290.5\nmse = 1.09208709768e+17\nsamples = 0.1%\nvalue = 137727343.36", fillcolor="#e5813902"] ;
17811 -> 17955 ;
17956 [label="totals_hits <= 53.5\nmse = 9.09093966559e+16\nsamples = 0.1%\nvalue = 113814942.53", fillcolor="#e5813901"] ;
17955 -> 17956 ;
17957 [label="(...)", fillcolor="#C0C0C0"] ;
17956 -> 17957 ;
18090 [label="(...)", fillcolor="#C0C0C0"] ;
17956 -> 18090 ;
18435 [label="totals_pageviews <= 56.5\nmse = 1.60393819787e+17\nsamples = 0.0%\nvalue = 214778412.7", fillcolor="#e5813902"] ;
17955 -> 18435 ;
18436 [label="(...)", fillcolor="#C0C0C0"] ;
18435 -> 18436 ;
18559 [label="(...)", fillcolor="#C0C0C0"] ;
18435 -> 18559 ;
18614 [label="visitNumber <= 246.0\nmse = 3.64608742819e+19\nsamples = 0.0%\nvalue = 3086930333.33", fillcolor="#e5813922"] ;
14544 -> 18614 ;
18615 [label="hour_local <= 14.0\nmse = 6.75038770631e+19\nsamples = 0.0%\nvalue = 10773958571.43", fillcolor="#e5813977"] ;
18614 -> 18615 ;
18616 [label="month_local <= 7.5\nmse = 9.01616165218e+18\nsamples = 0.0%\nvalue = 5831742000.0", fillcolor="#e5813940"] ;
18615 -> 18616 ;
18617 [label="totals_hits <= 138.5\nmse = 6.42322454419e+17\nsamples = 0.0%\nvalue = 7289677500.0", fillcolor="#e5813950"] ;
18616 -> 18617 ;
18618 [label="(...)", fillcolor="#C0C0C0"] ;
18617 -> 18618 ;
18619 [label="(...)", fillcolor="#C0C0C0"] ;
18617 -> 18619 ;
18620 [label="mse = 0.0\nsamples = 0.0%\nvalue = 0.0", fillcolor="#e5813900"] ;
18616 -> 18620 ;
18621 [label="mse = 0.0\nsamples = 0.0%\nvalue = 23129500000.0", fillcolor="#e58139ff"] ;
18615 -> 18621 ;
18622 [label="weekday_local <= 2.5\nmse = 3.55556595339e+18\nsamples = 0.0%\nvalue = 747400000.0", fillcolor="#e5813908"] ;
18614 -> 18622 ;
18623 [label="totals_hits <= 75.5\nmse = 6.25228492832e+18\nsamples = 0.0%\nvalue = 1531210909.09", fillcolor="#e5813911"] ;
18622 -> 18623 ;
18624 [label="mse = 0.0\nsamples = 0.0%\nvalue = 0.0", fillcolor="#e5813900"] ;
18623 -> 18624 ;
18625 [label="mse = 0.0\nsamples = 0.0%\nvalue = 5614440000.0", fillcolor="#e581393e"] ;
18623 -> 18625 ;
18626 [label="month_local <= 5.0\nmse = 4.17797688889e+15\nsamples = 0.0%\nvalue = 28906666.67", fillcolor="#e5813900"] ;
18622 -> 18626 ;
18627 [label="mse = 0.0\nsamples = 0.0%\nvalue = 0.0", fillcolor="#e5813900"] ;
18626 -> 18627 ;
18628 [label="mse = 0.0\nsamples = 0.0%\nvalue = 173440000.0", fillcolor="#e5813902"] ;
18626 -> 18628 ;
{rank=same ; 0} ;
{rank=same ; 1; 14544} ;
{rank=same ; 2; 8279; 14545; 18614} ;
{rank=same ; 3; 8270; 8280; 12443; 14546; 17811; 18615; 18622} ;
{rank=same ; 4; 3017; 8272; 8281; 8514; 12444; 12725; 14547; 17704; 17812; 17955; 18616; 18623; 18626} ;
{rank=same ; 5; 860; 3018; 6375; 8274; 8282; 8375; 8515; 10868; 12445; 12694; 12726; 13421; 14548; 15097; 17705; 17710; 17813; 17946; 17956; 18435; 18617} ;
{rank=same ; 6; 255; 861; 2130; 3019; 3224; 6376; 7281; 8271; 8273; 8275; 8278; 8283; 8314; 8376; 8487; 8516; 9903; 10869; 11928; 12446; 12565; 12695; 12700; 12727; 13412; 13422; 13423; 14549; 14678; 15098; 17095; 17706; 17709; 17711; 17792; 17814; 17851; 17947; 17948; 17957; 18090; 18436; 18559; 18618; 18619; 18620; 18621; 18624; 18625; 18627; 18628} ;
}