digraph Tree {
node [shape=box, style="filled, rounded", color="black", fontname=helvetica] ;
graph [ranksep=equally, splines=polyline] ;
edge [fontname=helvetica] ;
0 [label="totals_pageviews <= 23.5\nmse = 1.75674660253e+15\nsamples = 100.0%\nvalue = 1617902.84", fillcolor="#e5813901"] ;
1 [label="totals_pageviews <= 13.5\nmse = 3.18360117872e+14\nsamples = 97.9%\nvalue = 609346.84", fillcolor="#e5813900"] ;
0 -> 1 [labeldistance=2.5, labelangle=45, headlabel="True"] ;
2 [label="totals_pageviews <= 8.5\nmse = 7.14396309729e+13\nsamples = 94.4%\nvalue = 169294.96", fillcolor="#e5813900"] ;
1 -> 2 ;
3 [label="totals_pageviews <= 7.5\nmse = 1.22568276979e+13\nsamples = 89.5%\nvalue = 23475.94", fillcolor="#e5813900"] ;
2 -> 3 ;
4 [label="visitNumber <= 8.5\nmse = 9.26509572868e+12\nsamples = 87.7%\nvalue = 12432.05", fillcolor="#e5813900"] ;
3 -> 4 ;
5 [label="totals_pageviews <= 3.5\nmse = 5.07844886912e+12\nsamples = 85.6%\nvalue = 7675.1", fillcolor="#e5813900"] ;
4 -> 5 ;
6 [label="visitNumber <= 1.5\nmse = 19090281162.6\nsamples = 72.5%\nvalue = 309.79", fillcolor="#e5813900"] ;
5 -> 6 ;
7 [label="mse = 0.0\nsamples = 59.9%\nvalue = 0.0", fillcolor="#e5813900"] ;
6 -> 7 ;
8 [label="geoNetwork_city <= 315.0\nmse = 109829918867.0\nsamples = 12.6%\nvalue = 1782.34", fillcolor="#e5813900"] ;
6 -> 8 ;
9 [label="geoNetwork_metro <= 14.0\nmse = 630780572728.0\nsamples = 2.2%\nvalue = 10237.84", fillcolor="#e5813900"] ;
8 -> 9 ;
10 [label="mse = 0.0\nsamples = 1.6%\nvalue = 0.0", fillcolor="#e5813900"] ;
9 -> 10 ;
11 [label="totals_pageviews <= 1.5\nmse = 2.1697768596e+12\nsamples = 0.6%\nvalue = 35230.7", fillcolor="#e5813900"] ;
9 -> 11 ;
12 [label="mse = 0.0\nsamples = 0.4%\nvalue = 0.0", fillcolor="#e5813900"] ;
11 -> 12 ;
13 [label="yearday_local <= 41.5\nmse = 6.51847972243e+12\nsamples = 0.2%\nvalue = 105962.34", fillcolor="#e5813900"] ;
11 -> 13 ;
14 [label="geoNetwork_networkDomain <= 3559.5\nmse = 1.56003206605e+13\nsamples = 0.0%\nvalue = 465479.45", fillcolor="#e5813900"] ;
13 -> 14 ;
15 [label="mse = 3.90921649738e+13\nsamples = 0.0%\nvalue = 1192280.7", fillcolor="#e5813900"] ;
14 -> 15 ;
16 [label="mse = 0.0\nsamples = 0.0%\nvalue = 0.0", fillcolor="#e5813900"] ;
14 -> 16 ;
17 [label="trafficSource_isTrueDirect <= 0.5\nmse = 5.47270430388e+12\nsamples = 0.2%\nvalue = 65209.63", fillcolor="#e5813900"] ;
13 -> 17 ;
18 [label="device_operatingSystem <= 6.5\nmse = 2.7027646537e+13\nsamples = 0.0%\nvalue = 323038.46", fillcolor="#e5813900"] ;
17 -> 18 ;
19 [label="mse = 9.04247474448e+13\nsamples = 0.0%\nvalue = 1090779.22", fillcolor="#e5813900"] ;
18 -> 19 ;
20 [label="mse = 0.0\nsamples = 0.0%\nvalue = 0.0", fillcolor="#e5813900"] ;
18 -> 20 ;
21 [label="mse = 0.0\nsamples = 0.1%\nvalue = 0.0", fillcolor="#e5813900"] ;
17 -> 21 ;
22 [label="mse = 0.0\nsamples = 10.4%\nvalue = 0.0", fillcolor="#e5813900"] ;
8 -> 22 ;
23 [label="totals_newVisits <= 0.5\nmse = 3.30644735048e+13\nsamples = 13.1%\nvalue = 48419.44", fillcolor="#e5813900"] ;
5 -> 23 ;
24 [label="geoNetwork_metro <= 59.5\nmse = 1.31721271274e+14\nsamples = 3.3%\nvalue = 186293.23", fillcolor="#e5813900"] ;
23 -> 24 ;
25 [label="geoNetwork_metro <= 58.0\nmse = 4.76683810692e+14\nsamples = 0.9%\nvalue = 554668.33", fillcolor="#e5813900"] ;
24 -> 25 ;
26 [label="totals_pageviews <= 6.5\nmse = 2.71810119236e+12\nsamples = 0.7%\nvalue = 52085.45", fillcolor="#e5813900"] ;
25 -> 26 ;
27 [label="hour_local <= 21.5\nmse = 16198958611.4\nsamples = 0.6%\nvalue = 2027.92", fillcolor="#e5813900"] ;
26 -> 27 ;
28 [label="mse = 0.0\nsamples = 0.5%\nvalue = 0.0", fillcolor="#e5813900"] ;
27 -> 28 ;
29 [label="totals_pageviews <= 5.5\nmse = 249371555556.0\nsamples = 0.0%\nvalue = 31333.33", fillcolor="#e5813900"] ;
27 -> 29 ;
30 [label="mse = 0.0\nsamples = 0.0%\nvalue = 0.0", fillcolor="#e5813900"] ;
29 -> 30 ;
31 [label="mse = 925018750000.0\nsamples = 0.0%\nvalue = 117500.0", fillcolor="#e5813900"] ;
29 -> 31 ;
32 [label="trafficSource_source <= 265.0\nmse = 1.6152439673e+13\nsamples = 0.1%\nvalue = 302373.1", fillcolor="#e5813900"] ;
26 -> 32 ;
33 [label="mse = 0.0\nsamples = 0.1%\nvalue = 0.0", fillcolor="#e5813900"] ;
32 -> 33 ;
34 [label="yearday_local <= 250.5\nmse = 7.01192233083e+13\nsamples = 0.0%\nvalue = 1338595.51", fillcolor="#e5813900"] ;
32 -> 34 ;
35 [label="mse = 0.0\nsamples = 0.0%\nvalue = 0.0", fillcolor="#e5813900"] ;
34 -> 35 ;
36 [label="mse = 1.64691262301e+14\nsamples = 0.0%\nvalue = 3263972.6", fillcolor="#e5813901"] ;
34 -> 36 ;
37 [label="weekday_local <= 5.5\nmse = 2.21353570447e+15\nsamples = 0.2%\nvalue = 2400986.79", fillcolor="#e5813901"] ;
25 -> 37 ;
38 [label="trafficSource_isTrueDirect <= 0.5\nmse = 1.63171751428e+15\nsamples = 0.2%\nvalue = 1195858.14", fillcolor="#e5813900"] ;
37 -> 38 ;
39 [label="weekday_local <= 2.5\nmse = 1.00810781678e+16\nsamples = 0.0%\nvalue = 7422119.57", fillcolor="#e5813902"] ;
38 -> 39 ;
40 [label="mse = 2.74211628932e+16\nsamples = 0.0%\nvalue = 20383134.33", fillcolor="#e5813907"] ;
39 -> 40 ;
41 [label="mse = 0.0\nsamples = 0.0%\nvalue = 0.0", fillcolor="#e5813900"] ;
39 -> 41 ;
42 [label="mse = 0.0\nsamples = 0.1%\nvalue = 0.0", fillcolor="#e5813900"] ;
38 -> 42 ;
43 [label="mse = 6.69432994245e+15\nsamples = 0.0%\nvalue = 11892413.79", fillcolor="#e5813904"] ;
37 -> 43 ;
44 [label="totals_pageviews <= 6.5\nmse = 3.51345875622e+12\nsamples = 2.4%\nvalue = 49457.79", fillcolor="#e5813900"] ;
24 -> 44 ;
45 [label="geoNetwork_city <= 358.5\nmse = 1.25440054284e+12\nsamples = 2.0%\nvalue = 18900.82", fillcolor="#e5813900"] ;
44 -> 45 ;
46 [label="weekday_local <= 4.5\nmse = 3.10092447609e+13\nsamples = 0.0%\nvalue = 314253.97", fillcolor="#e5813900"] ;
45 -> 46 ;
47 [label="mse = 0.0\nsamples = 0.0%\nvalue = 0.0", fillcolor="#e5813900"] ;
46 -> 47 ;
48 [label="mse = 1.2723796875e+14\nsamples = 0.0%\nvalue = 1302500.0", fillcolor="#e5813900"] ;
46 -> 48 ;
49 [label="geoNetwork_subContinent <= 6.5\nmse = 546341010575.0\nsamples = 1.9%\nvalue = 11893.5", fillcolor="#e5813900"] ;
45 -> 49 ;
50 [label="weekday_local <= 1.5\nmse = 2.66430913915e+12\nsamples = 0.1%\nvalue = 68488.58", fillcolor="#e5813900"] ;
49 -> 50 ;
51 [label="mse = 2.2004818404e+13\nsamples = 0.0%\nvalue = 573088.24", fillcolor="#e5813900"] ;
50 -> 51 ;
52 [label="mse = 0.0\nsamples = 0.1%\nvalue = 0.0", fillcolor="#e5813900"] ;
50 -> 52 ;
53 [label="hour_local <= 8.5\nmse = 451359268649.0\nsamples = 1.9%\nvalue = 9359.46", fillcolor="#e5813900"] ;
49 -> 53 ;
54 [label="geoNetwork_city <= 386.0\nmse = 2.58856906003e+12\nsamples = 0.2%\nvalue = 43382.83", fillcolor="#e5813900"] ;
53 -> 54 ;
55 [label="trafficSource_source <= 265.0\nmse = 2.039113924e+13\nsamples = 0.0%\nvalue = 324205.13", fillcolor="#e5813900"] ;
54 -> 55 ;
56 [label="mse = 5.70846988448e+13\nsamples = 0.0%\nvalue = 916231.88", fillcolor="#e5813900"] ;
55 -> 56 ;
57 [label="mse = 0.0\nsamples = 0.0%\nvalue = 0.0", fillcolor="#e5813900"] ;
55 -> 57 ;
58 [label="yearday_local <= 25.5\nmse = 11690325726.7\nsamples = 0.2%\nvalue = 2939.44", fillcolor="#e5813900"] ;
54 -> 58 ;
59 [label="mse = 156819960000.0\nsamples = 0.0%\nvalue = 39800.0", fillcolor="#e5813900"] ;
58 -> 59 ;
60 [label="mse = 0.0\nsamples = 0.2%\nvalue = 0.0", fillcolor="#e5813900"] ;
58 -> 60 ;
61 [label="device_browser <= 18.0\nmse = 154506506092.0\nsamples = 1.6%\nvalue = 4636.62", fillcolor="#e5813900"] ;
53 -> 61 ;
62 [label="hour_local <= 10.5\nmse = 14477998440.4\nsamples = 1.5%\nvalue = 1208.64", fillcolor="#e5813900"] ;
61 -> 62 ;
63 [label="device_operatingSystem <= 11.5\nmse = 99805514949.6\nsamples = 0.2%\nvalue = 8336.81", fillcolor="#e5813900"] ;
62 -> 63 ;
64 [label="mse = 0.0\nsamples = 0.2%\nvalue = 0.0", fillcolor="#e5813900"] ;
63 -> 64 ;
65 [label="geoNetwork_city <= 514.5\nmse = 376691354571.0\nsamples = 0.1%\nvalue = 31526.32", fillcolor="#e5813900"] ;
63 -> 65 ;
66 [label="mse = 1.9132558802e+12\nsamples = 0.0%\nvalue = 161891.89", fillcolor="#e5813900"] ;
65 -> 66 ;
67 [label="mse = 0.0\nsamples = 0.0%\nvalue = 0.0", fillcolor="#e5813900"] ;
65 -> 67 ;
68 [label="mse = 0.0\nsamples = 1.2%\nvalue = 0.0", fillcolor="#e5813900"] ;
62 -> 68 ;
69 [label="device_browser <= 22.0\nmse = 1.26671200591e+12\nsamples = 0.2%\nvalue = 31884.52", fillcolor="#e5813900"] ;
61 -> 69 ;
70 [label="mse = 1.92758128334e+13\nsamples = 0.0%\nvalue = 490864.2", fillcolor="#e5813900"] ;
69 -> 70 ;
71 [label="mse = 0.0\nsamples = 0.2%\nvalue = 0.0", fillcolor="#e5813900"] ;
69 -> 71 ;
72 [label="hour_local <= 9.5\nmse = 1.52882021803e+13\nsamples = 0.4%\nvalue = 209138.79", fillcolor="#e5813900"] ;
44 -> 72 ;
73 [label="visitNumber <= 4.5\nmse = 6.62712658612e+13\nsamples = 0.1%\nvalue = 702505.4", fillcolor="#e5813900"] ;
72 -> 73 ;
74 [label="trafficSource_medium <= 5.5\nmse = 1.23735885121e+13\nsamples = 0.1%\nvalue = 259674.8", fillcolor="#e5813900"] ;
73 -> 74 ;
75 [label="mse = 0.0\nsamples = 0.0%\nvalue = 0.0", fillcolor="#e5813900"] ;
74 -> 75 ;
76 [label="mse = 6.03603006574e+13\nsamples = 0.0%\nvalue = 1294864.86", fillcolor="#e5813900"] ;
74 -> 76 ;
77 [label="mse = 2.74056680127e+14\nsamples = 0.0%\nvalue = 2440851.06", fillcolor="#e5813901"] ;
73 -> 77 ;
78 [label="hour_local <= 15.5\nmse = 4.18330814967e+12\nsamples = 0.3%\nvalue = 102296.54", fillcolor="#e5813900"] ;
72 -> 78 ;
79 [label="mse = 0.0\nsamples = 0.2%\nvalue = 0.0", fillcolor="#e5813900"] ;
78 -> 79 ;
80 [label="weekday_local <= 4.5\nmse = 8.53637500094e+12\nsamples = 0.2%\nvalue = 209291.87", fillcolor="#e5813900"] ;
78 -> 80 ;
81 [label="geoNetwork_country <= 162.0\nmse = 2.71030689247e+12\nsamples = 0.1%\nvalue = 62582.97", fillcolor="#e5813900"] ;
80 -> 81 ;
82 [label="mse = 1.77432669025e+13\nsamples = 0.0%\nvalue = 413047.62", fillcolor="#e5813900"] ;
81 -> 82 ;
83 [label="mse = 0.0\nsamples = 0.1%\nvalue = 0.0", fillcolor="#e5813900"] ;
81 -> 83 ;
84 [label="yearday_local <= 309.5\nmse = 1.98806476207e+13\nsamples = 0.1%\nvalue = 498125.0", fillcolor="#e5813900"] ;
80 -> 84 ;
85 [label="weekday_local <= 5.5\nmse = 7.06534060349e+12\nsamples = 0.0%\nvalue = 274028.78", fillcolor="#e5813900"] ;
84 -> 85 ;
86 [label="mse = 1.7412228699e+13\nsamples = 0.0%\nvalue = 686306.31", fillcolor="#e5813900"] ;
85 -> 86 ;
87 [label="mse = 0.0\nsamples = 0.0%\nvalue = 0.0", fillcolor="#e5813900"] ;
85 -> 87 ;
88 [label="mse = 6.71272243243e+13\nsamples = 0.0%\nvalue = 1340000.0", fillcolor="#e5813900"] ;
84 -> 88 ;
89 [label="yearday_local <= 7.5\nmse = 87760848830.6\nsamples = 9.8%\nvalue = 2346.03", fillcolor="#e5813900"] ;
23 -> 89 ;
90 [label="hour_local <= 3.5\nmse = 2.04680158016e+12\nsamples = 0.2%\nvalue = 42484.58", fillcolor="#e5813900"] ;
89 -> 90 ;
91 [label="mse = 1.70958883731e+13\nsamples = 0.0%\nvalue = 357185.19", fillcolor="#e5813900"] ;
90 -> 91 ;
92 [label="mse = 0.0\nsamples = 0.1%\nvalue = 0.0", fillcolor="#e5813900"] ;
90 -> 92 ;
93 [label="trafficSource_source <= 22.0\nmse = 53693128838.9\nsamples = 9.6%\nvalue = 1648.6", fillcolor="#e5813900"] ;
89 -> 93 ;
94 [label="geoNetwork_region <= 77.5\nmse = 307722892583.0\nsamples = 1.7%\nvalue = 9450.64", fillcolor="#e5813900"] ;
93 -> 94 ;
95 [label="weekday_local <= 4.5\nmse = 1.32414221891e+12\nsamples = 0.4%\nvalue = 38839.25", fillcolor="#e5813900"] ;
94 -> 95 ;
96 [label="mse = 0.0\nsamples = 0.3%\nvalue = 0.0", fillcolor="#e5813900"] ;
95 -> 96 ;
97 [label="totals_pageviews <= 6.5\nmse = 4.6602890999e+12\nsamples = 0.1%\nvalue = 137088.95", fillcolor="#e5813900"] ;
95 -> 97 ;
98 [label="hour_local <= 2.5\nmse = 1.41955481683e+12\nsamples = 0.1%\nvalue = 47393.36", fillcolor="#e5813900"] ;
97 -> 98 ;
99 [label="mse = 1.36331360947e+13\nsamples = 0.0%\nvalue = 461538.46", fillcolor="#e5813900"] ;
98 -> 99 ;
100 [label="mse = 0.0\nsamples = 0.1%\nvalue = 0.0", fillcolor="#e5813900"] ;
98 -> 100 ;
101 [label="mse = 2.31622821648e+13\nsamples = 0.0%\nvalue = 657981.65", fillcolor="#e5813900"] ;
97 -> 101 ;
102 [label="weekday_local <= 6.5\nmse = 4060715453.71\nsamples = 1.3%\nvalue = 680.26", fillcolor="#e5813900"] ;
94 -> 102 ;
103 [label="mse = 0.0\nsamples = 1.2%\nvalue = 0.0", fillcolor="#e5813900"] ;
102 -> 103 ;
104 [label="totals_pageviews <= 6.5\nmse = 38572357320.9\nsamples = 0.1%\nvalue = 6468.04", fillcolor="#e5813900"] ;
102 -> 104 ;
105 [label="mse = 0.0\nsamples = 0.1%\nvalue = 0.0", fillcolor="#e5813900"] ;
104 -> 105 ;
106 [label="mse = 289743946520.0\nsamples = 0.0%\nvalue = 48934.43", fillcolor="#e5813900"] ;
104 -> 106 ;
107 [label="mse = 0.0\nsamples = 7.9%\nvalue = 0.0", fillcolor="#e5813900"] ;
93 -> 107 ;
108 [label="geoNetwork_subContinent <= 6.5\nmse = 1.74309978214e+14\nsamples = 2.2%\nvalue = 200000.0", fillcolor="#e5813900"] ;
4 -> 108 ;
109 [label="visitNumber <= 9.5\nmse = 2.67318239539e+15\nsamples = 0.1%\nvalue = 2547215.5", fillcolor="#e5813901"] ;
108 -> 109 ;
110 [label="mse = 1.97560383471e+16\nsamples = 0.0%\nvalue = 19127272.73", fillcolor="#e5813906"] ;
109 -> 110 ;
111 [label="mse = 0.0\nsamples = 0.1%\nvalue = 0.0", fillcolor="#e5813900"] ;
109 -> 111 ;
112 [label="yearday_local <= 21.5\nmse = 2.50609111921e+13\nsamples = 2.1%\nvalue = 60135.62", fillcolor="#e5813900"] ;
108 -> 112 ;
113 [label="trafficSource_isTrueDirect <= 0.5\nmse = 3.73594479786e+14\nsamples = 0.1%\nvalue = 898275.86", fillcolor="#e5813900"] ;
112 -> 113 ;
114 [label="mse = 4.28668882551e+15\nsamples = 0.0%\nvalue = 10551898.73", fillcolor="#e5813903"] ;
113 -> 114 ;
115 [label="mse = 0.0\nsamples = 0.1%\nvalue = 0.0", fillcolor="#e5813900"] ;
113 -> 115 ;
116 [label="mse = 0.0\nsamples = 1.9%\nvalue = 0.0", fillcolor="#e5813900"] ;
112 -> 116 ;
117 [label="visitNumber <= 35.5\nmse = 1.65337451482e+14\nsamples = 1.7%\nvalue = 589775.49", fillcolor="#e5813900"] ;
3 -> 117 ;
118 [label="visitNumber <= 2.5\nmse = 1.04037629916e+14\nsamples = 1.7%\nvalue = 483152.5", fillcolor="#e5813900"] ;
117 -> 118 ;
119 [label="totals_newVisits <= 0.5\nmse = 2.21567346751e+13\nsamples = 1.4%\nvalue = 189649.54", fillcolor="#e5813900"] ;
118 -> 119 ;
120 [label="geoNetwork_region <= 374.5\nmse = 1.1771240858e+14\nsamples = 0.2%\nvalue = 850284.17", fillcolor="#e5813900"] ;
119 -> 120 ;
121 [label="hour_local <= 12.5\nmse = 1.18344742531e+13\nsamples = 0.1%\nvalue = 159849.36", fillcolor="#e5813900"] ;
120 -> 121 ;
122 [label="weekday_local <= 3.5\nmse = 3.39058949722e+13\nsamples = 0.0%\nvalue = 459833.33", fillcolor="#e5813900"] ;
121 -> 122 ;
123 [label="mse = 0.0\nsamples = 0.0%\nvalue = 0.0", fillcolor="#e5813900"] ;
122 -> 123 ;
124 [label="yearday_local <= 195.0\nmse = 6.87465669397e+13\nsamples = 0.0%\nvalue = 938435.37", fillcolor="#e5813900"] ;
122 -> 124 ;
125 [label="mse = 9.66745385355e+13\nsamples = 0.0%\nvalue = 1113291.14", fillcolor="#e5813900"] ;
124 -> 125 ;
126 [label="mse = 3.62240484429e+13\nsamples = 0.0%\nvalue = 735294.12", fillcolor="#e5813900"] ;
124 -> 126 ;
127 [label="mse = 0.0\nsamples = 0.1%\nvalue = 0.0", fillcolor="#e5813900"] ;
121 -> 127 ;
128 [label="trafficSource_medium <= 1.0\nmse = 2.64678226412e+14\nsamples = 0.1%\nvalue = 1819138.21", fillcolor="#e5813901"] ;
120 -> 128 ;
129 [label="mse = 8.52032488399e+14\nsamples = 0.0%\nvalue = 5478333.33", fillcolor="#e5813902"] ;
128 -> 129 ;
130 [label="trafficSource_source <= 260.0\nmse = 1.44702714271e+14\nsamples = 0.1%\nvalue = 1091578.95", fillcolor="#e5813900"] ;
128 -> 130 ;
131 [label="weekday_local <= 3.5\nmse = 6.12537305953e+12\nsamples = 0.1%\nvalue = 237603.69", fillcolor="#e5813900"] ;
130 -> 131 ;
132 [label="mse = 0.0\nsamples = 0.0%\nvalue = 0.0", fillcolor="#e5813900"] ;
131 -> 132 ;
133 [label="totals_hits <= 9.5\nmse = 1.1463825966e+13\nsamples = 0.0%\nvalue = 448347.83", fillcolor="#e5813900"] ;
131 -> 133 ;
134 [label="mse = 1.98606111066e+13\nsamples = 0.0%\nvalue = 787175.57", fillcolor="#e5813900"] ;
133 -> 134 ;
135 [label="mse = 0.0\nsamples = 0.0%\nvalue = 0.0", fillcolor="#e5813900"] ;
133 -> 135 ;
136 [label="mse = 8.79984841404e+14\nsamples = 0.0%\nvalue = 5783037.97", fillcolor="#e5813902"] ;
130 -> 136 ;
137 [label="trafficSource_isTrueDirect <= 0.5\nmse = 4.82998912004e+12\nsamples = 1.2%\nvalue = 70501.53", fillcolor="#e5813900"] ;
119 -> 137 ;
138 [label="device_operatingSystem <= 2.0\nmse = 3.29346704332e+12\nsamples = 1.0%\nvalue = 31785.77", fillcolor="#e5813900"] ;
137 -> 138 ;
139 [label="yearday_local <= 133.5\nmse = 2.04607780504e+13\nsamples = 0.2%\nvalue = 185148.98", fillcolor="#e5813900"] ;
138 -> 139 ;
140 [label="yearday_local <= 101.5\nmse = 5.64685099871e+13\nsamples = 0.1%\nvalue = 512500.0", fillcolor="#e5813900"] ;
139 -> 140 ;
141 [label="weekday_local <= 5.5\nmse = 547851654659.0\nsamples = 0.0%\nvalue = 42312.7", fillcolor="#e5813900"] ;
140 -> 141 ;
142 [label="mse = 0.0\nsamples = 0.0%\nvalue = 0.0", fillcolor="#e5813900"] ;
141 -> 142 ;
143 [label="mse = 2.03271090125e+12\nsamples = 0.0%\nvalue = 158414.63", fillcolor="#e5813900"] ;
141 -> 143 ;
144 [label="mse = 2.64401037159e+14\nsamples = 0.0%\nvalue = 2294567.9", fillcolor="#e5813901"] ;
140 -> 144 ;
145 [label="mse = 0.0\nsamples = 0.1%\nvalue = 0.0", fillcolor="#e5813900"] ;
139 -> 145 ;
146 [label="geoNetwork_city <= 26.0\nmse = 44966600789.5\nsamples = 0.9%\nvalue = 2812.66", fillcolor="#e5813900"] ;
138 -> 146 ;
147 [label="mse = 1.89382119069e+12\nsamples = 0.0%\nvalue = 119328.36", fillcolor="#e5813900"] ;
146 -> 147 ;
148 [label="mse = 0.0\nsamples = 0.8%\nvalue = 0.0", fillcolor="#e5813900"] ;
146 -> 148 ;
149 [label="geoNetwork_networkDomain <= 6508.0\nmse = 1.20218666429e+13\nsamples = 0.2%\nvalue = 252729.81", fillcolor="#e5813900"] ;
137 -> 149 ;
150 [label="geoNetwork_networkDomain <= 5078.5\nmse = 2.19778681654e+13\nsamples = 0.1%\nvalue = 464092.07", fillcolor="#e5813900"] ;
149 -> 150 ;
151 [label="yearday_local <= 273.5\nmse = 1.49547328638e+13\nsamples = 0.1%\nvalue = 286810.58", fillcolor="#e5813900"] ;
150 -> 151 ;
152 [label="geoNetwork_city <= 183.0\nmse = 2.91237617927e+12\nsamples = 0.1%\nvalue = 104440.3", fillcolor="#e5813900"] ;
151 -> 152 ;
153 [label="mse = 2.033462304e+13\nsamples = 0.0%\nvalue = 746400.0", fillcolor="#e5813900"] ;
152 -> 153 ;
154 [label="mse = 0.0\nsamples = 0.1%\nvalue = 0.0", fillcolor="#e5813900"] ;
152 -> 154 ;
155 [label="yearday_local <= 321.5\nmse = 5.00337193968e+13\nsamples = 0.0%\nvalue = 823901.1", fillcolor="#e5813900"] ;
151 -> 155 ;
156 [label="mse = 1.16073608838e+14\nsamples = 0.0%\nvalue = 1947402.6", fillcolor="#e5813901"] ;
155 -> 156 ;
157 [label="mse = 0.0\nsamples = 0.0%\nvalue = 0.0", fillcolor="#e5813900"] ;
155 -> 157 ;
158 [label="mse = 9.6460445874e+13\nsamples = 0.0%\nvalue = 2452968.75", fillcolor="#e5813901"] ;
150 -> 158 ;
159 [label="mse = 0.0\nsamples = 0.1%\nvalue = 0.0", fillcolor="#e5813900"] ;
149 -> 159 ;
160 [label="geoNetwork_city <= 126.5\nmse = 5.3421462528e+14\nsamples = 0.3%\nvalue = 2035396.39", fillcolor="#e5813901"] ;
118 -> 160 ;
161 [label="weekday_local <= 2.5\nmse = 3.60489850031e+15\nsamples = 0.0%\nvalue = 10266761.36", fillcolor="#e5813903"] ;
160 -> 161 ;
162 [label="mse = 8.22825832259e+15\nsamples = 0.0%\nvalue = 24418243.24", fillcolor="#e5813908"] ;
161 -> 162 ;
163 [label="mse = 0.0\nsamples = 0.0%\nvalue = 0.0", fillcolor="#e5813900"] ;
161 -> 163 ;
164 [label="totals_hits <= 9.5\nmse = 1.99287225029e+14\nsamples = 0.2%\nvalue = 1158977.62", fillcolor="#e5813900"] ;
160 -> 164 ;
165 [label="totals_hits <= 8.5\nmse = 3.44671693731e+14\nsamples = 0.1%\nvalue = 2014500.53", fillcolor="#e5813901"] ;
164 -> 165 ;
166 [label="geoNetwork_city <= 404.5\nmse = 1.02502613108e+14\nsamples = 0.1%\nvalue = 1106126.94", fillcolor="#e5813900"] ;
165 -> 166 ;
167 [label="hour_local <= 13.5\nmse = 2.48071923167e+14\nsamples = 0.0%\nvalue = 2229592.59", fillcolor="#e5813901"] ;
166 -> 167 ;
168 [label="mse = 933793826389.0\nsamples = 0.0%\nvalue = 88583.33", fillcolor="#e5813900"] ;
167 -> 168 ;
169 [label="yearday_local <= 213.0\nmse = 4.39181580907e+14\nsamples = 0.0%\nvalue = 3942400.0", fillcolor="#e5813901"] ;
167 -> 169 ;
170 [label="mse = 6.88493063495e+14\nsamples = 0.0%\nvalue = 4580135.14", fillcolor="#e5813901"] ;
169 -> 170 ;
171 [label="mse = 1.95649341326e+14\nsamples = 0.0%\nvalue = 3321447.37", fillcolor="#e5813901"] ;
169 -> 171 ;
172 [label="trafficSource_isTrueDirect <= 0.5\nmse = 2.3164380159e+13\nsamples = 0.1%\nvalue = 501872.51", fillcolor="#e5813900"] ;
166 -> 172 ;
173 [label="mse = 1.14525342541e+14\nsamples = 0.0%\nvalue = 2126202.53", fillcolor="#e5813901"] ;
172 -> 173 ;
174 [label="yearday_local <= 333.5\nmse = 5.51690629244e+12\nsamples = 0.1%\nvalue = 198510.64", fillcolor="#e5813900"] ;
172 -> 174 ;
175 [label="mse = 0.0\nsamples = 0.0%\nvalue = 0.0", fillcolor="#e5813900"] ;
174 -> 175 ;
176 [label="mse = 2.63759579367e+13\nsamples = 0.0%\nvalue = 976395.35", fillcolor="#e5813900"] ;
174 -> 176 ;
177 [label="yearday_local <= 228.5\nmse = 1.3702034919e+15\nsamples = 0.0%\nvalue = 5932178.77", fillcolor="#e5813902"] ;
165 -> 177 ;
178 [label="mse = 2.30162937066e+13\nsamples = 0.0%\nvalue = 699791.67", fillcolor="#e5813900"] ;
177 -> 178 ;
179 [label="mse = 2.86010423141e+15\nsamples = 0.0%\nvalue = 11984096.39", fillcolor="#e5813904"] ;
177 -> 179 ;
180 [label="mse = 0.0\nsamples = 0.1%\nvalue = 0.0", fillcolor="#e5813900"] ;
164 -> 180 ;
181 [label="mse = 8.84763850389e+15\nsamples = 0.0%\nvalue = 16113544.3", fillcolor="#e5813905"] ;
117 -> 181 ;
182 [label="visitNumber <= 2.5\nmse = 1.13989028035e+15\nsamples = 4.9%\nvalue = 2820088.88", fillcolor="#e5813901"] ;
2 -> 182 ;
183 [label="visitNumber <= 1.5\nmse = 3.04708793838e+14\nsamples = 4.1%\nvalue = 1265860.5", fillcolor="#e5813900"] ;
182 -> 183 ;
184 [label="geoNetwork_continent <= 2.5\nmse = 1.28291636865e+14\nsamples = 3.4%\nvalue = 637272.45", fillcolor="#e5813900"] ;
183 -> 184 ;
185 [label="totals_pageviews <= 10.5\nmse = 1.87155360243e+14\nsamples = 2.3%\nvalue = 929005.24", fillcolor="#e5813900"] ;
184 -> 185 ;
186 [label="geoNetwork_city <= 28.5\nmse = 4.86024163277e+13\nsamples = 1.2%\nvalue = 380313.59", fillcolor="#e5813900"] ;
185 -> 186 ;
187 [label="mse = 9.74590273071e+14\nsamples = 0.0%\nvalue = 4068611.11", fillcolor="#e5813901"] ;
186 -> 187 ;
188 [label="geoNetwork_networkDomain <= 798.5\nmse = 4.01067564325e+13\nsamples = 1.2%\nvalue = 346968.86", fillcolor="#e5813900"] ;
186 -> 188 ;
189 [label="trafficSource_source <= 27.0\nmse = 6.27994093573e+13\nsamples = 0.5%\nvalue = 559681.0", fillcolor="#e5813900"] ;
188 -> 189 ;
190 [label="geoNetwork_city <= 527.0\nmse = 1.56252692613e+14\nsamples = 0.1%\nvalue = 1620197.13", fillcolor="#e5813901"] ;
189 -> 190 ;
191 [label="month_local <= 4.5\nmse = 1.28040421473e+13\nsamples = 0.0%\nvalue = 269901.96", fillcolor="#e5813900"] ;
190 -> 191 ;
192 [label="mse = 6.27624041924e+13\nsamples = 0.0%\nvalue = 1353934.43", fillcolor="#e5813900"] ;
191 -> 192 ;
193 [label="mse = 0.0\nsamples = 0.0%\nvalue = 0.0", fillcolor="#e5813900"] ;
191 -> 193 ;
194 [label="weekday_local <= 3.5\nmse = 3.25537903149e+14\nsamples = 0.0%\nvalue = 3259841.27", fillcolor="#e5813901"] ;
190 -> 194 ;
195 [label="mse = 6.51337139307e+14\nsamples = 0.0%\nvalue = 6442479.34", fillcolor="#e5813902"] ;
194 -> 195 ;
196 [label="yearday_local <= 201.5\nmse = 6.61110379349e+12\nsamples = 0.0%\nvalue = 320152.67", fillcolor="#e5813900"] ;
194 -> 196 ;
197 [label="mse = 1.31141664852e+13\nsamples = 0.0%\nvalue = 645230.77", fillcolor="#e5813900"] ;
196 -> 197 ;
198 [label="mse = 0.0\nsamples = 0.0%\nvalue = 0.0", fillcolor="#e5813900"] ;
196 -> 198 ;
199 [label="trafficSource_source <= 183.5\nmse = 4.54415357757e+13\nsamples = 0.5%\nvalue = 365467.67", fillcolor="#e5813900"] ;
189 -> 199 ;
200 [label="yearday_local <= 332.5\nmse = 1.93687146002e+12\nsamples = 0.3%\nvalue = 63327.82", fillcolor="#e5813900"] ;
199 -> 200 ;
201 [label="yearday_local <= 26.5\nmse = 405142432020.0\nsamples = 0.2%\nvalue = 31166.56", fillcolor="#e5813900"] ;
200 -> 201 ;
202 [label="mse = 3.77045057232e+12\nsamples = 0.0%\nvalue = 354516.13", fillcolor="#e5813900"] ;
201 -> 202 ;
203 [label="yearday_local <= 299.5\nmse = 191039029385.0\nsamples = 0.2%\nvalue = 11251.66", fillcolor="#e5813900"] ;
201 -> 203 ;
204 [label="mse = 0.0\nsamples = 0.2%\nvalue = 0.0", fillcolor="#e5813900"] ;
203 -> 204 ;
205 [label="geoNetwork_city <= 509.5\nmse = 1.99066330536e+12\nsamples = 0.0%\nvalue = 117986.11", fillcolor="#e5813900"] ;
203 -> 205 ;
206 [label="mse = 4.509177677e+12\nsamples = 0.0%\nvalue = 269682.54", fillcolor="#e5813900"] ;
205 -> 206 ;
207 [label="mse = 0.0\nsamples = 0.0%\nvalue = 0.0", fillcolor="#e5813900"] ;
205 -> 207 ;
208 [label="hour_local <= 18.5\nmse = 1.34518076273e+13\nsamples = 0.0%\nvalue = 306509.43", fillcolor="#e5813900"] ;
200 -> 208 ;
209 [label="mse = 0.0\nsamples = 0.0%\nvalue = 0.0", fillcolor="#e5813900"] ;
208 -> 209 ;
210 [label="mse = 3.70545039474e+13\nsamples = 0.0%\nvalue = 855000.0", fillcolor="#e5813900"] ;
208 -> 210 ;
211 [label="totals_hits <= 10.5\nmse = 1.09200612321e+14\nsamples = 0.2%\nvalue = 810584.42", fillcolor="#e5813900"] ;
199 -> 211 ;
212 [label="weekday_local <= 4.5\nmse = 2.67638691183e+12\nsamples = 0.1%\nvalue = 72300.19", fillcolor="#e5813900"] ;
211 -> 212 ;
213 [label="mse = 0.0\nsamples = 0.1%\nvalue = 0.0", fillcolor="#e5813900"] ;
212 -> 213 ;
214 [label="mse = 1.1275197869e+13\nsamples = 0.0%\nvalue = 306528.93", fillcolor="#e5813900"] ;
212 -> 214 ;
215 [label="totals_hits <= 12.5\nmse = 1.84538311024e+14\nsamples = 0.1%\nvalue = 1337343.53", fillcolor="#e5813900"] ;
211 -> 215 ;
216 [label="geoNetwork_region <= 368.5\nmse = 3.13552097824e+14\nsamples = 0.1%\nvalue = 2208159.81", fillcolor="#e5813901"] ;
215 -> 216 ;
217 [label="yearday_local <= 131.5\nmse = 9.35220989357e+13\nsamples = 0.1%\nvalue = 1408393.94", fillcolor="#e5813900"] ;
216 -> 217 ;
218 [label="mse = 3.71273532279e+14\nsamples = 0.0%\nvalue = 4979253.73", fillcolor="#e5813902"] ;
217 -> 218 ;
219 [label="yearday_local <= 307.5\nmse = 1.86882355911e+13\nsamples = 0.0%\nvalue = 498707.22", fillcolor="#e5813900"] ;
217 -> 219 ;
220 [label="weekday_local <= 2.5\nmse = 942261443787.0\nsamples = 0.0%\nvalue = 69692.31", fillcolor="#e5813900"] ;
219 -> 220 ;
221 [label="mse = 2.60070997959e+12\nsamples = 0.0%\nvalue = 194142.86", fillcolor="#e5813900"] ;
220 -> 221 ;
222 [label="mse = 0.0\nsamples = 0.0%\nvalue = 0.0", fillcolor="#e5813900"] ;
220 -> 222 ;
223 [label="mse = 6.75360768815e+13\nsamples = 0.0%\nvalue = 1728970.59", fillcolor="#e5813901"] ;
219 -> 223 ;
224 [label="mse = 1.17571599942e+15\nsamples = 0.0%\nvalue = 5387951.81", fillcolor="#e5813902"] ;
216 -> 224 ;
225 [label="geoNetwork_region <= 118.0\nmse = 8.00700373788e+12\nsamples = 0.0%\nvalue = 162026.14", fillcolor="#e5813900"] ;
215 -> 225 ;
226 [label="mse = 0.0\nsamples = 0.0%\nvalue = 0.0", fillcolor="#e5813900"] ;
225 -> 226 ;
227 [label="mse = 2.56031669363e+13\nsamples = 0.0%\nvalue = 521894.74", fillcolor="#e5813900"] ;
225 -> 227 ;
228 [label="yearday_local <= 342.5\nmse = 2.12710083019e+13\nsamples = 0.6%\nvalue = 171050.7", fillcolor="#e5813900"] ;
188 -> 228 ;
229 [label="trafficSource_adContent <= 24.5\nmse = 3.58523088752e+12\nsamples = 0.6%\nvalue = 113748.77", fillcolor="#e5813900"] ;
228 -> 229 ;
230 [label="mse = 2.71402039278e+13\nsamples = 0.0%\nvalue = 887042.25", fillcolor="#e5813900"] ;
229 -> 230 ;
231 [label="weekday_local <= 5.5\nmse = 3.15427960129e+12\nsamples = 0.6%\nvalue = 99957.3", fillcolor="#e5813900"] ;
229 -> 231 ;
232 [label="trafficSource_campaign <= 1.5\nmse = 1.0228936155e+12\nsamples = 0.5%\nvalue = 54435.17", fillcolor="#e5813900"] ;
231 -> 232 ;
233 [label="geoNetwork_networkDomain <= 26451.5\nmse = 484953738413.0\nsamples = 0.4%\nvalue = 34799.86", fillcolor="#e5813900"] ;
232 -> 233 ;
234 [label="geoNetwork_networkDomain <= 2847.0\nmse = 221577724940.0\nsamples = 0.4%\nvalue = 22083.33", fillcolor="#e5813900"] ;
233 -> 234 ;
235 [label="yearday_local <= 251.0\nmse = 2.24417799443e+12\nsamples = 0.0%\nvalue = 208143.94", fillcolor="#e5813900"] ;
234 -> 235 ;
236 [label="mse = 0.0\nsamples = 0.0%\nvalue = 0.0", fillcolor="#e5813900"] ;
235 -> 236 ;
237 [label="mse = 7.80504118441e+12\nsamples = 0.0%\nvalue = 763194.44", fillcolor="#e5813900"] ;
235 -> 237 ;
238 [label="geoNetwork_city <= 317.0\nmse = 3599990754.44\nsamples = 0.4%\nvalue = 2403.85", fillcolor="#e5813900"] ;
234 -> 238 ;
239 [label="yearday_local <= 128.0\nmse = 32839506172.8\nsamples = 0.0%\nvalue = 22222.22", fillcolor="#e5813900"] ;
238 -> 239 ;
240 [label="mse = 97623966942.1\nsamples = 0.0%\nvalue = 68181.82", fillcolor="#e5813900"] ;
239 -> 240 ;
241 [label="mse = 0.0\nsamples = 0.0%\nvalue = 0.0", fillcolor="#e5813900"] ;
239 -> 241 ;
242 [label="mse = 0.0\nsamples = 0.3%\nvalue = 0.0", fillcolor="#e5813900"] ;
238 -> 242 ;
243 [label="mse = 5.6845557656e+12\nsamples = 0.0%\nvalue = 289130.43", fillcolor="#e5813900"] ;
233 -> 243 ;
244 [label="yearday_local <= 253.5\nmse = 8.10078075288e+12\nsamples = 0.0%\nvalue = 315458.72", fillcolor="#e5813900"] ;
232 -> 244 ;
245 [label="mse = 0.0\nsamples = 0.0%\nvalue = 0.0", fillcolor="#e5813900"] ;
244 -> 245 ;
246 [label="mse = 2.36010848189e+13\nsamples = 0.0%\nvalue = 942054.79", fillcolor="#e5813900"] ;
244 -> 246 ;
247 [label="yearday_local <= 46.0\nmse = 1.07978412221e+13\nsamples = 0.1%\nvalue = 263942.2", fillcolor="#e5813900"] ;
231 -> 247 ;
248 [label="mse = 5.53835603695e+13\nsamples = 0.0%\nvalue = 1121023.62", fillcolor="#e5813900"] ;
247 -> 248 ;
249 [label="trafficSource_source <= 102.5\nmse = 2.9770640903e+12\nsamples = 0.1%\nvalue = 116449.86", fillcolor="#e5813900"] ;
247 -> 249 ;
250 [label="totals_hits <= 11.5\nmse = 1.679203396e+13\nsamples = 0.0%\nvalue = 671406.25", fillcolor="#e5813900"] ;
249 -> 250 ;
251 [label="mse = 6.42893132154e+12\nsamples = 0.0%\nvalue = 419032.26", fillcolor="#e5813900"] ;
250 -> 251 ;
252 [label="mse = 2.64110310376e+13\nsamples = 0.0%\nvalue = 908484.85", fillcolor="#e5813900"] ;
250 -> 252 ;
253 [label="mse = 0.0\nsamples = 0.1%\nvalue = 0.0", fillcolor="#e5813900"] ;
249 -> 253 ;
254 [label="yearday_local <= 346.5\nmse = 2.54084882615e+14\nsamples = 0.0%\nvalue = 927361.56", fillcolor="#e5813900"] ;
228 -> 254 ;
255 [label="mse = 1.11752634556e+15\nsamples = 0.0%\nvalue = 4053913.04", fillcolor="#e5813901"] ;
254 -> 255 ;
256 [label="weekday_local <= 4.5\nmse = 103765532095.0\nsamples = 0.0%\nvalue = 20924.37", fillcolor="#e5813900"] ;
254 -> 256 ;
257 [label="mse = 0.0\nsamples = 0.0%\nvalue = 0.0", fillcolor="#e5813900"] ;
256 -> 257 ;
258 [label="mse = 359348356401.0\nsamples = 0.0%\nvalue = 73235.29", fillcolor="#e5813900"] ;
256 -> 258 ;
259 [label="totals_hits <= 15.5\nmse = 3.29143552219e+14\nsamples = 1.2%\nvalue = 1493791.47", fillcolor="#e5813900"] ;
185 -> 259 ;
260 [label="geoNetwork_subContinent <= 4.0\nmse = 4.66532137151e+14\nsamples = 0.8%\nvalue = 2014487.59", fillcolor="#e5813901"] ;
259 -> 260 ;
261 [label="mse = 5.2794756e+15\nsamples = 0.0%\nvalue = 10380000.0", fillcolor="#e5813903"] ;
260 -> 261 ;
262 [label="totals_pageviews <= 12.5\nmse = 3.73622559969e+14\nsamples = 0.8%\nvalue = 1855356.67", fillcolor="#e5813901"] ;
260 -> 262 ;
263 [label="trafficSource_medium <= 1.0\nmse = 2.01085934562e+14\nsamples = 0.6%\nvalue = 1276331.85", fillcolor="#e5813900"] ;
262 -> 263 ;
264 [label="geoNetwork_metro <= 62.5\nmse = 9.65746422419e+14\nsamples = 0.1%\nvalue = 3924032.92", fillcolor="#e5813901"] ;
263 -> 264 ;
265 [label="geoNetwork_metro <= 30.5\nmse = 3.64104419714e+15\nsamples = 0.0%\nvalue = 9315126.58", fillcolor="#e5813903"] ;
264 -> 265 ;
266 [label="mse = 3.21200868673e+13\nsamples = 0.0%\nvalue = 928295.45", fillcolor="#e5813900"] ;
265 -> 266 ;
267 [label="mse = 7.97838704367e+15\nsamples = 0.0%\nvalue = 19858571.43", fillcolor="#e5813906"] ;
265 -> 267 ;
268 [label="geoNetwork_networkDomain <= 25694.0\nmse = 2.15203847356e+14\nsamples = 0.1%\nvalue = 2432276.71", fillcolor="#e5813901"] ;
264 -> 268 ;
269 [label="geoNetwork_networkDomain <= 377.0\nmse = 1.04066790091e+14\nsamples = 0.1%\nvalue = 1681012.4", fillcolor="#e5813901"] ;
268 -> 269 ;
270 [label="hour_local <= 12.5\nmse = 1.86398103263e+14\nsamples = 0.0%\nvalue = 2986976.74", fillcolor="#e5813901"] ;
269 -> 270 ;
271 [label="mse = 2.88202282605e+14\nsamples = 0.0%\nvalue = 5337685.19", fillcolor="#e5813902"] ;
270 -> 271 ;
272 [label="hour_local <= 16.5\nmse = 1.06255906049e+14\nsamples = 0.0%\nvalue = 1294466.67", fillcolor="#e5813900"] ;
270 -> 272 ;
273 [label="mse = 0.0\nsamples = 0.0%\nvalue = 0.0", fillcolor="#e5813900"] ;
272 -> 273 ;
274 [label="mse = 2.14702286283e+14\nsamples = 0.0%\nvalue = 2659863.01", fillcolor="#e5813901"] ;
272 -> 274 ;
275 [label="hour_local <= 17.5\nmse = 5.90818803548e+12\nsamples = 0.0%\nvalue = 190132.74", fillcolor="#e5813900"] ;
269 -> 275 ;
276 [label="mse = 0.0\nsamples = 0.0%\nvalue = 0.0", fillcolor="#e5813900"] ;
275 -> 276 ;
277 [label="mse = 1.90820402436e+13\nsamples = 0.0%\nvalue = 622753.62", fillcolor="#e5813900"] ;
275 -> 277 ;
278 [label="mse = 8.12875917717e+14\nsamples = 0.0%\nvalue = 6611724.14", fillcolor="#e5813902"] ;
268 -> 278 ;
279 [label="geoNetwork_city <= 112.5\nmse = 4.15154858495e+13\nsamples = 0.5%\nvalue = 729849.94", fillcolor="#e5813900"] ;
263 -> 279 ;
280 [label="mse = 2.53695437396e+14\nsamples = 0.0%\nvalue = 3823157.89", fillcolor="#e5813901"] ;
279 -> 280 ;
281 [label="weekday_local <= 1.5\nmse = 3.41088997105e+13\nsamples = 0.5%\nvalue = 626679.34", fillcolor="#e5813900"] ;
279 -> 281 ;
282 [label="hour_local <= 13.5\nmse = 1.03378788713e+14\nsamples = 0.1%\nvalue = 1593865.38", fillcolor="#e5813901"] ;
281 -> 282 ;
283 [label="totals_pageviews <= 11.5\nmse = 1.77302241521e+14\nsamples = 0.0%\nvalue = 2822183.41", fillcolor="#e5813901"] ;
282 -> 283 ;
284 [label="mse = 1.14383644973e+13\nsamples = 0.0%\nvalue = 421472.87", fillcolor="#e5813900"] ;
283 -> 284 ;
285 [label="mse = 3.7424095019e+14\nsamples = 0.0%\nvalue = 5919100.0", fillcolor="#e5813902"] ;
283 -> 285 ;
286 [label="trafficSource_source <= 260.0\nmse = 4.30836962223e+13\nsamples = 0.0%\nvalue = 627250.86", fillcolor="#e5813900"] ;
282 -> 286 ;
287 [label="mse = 0.0\nsamples = 0.0%\nvalue = 0.0", fillcolor="#e5813900"] ;
286 -> 287 ;
288 [label="mse = 1.32189228258e+14\nsamples = 0.0%\nvalue = 1962688.17", fillcolor="#e5813901"] ;
286 -> 288 ;
289 [label="totals_pageviews <= 11.5\nmse = 2.14815503625e+13\nsamples = 0.4%\nvalue = 453133.2", fillcolor="#e5813900"] ;
281 -> 289 ;
290 [label="hour_local <= 9.5\nmse = 6.75818296007e+12\nsamples = 0.3%\nvalue = 261743.22", fillcolor="#e5813900"] ;
289 -> 290 ;
291 [label="hour_local <= 8.5\nmse = 1.34687389079e+13\nsamples = 0.0%\nvalue = 593765.43", fillcolor="#e5813900"] ;
290 -> 291 ;
292 [label="geoNetwork_networkDomain <= 13156.5\nmse = 5.34933103769e+12\nsamples = 0.0%\nvalue = 149294.61", fillcolor="#e5813900"] ;
291 -> 292 ;
293 [label="mse = 0.0\nsamples = 0.0%\nvalue = 0.0", fillcolor="#e5813900"] ;
292 -> 293 ;
294 [label="mse = 1.65941289256e+13\nsamples = 0.0%\nvalue = 467272.73", fillcolor="#e5813900"] ;
292 -> 294 ;
295 [label="mse = 3.48051715488e+13\nsamples = 0.0%\nvalue = 1884337.35", fillcolor="#e5813901"] ;
291 -> 295 ;
296 [label="device_operatingSystem <= 4.5\nmse = 5.26274070202e+12\nsamples = 0.2%\nvalue = 189204.32", fillcolor="#e5813900"] ;
290 -> 296 ;
297 [label="weekday_local <= 3.5\nmse = 1.82012878461e+13\nsamples = 0.0%\nvalue = 583547.01", fillcolor="#e5813900"] ;
296 -> 297 ;
298 [label="mse = 0.0\nsamples = 0.0%\nvalue = 0.0", fillcolor="#e5813900"] ;
297 -> 298 ;
299 [label="weekday_local <= 5.5\nmse = 3.02492195435e+13\nsamples = 0.0%\nvalue = 982374.1", fillcolor="#e5813900"] ;
297 -> 299 ;
300 [label="mse = 5.66640809992e+13\nsamples = 0.0%\nvalue = 1896527.78", fillcolor="#e5813901"] ;
299 -> 300 ;
301 [label="mse = 0.0\nsamples = 0.0%\nvalue = 0.0", fillcolor="#e5813900"] ;
299 -> 301 ;
302 [label="geoNetwork_networkDomain <= 5073.5\nmse = 2.80411312544e+12\nsamples = 0.2%\nvalue = 115324.26", fillcolor="#e5813900"] ;
296 -> 302 ;
303 [label="device_browser <= 38.0\nmse = 179999748051.0\nsamples = 0.1%\nvalue = 16402.99", fillcolor="#e5813900"] ;
302 -> 303 ;
304 [label="mse = 0.0\nsamples = 0.1%\nvalue = 0.0", fillcolor="#e5813900"] ;
303 -> 304 ;
305 [label="mse = 894617581867.0\nsamples = 0.0%\nvalue = 82014.93", fillcolor="#e5813900"] ;
303 -> 305 ;
306 [label="trafficSource_source <= 175.5\nmse = 5.81622551836e+12\nsamples = 0.1%\nvalue = 229792.75", fillcolor="#e5813900"] ;
302 -> 306 ;
307 [label="geoNetwork_networkDomain <= 21070.0\nmse = 4.0525635736e+12\nsamples = 0.1%\nvalue = 155628.87", fillcolor="#e5813900"] ;
306 -> 307 ;
308 [label="mse = 0.0\nsamples = 0.0%\nvalue = 0.0", fillcolor="#e5813900"] ;
307 -> 308 ;
309 [label="geoNetwork_networkDomain <= 25853.0\nmse = 9.46399874635e+12\nsamples = 0.0%\nvalue = 366407.77", fillcolor="#e5813900"] ;
307 -> 309 ;
310 [label="mse = 1.64832984878e+13\nsamples = 0.0%\nvalue = 645128.21", fillcolor="#e5813900"] ;
309 -> 310 ;
311 [label="mse = 0.0\nsamples = 0.0%\nvalue = 0.0", fillcolor="#e5813900"] ;
309 -> 311 ;
312 [label="mse = 1.47411674174e+13\nsamples = 0.0%\nvalue = 612446.81", fillcolor="#e5813900"] ;
306 -> 312 ;
313 [label="geoNetwork_region <= 209.5\nmse = 4.57063937507e+13\nsamples = 0.2%\nvalue = 770128.32", fillcolor="#e5813900"] ;
289 -> 313 ;
314 [label="geoNetwork_networkDomain <= 1018.0\nmse = 1.21477934348e+14\nsamples = 0.0%\nvalue = 1648283.83", fillcolor="#e5813901"] ;
313 -> 314 ;
315 [label="weekday_local <= 3.5\nmse = 1.83693269618e+14\nsamples = 0.0%\nvalue = 2522373.74", fillcolor="#e5813901"] ;
314 -> 315 ;
316 [label="mse = 2.13235383786e+13\nsamples = 0.0%\nvalue = 1137722.77", fillcolor="#e5813900"] ;
315 -> 316 ;
317 [label="mse = 3.48683696397e+14\nsamples = 0.0%\nvalue = 3964123.71", fillcolor="#e5813901"] ;
315 -> 317 ;
318 [label="mse = 0.0\nsamples = 0.0%\nvalue = 0.0", fillcolor="#e5813900"] ;
314 -> 318 ;
319 [label="hour_local <= 12.5\nmse = 1.61603479998e+13\nsamples = 0.1%\nvalue = 432461.93", fillcolor="#e5813900"] ;
313 -> 319 ;
320 [label="hour_local <= 1.5\nmse = 1.37791488129e+12\nsamples = 0.0%\nvalue = 69169.55", fillcolor="#e5813900"] ;
319 -> 320 ;
321 [label="mse = 6.34120866285e+12\nsamples = 0.0%\nvalue = 322419.35", fillcolor="#e5813900"] ;
320 -> 321 ;
322 [label="mse = 0.0\nsamples = 0.0%\nvalue = 0.0", fillcolor="#e5813900"] ;
320 -> 322 ;
323 [label="month_local <= 8.5\nmse = 2.46010092225e+13\nsamples = 0.1%\nvalue = 642865.73", fillcolor="#e5813900"] ;
319 -> 323 ;
324 [label="yearday_local <= 96.5\nmse = 3.60286160227e+13\nsamples = 0.0%\nvalue = 949082.84", fillcolor="#e5813900"] ;
323 -> 324 ;
325 [label="mse = 1.3537790121e+13\nsamples = 0.0%\nvalue = 309859.15", fillcolor="#e5813900"] ;
324 -> 325 ;
326 [label="weekday_local <= 4.5\nmse = 5.18124865134e+13\nsamples = 0.0%\nvalue = 1412193.88", fillcolor="#e5813900"] ;
324 -> 326 ;
327 [label="mse = 1.3791499308e+13\nsamples = 0.0%\nvalue = 646470.59", fillcolor="#e5813900"] ;
326 -> 327 ;
328 [label="mse = 9.17426894183e+13\nsamples = 0.0%\nvalue = 2243085.11", fillcolor="#e5813901"] ;
326 -> 328 ;
329 [label="mse = 0.0\nsamples = 0.0%\nvalue = 0.0", fillcolor="#e5813900"] ;
323 -> 329 ;
330 [label="trafficSource_source <= 265.0\nmse = 1.10418313416e+15\nsamples = 0.2%\nvalue = 4332489.96", fillcolor="#e5813901"] ;
262 -> 330 ;
331 [label="yearday_local <= 181.5\nmse = 1.41100395591e+14\nsamples = 0.1%\nvalue = 2083426.67", fillcolor="#e5813901"] ;
330 -> 331 ;
332 [label="trafficSource_medium <= 1.0\nmse = 2.52552227026e+14\nsamples = 0.1%\nvalue = 3502493.07", fillcolor="#e5813901"] ;
331 -> 332 ;
333 [label="mse = 3.79023554949e+14\nsamples = 0.0%\nvalue = 8500675.68", fillcolor="#e5813903"] ;
332 -> 333 ;
334 [label="weekday_local <= 3.5\nmse = 2.11840762146e+14\nsamples = 0.0%\nvalue = 2213763.07", fillcolor="#e5813901"] ;
332 -> 334 ;
335 [label="yearday_local <= 73.5\nmse = 4.20244933444e+14\nsamples = 0.0%\nvalue = 3626304.35", fillcolor="#e5813901"] ;
334 -> 335 ;
336 [label="mse = 5.88975872577e+13\nsamples = 0.0%\nvalue = 1500895.52", fillcolor="#e5813900"] ;
335 -> 336 ;
337 [label="mse = 7.52949117239e+14\nsamples = 0.0%\nvalue = 5631971.83", fillcolor="#e5813902"] ;
335 -> 337 ;
338 [label="device_operatingSystem <= 11.5\nmse = 1.52626193775e+13\nsamples = 0.0%\nvalue = 905503.36", fillcolor="#e5813900"] ;
334 -> 338 ;
339 [label="mse = 8.43755481055e+12\nsamples = 0.0%\nvalue = 492676.06", fillcolor="#e5813900"] ;
338 -> 339 ;
340 [label="mse = 2.11788368179e+13\nsamples = 0.0%\nvalue = 1281282.05", fillcolor="#e5813900"] ;
338 -> 340 ;
341 [label="totals_hits <= 14.5\nmse = 3.406771734e+13\nsamples = 0.1%\nvalue = 766503.86", fillcolor="#e5813900"] ;
331 -> 341 ;
342 [label="geoNetwork_networkDomain <= 344.0\nmse = 1.40116883083e+12\nsamples = 0.0%\nvalue = 114453.44", fillcolor="#e5813900"] ;
341 -> 342 ;
343 [label="mse = 4.26103723762e+12\nsamples = 0.0%\nvalue = 332658.23", fillcolor="#e5813900"] ;
342 -> 343 ;
344 [label="hour_local <= 15.5\nmse = 23431714144.0\nsamples = 0.0%\nvalue = 11845.24", fillcolor="#e5813900"] ;
342 -> 344 ;
345 [label="mse = 0.0\nsamples = 0.0%\nvalue = 0.0", fillcolor="#e5813900"] ;
344 -> 345 ;
346 [label="mse = 61860972537.2\nsamples = 0.0%\nvalue = 31587.3", fillcolor="#e5813900"] ;
344 -> 346 ;
347 [label="hour_local <= 15.5\nmse = 8.88631417576e+13\nsamples = 0.0%\nvalue = 1900704.23", fillcolor="#e5813901"] ;
341 -> 347 ;
348 [label="mse = 1.67303835108e+14\nsamples = 0.0%\nvalue = 3418055.56", fillcolor="#e5813901"] ;
347 -> 348 ;
349 [label="mse = 3.37735142857e+12\nsamples = 0.0%\nvalue = 340000.0", fillcolor="#e5813900"] ;
347 -> 349 ;
350 [label="yearday_local <= 148.0\nmse = 3.97797231142e+15\nsamples = 0.0%\nvalue = 11189390.24", fillcolor="#e5813904"] ;
330 -> 350 ;
351 [label="mse = 1.05985793559e+16\nsamples = 0.0%\nvalue = 25726551.72", fillcolor="#e5813908"] ;
350 -> 351 ;
352 [label="hour_local <= 14.5\nmse = 1.76472296689e+14\nsamples = 0.0%\nvalue = 3235094.34", fillcolor="#e5813901"] ;
350 -> 352 ;
353 [label="mse = 6.35388863636e+12\nsamples = 0.0%\nvalue = 545000.0", fillcolor="#e5813900"] ;
352 -> 353 ;
354 [label="mse = 3.67237065701e+14\nsamples = 0.0%\nvalue = 6569295.77", fillcolor="#e5813902"] ;
352 -> 354 ;
355 [label="trafficSource_campaign <= 0.5\nmse = 2.68501603538e+13\nsamples = 0.4%\nvalue = 355273.47", fillcolor="#e5813900"] ;
259 -> 355 ;
356 [label="trafficSource_medium <= 4.5\nmse = 7.06848604059e+12\nsamples = 0.3%\nvalue = 193591.89", fillcolor="#e5813900"] ;
355 -> 356 ;
357 [label="totals_hits <= 16.5\nmse = 2.54450501398e+13\nsamples = 0.1%\nvalue = 659017.2", fillcolor="#e5813900"] ;
356 -> 357 ;
358 [label="mse = 7.90629285462e+13\nsamples = 0.0%\nvalue = 2128730.16", fillcolor="#e5813901"] ;
357 -> 358 ;
359 [label="mse = 0.0\nsamples = 0.0%\nvalue = 0.0", fillcolor="#e5813900"] ;
357 -> 359 ;
360 [label="yearday_local <= 191.5\nmse = 2.99399762114e+12\nsamples = 0.3%\nvalue = 91858.22", fillcolor="#e5813900"] ;
356 -> 360 ;
361 [label="yearday_local <= 158.5\nmse = 7.37275453018e+12\nsamples = 0.1%\nvalue = 227144.75", fillcolor="#e5813900"] ;
360 -> 361 ;
362 [label="yearday_local <= 134.5\nmse = 606082483930.0\nsamples = 0.1%\nvalue = 31969.7", fillcolor="#e5813900"] ;
361 -> 362 ;
363 [label="mse = 0.0\nsamples = 0.1%\nvalue = 0.0", fillcolor="#e5813900"] ;
362 -> 363 ;
364 [label="mse = 3.71732958984e+12\nsamples = 0.0%\nvalue = 197812.5", fillcolor="#e5813900"] ;
362 -> 364 ;
365 [label="geoNetwork_city <= 634.0\nmse = 3.19780572999e+13\nsamples = 0.0%\nvalue = 956289.31", fillcolor="#e5813900"] ;
361 -> 365 ;
366 [label="mse = 4.84461358222e+12\nsamples = 0.0%\nvalue = 255866.67", fillcolor="#e5813900"] ;
365 -> 366 ;
367 [label="mse = 5.53752210317e+13\nsamples = 0.0%\nvalue = 1581666.67", fillcolor="#e5813901"] ;
365 -> 367 ;
368 [label="mse = 0.0\nsamples = 0.2%\nvalue = 0.0", fillcolor="#e5813900"] ;
360 -> 368 ;
369 [label="yearday_local <= 227.5\nmse = 2.70395756918e+14\nsamples = 0.0%\nvalue = 2382099.45", fillcolor="#e5813901"] ;
355 -> 369 ;
370 [label="mse = 5.49792281728e+14\nsamples = 0.0%\nvalue = 4955862.07", fillcolor="#e5813902"] ;
369 -> 370 ;
371 [label="mse = 0.0\nsamples = 0.0%\nvalue = 0.0", fillcolor="#e5813900"] ;
369 -> 371 ;
372 [label="yearday_local <= 354.5\nmse = 61379957149.9\nsamples = 1.1%\nvalue = 4652.34", fillcolor="#e5813900"] ;
184 -> 372 ;
373 [label="geoNetwork_country <= 206.5\nmse = 6870440909.91\nsamples = 1.1%\nvalue = 1964.09", fillcolor="#e5813900"] ;
372 -> 373 ;
374 [label="mse = 0.0\nsamples = 0.9%\nvalue = 0.0", fillcolor="#e5813900"] ;
373 -> 374 ;
375 [label="geoNetwork_subContinent <= 10.0\nmse = 55934896052.5\nsamples = 0.1%\nvalue = 16055.05", fillcolor="#e5813900"] ;
373 -> 375 ;
376 [label="mse = 581875000000.0\nsamples = 0.0%\nvalue = 175000.0", fillcolor="#e5813900"] ;
375 -> 376 ;
377 [label="mse = 0.0\nsamples = 0.1%\nvalue = 0.0", fillcolor="#e5813900"] ;
375 -> 377 ;
378 [label="yearday_local <= 358.5\nmse = 2.23233233493e+12\nsamples = 0.0%\nvalue = 112303.37", fillcolor="#e5813900"] ;
372 -> 378 ;
379 [label="mse = 6.14619294434e+12\nsamples = 0.0%\nvalue = 312343.75", fillcolor="#e5813900"] ;
378 -> 379 ;
380 [label="mse = 0.0\nsamples = 0.0%\nvalue = 0.0", fillcolor="#e5813900"] ;
378 -> 380 ;
381 [label="geoNetwork_country <= 211.5\nmse = 1.2070819331e+15\nsamples = 0.7%\nvalue = 4526264.84", fillcolor="#e5813901"] ;
183 -> 381 ;
382 [label="geoNetwork_subContinent <= 2.5\nmse = 3.89083996773e+13\nsamples = 0.2%\nvalue = 382439.94", fillcolor="#e5813900"] ;
381 -> 382 ;
383 [label="mse = 2.70345374923e+14\nsamples = 0.0%\nvalue = 2509722.22", fillcolor="#e5813901"] ;
382 -> 383 ;
384 [label="hour_local <= 21.5\nmse = 2.54100627954e+13\nsamples = 0.2%\nvalue = 260880.95", fillcolor="#e5813900"] ;
382 -> 384 ;
385 [label="hour_local <= 4.5\nmse = 2.21535758923e+12\nsamples = 0.2%\nvalue = 96047.75", fillcolor="#e5813900"] ;
384 -> 385 ;
386 [label="mse = 1.42016322158e+13\nsamples = 0.0%\nvalue = 450422.54", fillcolor="#e5813900"] ;
385 -> 386 ;
387 [label="yearday_local <= 172.5\nmse = 1.40352833704e+12\nsamples = 0.2%\nvalue = 72311.32", fillcolor="#e5813900"] ;
385 -> 387 ;
388 [label="geoNetwork_metro <= 85.5\nmse = 2.96895532468e+12\nsamples = 0.1%\nvalue = 153607.21", fillcolor="#e5813900"] ;
387 -> 388 ;
389 [label="hour_local <= 12.5\nmse = 8964000000.0\nsamples = 0.0%\nvalue = 6000.0", fillcolor="#e5813900"] ;
388 -> 389 ;
390 [label="mse = 29600000000.0\nsamples = 0.0%\nvalue = 20000.0", fillcolor="#e5813900"] ;
389 -> 390 ;
391 [label="mse = 0.0\nsamples = 0.0%\nvalue = 0.0", fillcolor="#e5813900"] ;
389 -> 391 ;
392 [label="yearday_local <= 85.0\nmse = 5.8969955291e+12\nsamples = 0.0%\nvalue = 301807.23", fillcolor="#e5813900"] ;
388 -> 392 ;
393 [label="mse = 0.0\nsamples = 0.0%\nvalue = 0.0", fillcolor="#e5813900"] ;
392 -> 393 ;
394 [label="mse = 1.17489258775e+13\nsamples = 0.0%\nvalue = 610975.61", fillcolor="#e5813900"] ;
392 -> 394 ;
395 [label="mse = 0.0\nsamples = 0.1%\nvalue = 0.0", fillcolor="#e5813900"] ;
387 -> 395 ;
396 [label="mse = 2.26441577393e+14\nsamples = 0.0%\nvalue = 1706046.51", fillcolor="#e5813901"] ;
384 -> 396 ;
397 [label="totals_pageviews <= 12.5\nmse = 1.69363723542e+15\nsamples = 0.5%\nvalue = 6289144.04", fillcolor="#e5813902"] ;
381 -> 397 ;
398 [label="trafficSource_medium <= 0.5\nmse = 1.23492951508e+15\nsamples = 0.4%\nvalue = 4878812.36", fillcolor="#e5813902"] ;
397 -> 398 ;
399 [label="totals_hits <= 12.5\nmse = 2.42644199424e+15\nsamples = 0.1%\nvalue = 10493892.62", fillcolor="#e5813903"] ;
398 -> 399 ;
400 [label="totals_hits <= 11.5\nmse = 4.13688686842e+15\nsamples = 0.0%\nvalue = 17480793.65", fillcolor="#e5813906"] ;
399 -> 400 ;
401 [label="geoNetwork_city <= 573.5\nmse = 1.96208744383e+15\nsamples = 0.0%\nvalue = 8596491.23", fillcolor="#e5813903"] ;
400 -> 401 ;
402 [label="mse = 8.77223713219e+12\nsamples = 0.0%\nvalue = 499680.85", fillcolor="#e5813900"] ;
401 -> 402 ;
403 [label="mse = 4.16892008619e+15\nsamples = 0.0%\nvalue = 18480909.09", fillcolor="#e5813906"] ;
401 -> 403 ;
404 [label="mse = 8.20972020533e+15\nsamples = 0.0%\nvalue = 36236543.21", fillcolor="#e581390c"] ;
400 -> 404 ;
405 [label="yearday_local <= 151.5\nmse = 7.14076966838e+13\nsamples = 0.0%\nvalue = 1464666.67", fillcolor="#e5813900"] ;
399 -> 405 ;
406 [label="mse = 1.74465580886e+14\nsamples = 0.0%\nvalue = 2564202.9", fillcolor="#e5813901"] ;
405 -> 406 ;
407 [label="mse = 1.39466189468e+13\nsamples = 0.0%\nvalue = 862539.68", fillcolor="#e5813900"] ;
405 -> 407 ;
408 [label="trafficSource_medium <= 5.5\nmse = 9.89501526748e+14\nsamples = 0.3%\nvalue = 3757802.59", fillcolor="#e5813901"] ;
398 -> 408 ;
409 [label="trafficSource_campaign <= 2.5\nmse = 1.20939780379e+14\nsamples = 0.2%\nvalue = 1700687.4", fillcolor="#e5813901"] ;
408 -> 409 ;
410 [label="hour_local <= 15.5\nmse = 7.56957949316e+13\nsamples = 0.2%\nvalue = 1213448.59", fillcolor="#e5813900"] ;
409 -> 410 ;
411 [label="geoNetwork_metro <= 77.5\nmse = 1.2363128356e+14\nsamples = 0.1%\nvalue = 1896605.22", fillcolor="#e5813901"] ;
410 -> 411 ;
412 [label="mse = 4.86714893719e+14\nsamples = 0.0%\nvalue = 4596929.13", fillcolor="#e5813901"] ;
411 -> 412 ;
413 [label="weekday_local <= 1.5\nmse = 3.34364084086e+13\nsamples = 0.1%\nvalue = 1242137.4", fillcolor="#e5813900"] ;
411 -> 413 ;
414 [label="mse = 7.30399539709e+13\nsamples = 0.0%\nvalue = 3431829.27", fillcolor="#e5813901"] ;
413 -> 414 ;
415 [label="yearday_local <= 314.5\nmse = 2.50345956742e+13\nsamples = 0.1%\nvalue = 835904.98", fillcolor="#e5813900"] ;
413 -> 415 ;
416 [label="weekday_local <= 2.5\nmse = 1.48060160877e+13\nsamples = 0.1%\nvalue = 514486.49", fillcolor="#e5813900"] ;
415 -> 416 ;
417 [label="mse = 5.59408559966e+13\nsamples = 0.0%\nvalue = 1644057.97", fillcolor="#e5813901"] ;
416 -> 417 ;
418 [label="geoNetwork_networkDomain <= 18561.0\nmse = 5.0168964603e+12\nsamples = 0.0%\nvalue = 255548.17", fillcolor="#e5813900"] ;
416 -> 418 ;
419 [label="hour_local <= 9.5\nmse = 607441464739.0\nsamples = 0.0%\nvalue = 67040.36", fillcolor="#e5813900"] ;
418 -> 419 ;
420 [label="mse = 1.57449716263e+12\nsamples = 0.0%\nvalue = 175882.35", fillcolor="#e5813900"] ;
419 -> 420 ;
421 [label="mse = 0.0\nsamples = 0.0%\nvalue = 0.0", fillcolor="#e5813900"] ;
419 -> 421 ;
422 [label="mse = 1.72313657627e+13\nsamples = 0.0%\nvalue = 794487.18", fillcolor="#e5813900"] ;
418 -> 422 ;
423 [label="mse = 7.43390069252e+13\nsamples = 0.0%\nvalue = 2487638.89", fillcolor="#e5813901"] ;
415 -> 423 ;
424 [label="geoNetwork_region <= 368.5\nmse = 4.37588316277e+12\nsamples = 0.1%\nvalue = 220736.61", fillcolor="#e5813900"] ;
410 -> 424 ;
425 [label="mse = 0.0\nsamples = 0.0%\nvalue = 0.0", fillcolor="#e5813900"] ;
424 -> 425 ;
426 [label="totals_pageviews <= 9.5\nmse = 7.65245427646e+12\nsamples = 0.0%\nvalue = 389330.71", fillcolor="#e5813900"] ;
424 -> 426 ;
427 [label="mse = 0.0\nsamples = 0.0%\nvalue = 0.0", fillcolor="#e5813900"] ;
426 -> 427 ;
428 [label="hour_local <= 19.5\nmse = 1.4146559583e+13\nsamples = 0.0%\nvalue = 732518.52", fillcolor="#e5813900"] ;
426 -> 428 ;
429 [label="mse = 3.79748398222e+12\nsamples = 0.0%\nvalue = 226533.33", fillcolor="#e5813900"] ;
428 -> 429 ;
430 [label="mse = 2.6362845e+13\nsamples = 0.0%\nvalue = 1365000.0", fillcolor="#e5813900"] ;
428 -> 430 ;
431 [label="mse = 5.04119172239e+14\nsamples = 0.0%\nvalue = 6054146.34", fillcolor="#e5813902"] ;
409 -> 431 ;
432 [label="device_operatingSystem <= 11.5\nmse = 2.02194769648e+15\nsamples = 0.1%\nvalue = 6229577.19", fillcolor="#e5813902"] ;
408 -> 432 ;
433 [label="geoNetwork_region <= 129.5\nmse = 8.63858556875e+14\nsamples = 0.1%\nvalue = 4874411.11", fillcolor="#e5813902"] ;
432 -> 433 ;
434 [label="weekday_local <= 1.5\nmse = 7.8919062687e+13\nsamples = 0.1%\nvalue = 1774450.65", fillcolor="#e5813901"] ;
433 -> 434 ;
435 [label="mse = 2.21730676576e+14\nsamples = 0.0%\nvalue = 3634077.67", fillcolor="#e5813901"] ;
434 -> 435 ;
436 [label="yearday_local <= 202.0\nmse = 4.40104748864e+13\nsamples = 0.1%\nvalue = 1333110.6", fillcolor="#e5813900"] ;
434 -> 436 ;
437 [label="hour_local <= 12.5\nmse = 7.04011047553e+13\nsamples = 0.0%\nvalue = 2145263.16", fillcolor="#e5813901"] ;
436 -> 437 ;
438 [label="mse = 1.28029461199e+14\nsamples = 0.0%\nvalue = 3978795.18", fillcolor="#e5813901"] ;
437 -> 438 ;
439 [label="mse = 3.43879430963e+13\nsamples = 0.0%\nvalue = 1095724.14", fillcolor="#e5813900"] ;
437 -> 439 ;
440 [label="yearday_local <= 264.5\nmse = 1.32633962414e+13\nsamples = 0.0%\nvalue = 434223.3", fillcolor="#e5813900"] ;
436 -> 440 ;
441 [label="mse = 2.98021948765e+13\nsamples = 0.0%\nvalue = 993888.89", fillcolor="#e5813900"] ;
440 -> 441 ;
442 [label="mse = 0.0\nsamples = 0.0%\nvalue = 0.0", fillcolor="#e5813900"] ;
440 -> 442 ;
443 [label="totals_hits <= 12.5\nmse = 1.9898035517e+15\nsamples = 0.1%\nvalue = 9460303.03", fillcolor="#e5813903"] ;
433 -> 443 ;
444 [label="totals_pageviews <= 9.5\nmse = 4.01441769384e+15\nsamples = 0.0%\nvalue = 16340243.9", fillcolor="#e5813905"] ;
443 -> 444 ;
445 [label="mse = 1.04173243398e+15\nsamples = 0.0%\nvalue = 4766875.0", fillcolor="#e5813902"] ;
444 -> 445 ;
446 [label="mse = 6.59649174732e+15\nsamples = 0.0%\nvalue = 27362500.0", fillcolor="#e5813909"] ;
444 -> 446 ;
447 [label="totals_pageviews <= 10.5\nmse = 2.50120962652e+14\nsamples = 0.0%\nvalue = 3790402.01", fillcolor="#e5813901"] ;
443 -> 447 ;
448 [label="mse = 0.0\nsamples = 0.0%\nvalue = 0.0", fillcolor="#e5813900"] ;
447 -> 448 ;
449 [label="mse = 3.58656772148e+14\nsamples = 0.0%\nvalue = 5587333.33", fillcolor="#e5813902"] ;
447 -> 449 ;
450 [label="mse = 1.08075317965e+16\nsamples = 0.0%\nvalue = 16653931.62", fillcolor="#e5813905"] ;
432 -> 450 ;
451 [label="weekday_local <= 3.5\nmse = 4.37790465233e+15\nsamples = 0.1%\nvalue = 14801842.7", fillcolor="#e5813905"] ;
397 -> 451 ;
452 [label="hour_local <= 13.5\nmse = 7.85146006283e+15\nsamples = 0.0%\nvalue = 23517361.7", fillcolor="#e5813908"] ;
451 -> 452 ;
453 [label="mse = 9.8031624752e+15\nsamples = 0.0%\nvalue = 40915882.35", fillcolor="#e581390d"] ;
452 -> 453 ;
454 [label="mse = 5.9444716423e+15\nsamples = 0.0%\nvalue = 10174135.34", fillcolor="#e5813903"] ;
452 -> 454 ;
455 [label="yearday_local <= 152.5\nmse = 3.10704994658e+14\nsamples = 0.0%\nvalue = 5048761.9", fillcolor="#e5813902"] ;
451 -> 455 ;
456 [label="mse = 6.31658622421e+14\nsamples = 0.0%\nvalue = 9769775.28", fillcolor="#e5813903"] ;
455 -> 456 ;
457 [label="mse = 4.61799126153e+13\nsamples = 0.0%\nvalue = 1576280.99", fillcolor="#e5813901"] ;
455 -> 457 ;
458 [label="trafficSource_source <= 260.5\nmse = 5.12280783314e+15\nsamples = 0.9%\nvalue = 10359680.25", fillcolor="#e5813903"] ;
182 -> 458 ;
459 [label="trafficSource_medium <= 0.5\nmse = 1.65821864151e+15\nsamples = 0.5%\nvalue = 5903114.44", fillcolor="#e5813902"] ;
458 -> 459 ;
460 [label="geoNetwork_city <= 252.5\nmse = 3.16126030918e+15\nsamples = 0.1%\nvalue = 11934287.22", fillcolor="#e5813904"] ;
459 -> 460 ;
461 [label="mse = 1.48306134707e+16\nsamples = 0.0%\nvalue = 39147065.22", fillcolor="#e581390d"] ;
460 -> 461 ;
462 [label="totals_pageviews <= 10.5\nmse = 1.81735317063e+15\nsamples = 0.1%\nvalue = 9006128.65", fillcolor="#e5813903"] ;
460 -> 462 ;
463 [label="yearday_local <= 125.5\nmse = 2.42911018522e+14\nsamples = 0.1%\nvalue = 2855600.0", fillcolor="#e5813901"] ;
462 -> 463 ;
464 [label="mse = 7.61250870826e+14\nsamples = 0.0%\nvalue = 8510083.33", fillcolor="#e5813903"] ;
463 -> 464 ;
465 [label="hour_local <= 11.5\nmse = 2.14450592163e+13\nsamples = 0.0%\nvalue = 630885.25", fillcolor="#e5813900"] ;
463 -> 465 ;
466 [label="mse = 5.65317282844e+13\nsamples = 0.0%\nvalue = 1718035.71", fillcolor="#e5813901"] ;
465 -> 466 ;
467 [label="mse = 0.0\nsamples = 0.0%\nvalue = 0.0", fillcolor="#e5813900"] ;
465 -> 467 ;
468 [label="geoNetwork_country <= 211.5\nmse = 3.29914435196e+15\nsamples = 0.1%\nvalue = 15085139.53", fillcolor="#e5813905"] ;
462 -> 468 ;
469 [label="mse = 9.85788045848e+13\nsamples = 0.0%\nvalue = 987941.18", fillcolor="#e5813900"] ;
468 -> 469 ;
470 [label="yearday_local <= 194.5\nmse = 4.2134232338e+15\nsamples = 0.1%\nvalue = 19469024.39", fillcolor="#e5813906"] ;
468 -> 470 ;
471 [label="yearday_local <= 91.5\nmse = 4.85906942865e+15\nsamples = 0.0%\nvalue = 27016710.53", fillcolor="#e5813909"] ;
470 -> 471 ;
472 [label="mse = 8.65845653183e+14\nsamples = 0.0%\nvalue = 11121707.32", fillcolor="#e5813904"] ;
471 -> 472 ;
473 [label="mse = 8.89418388253e+15\nsamples = 0.0%\nvalue = 45636571.43", fillcolor="#e581390f"] ;
471 -> 473 ;
474 [label="hour_local <= 15.5\nmse = 3.564130169e+15\nsamples = 0.0%\nvalue = 12950568.18", fillcolor="#e5813904"] ;
470 -> 474 ;
475 [label="mse = 3.11977856421e+14\nsamples = 0.0%\nvalue = 5450689.66", fillcolor="#e5813902"] ;
474 -> 475 ;
476 [label="mse = 9.53263497322e+15\nsamples = 0.0%\nvalue = 27450333.33", fillcolor="#e5813909"] ;
474 -> 476 ;
477 [label="device_operatingSystem <= 11.5\nmse = 1.10597141277e+15\nsamples = 0.4%\nvalue = 3757539.44", fillcolor="#e5813901"] ;
459 -> 477 ;
478 [label="visitNumber <= 19.5\nmse = 1.95492276698e+15\nsamples = 0.2%\nvalue = 5944304.25", fillcolor="#e5813902"] ;
477 -> 478 ;
479 [label="trafficSource_medium <= 5.5\nmse = 1.13294324168e+15\nsamples = 0.2%\nvalue = 4791227.27", fillcolor="#e5813902"] ;
478 -> 479 ;
480 [label="totals_pageviews <= 10.5\nmse = 5.88154387103e+14\nsamples = 0.2%\nvalue = 3335890.18", fillcolor="#e5813901"] ;
479 -> 480 ;
481 [label="geoNetwork_metro <= 62.5\nmse = 4.36556086669e+13\nsamples = 0.1%\nvalue = 519743.15", fillcolor="#e5813900"] ;
480 -> 481 ;
482 [label="geoNetwork_city <= 364.0\nmse = 1.46368092506e+14\nsamples = 0.0%\nvalue = 1481165.64", fillcolor="#e5813900"] ;
481 -> 482 ;
483 [label="mse = 0.0\nsamples = 0.0%\nvalue = 0.0", fillcolor="#e5813900"] ;
482 -> 483 ;
484 [label="mse = 3.75410656322e+14\nsamples = 0.0%\nvalue = 3894032.26", fillcolor="#e5813901"] ;
482 -> 484 ;
485 [label="totals_hits <= 9.5\nmse = 3.39162964664e+12\nsamples = 0.1%\nvalue = 147505.94", fillcolor="#e5813900"] ;
481 -> 485 ;
486 [label="mse = 1.43525379931e+13\nsamples = 0.0%\nvalue = 497647.06", fillcolor="#e5813900"] ;
485 -> 486 ;
487 [label="yearday_local <= 106.5\nmse = 579920280612.0\nsamples = 0.0%\nvalue = 58928.57", fillcolor="#e5813900"] ;
485 -> 487 ;
488 [label="mse = 2.36024691358e+12\nsamples = 0.0%\nvalue = 244444.44", fillcolor="#e5813900"] ;
487 -> 488 ;
489 [label="mse = 0.0\nsamples = 0.0%\nvalue = 0.0", fillcolor="#e5813900"] ;
487 -> 489 ;
490 [label="geoNetwork_region <= 122.5\nmse = 1.08812049727e+15\nsamples = 0.1%\nvalue = 5997103.56", fillcolor="#e5813902"] ;
480 -> 490 ;
491 [label="yearday_local <= 119.5\nmse = 2.84042744403e+15\nsamples = 0.0%\nvalue = 12816350.71", fillcolor="#e5813904"] ;
490 -> 491 ;
492 [label="mse = 7.14740039313e+15\nsamples = 0.0%\nvalue = 30966710.53", fillcolor="#e581390a"] ;
491 -> 492 ;
493 [label="hour_local <= 13.5\nmse = 1.25894049196e+14\nsamples = 0.0%\nvalue = 2598370.37", fillcolor="#e5813901"] ;
491 -> 493 ;
494 [label="mse = 2.26615059211e+14\nsamples = 0.0%\nvalue = 4266268.66", fillcolor="#e5813901"] ;
493 -> 494 ;
495 [label="mse = 2.12125897059e+13\nsamples = 0.0%\nvalue = 955000.0", fillcolor="#e5813900"] ;
493 -> 495 ;
496 [label="weekday_local <= 1.5\nmse = 1.43070127898e+14\nsamples = 0.1%\nvalue = 2461818.18", fillcolor="#e5813901"] ;
490 -> 496 ;
497 [label="mse = 3.070843643e+14\nsamples = 0.0%\nvalue = 6458461.54", fillcolor="#e5813902"] ;
496 -> 497 ;
498 [label="geoNetwork_networkDomain <= 24870.0\nmse = 9.95005266175e+13\nsamples = 0.0%\nvalue = 1514285.71", fillcolor="#e5813900"] ;
496 -> 498 ;
499 [label="totals_hits <= 13.5\nmse = 1.40597681705e+13\nsamples = 0.0%\nvalue = 793992.25", fillcolor="#e5813900"] ;
498 -> 499 ;
500 [label="mse = 2.98790443175e+13\nsamples = 0.0%\nvalue = 1682666.67", fillcolor="#e5813901"] ;
499 -> 500 ;
501 [label="hour_local <= 14.5\nmse = 2.28947520185e+12\nsamples = 0.0%\nvalue = 184117.65", fillcolor="#e5813900"] ;
499 -> 501 ;
502 [label="mse = 0.0\nsamples = 0.0%\nvalue = 0.0", fillcolor="#e5813900"] ;
501 -> 502 ;
503 [label="mse = 4.37254907867e+12\nsamples = 0.0%\nvalue = 356582.28", fillcolor="#e5813900"] ;
501 -> 503 ;
504 [label="mse = 4.01239290101e+14\nsamples = 0.0%\nvalue = 4131690.14", fillcolor="#e5813901"] ;
498 -> 504 ;
505 [label="mse = 6.44105577159e+15\nsamples = 0.0%\nvalue = 19615932.2", fillcolor="#e5813906"] ;
479 -> 505 ;
506 [label="mse = 1.76068739869e+16\nsamples = 0.0%\nvalue = 28661641.79", fillcolor="#e5813909"] ;
478 -> 506 ;
507 [label="geoNetwork_country <= 211.5\nmse = 1.71584546185e+14\nsamples = 0.2%\nvalue = 1378682.35", fillcolor="#e5813900"] ;
477 -> 507 ;
508 [label="yearday_local <= 284.5\nmse = 7.34460411686e+12\nsamples = 0.1%\nvalue = 166895.87", fillcolor="#e5813900"] ;
507 -> 508 ;
509 [label="mse = 0.0\nsamples = 0.1%\nvalue = 0.0", fillcolor="#e5813900"] ;
508 -> 509 ;
510 [label="hour_local <= 15.5\nmse = 2.80144759584e+13\nsamples = 0.0%\nvalue = 643560.61", fillcolor="#e5813900"] ;
508 -> 510 ;
511 [label="mse = 5.52006114096e+13\nsamples = 0.0%\nvalue = 1287121.21", fillcolor="#e5813900"] ;
510 -> 511 ;
512 [label="mse = 0.0\nsamples = 0.0%\nvalue = 0.0", fillcolor="#e5813900"] ;
510 -> 512 ;
513 [label="visitNumber <= 10.5\nmse = 2.79096349907e+14\nsamples = 0.1%\nvalue = 2183903.39", fillcolor="#e5813901"] ;
507 -> 513 ;
514 [label="hour_local <= 13.5\nmse = 3.57492154619e+14\nsamples = 0.1%\nvalue = 2778434.34", fillcolor="#e5813901"] ;
513 -> 514 ;
515 [label="yearday_local <= 279.5\nmse = 7.54873298064e+14\nsamples = 0.0%\nvalue = 4510884.62", fillcolor="#e5813901"] ;
514 -> 515 ;
516 [label="totals_pageviews <= 10.5\nmse = 1.96417088976e+14\nsamples = 0.0%\nvalue = 2636844.92", fillcolor="#e5813901"] ;
515 -> 516 ;
517 [label="mse = 3.07049707481e+12\nsamples = 0.0%\nvalue = 182688.17", fillcolor="#e5813900"] ;
516 -> 517 ;
518 [label="mse = 3.7585256967e+14\nsamples = 0.0%\nvalue = 5064893.62", fillcolor="#e5813902"] ;
516 -> 518 ;
519 [label="mse = 2.15339667307e+15\nsamples = 0.0%\nvalue = 9311506.85", fillcolor="#e5813903"] ;
515 -> 519 ;
520 [label="totals_pageviews <= 10.5\nmse = 4.39983736204e+13\nsamples = 0.1%\nvalue = 1429820.36", fillcolor="#e5813900"] ;
514 -> 520 ;
521 [label="yearday_local <= 136.0\nmse = 5.00364756236e+12\nsamples = 0.0%\nvalue = 173095.24", fillcolor="#e5813900"] ;
520 -> 521 ;
522 [label="mse = 1.36357925289e+13\nsamples = 0.0%\nvalue = 476721.31", fillcolor="#e5813900"] ;
521 -> 522 ;
523 [label="mse = 0.0\nsamples = 0.0%\nvalue = 0.0", fillcolor="#e5813900"] ;
521 -> 523 ;
524 [label="geoNetwork_networkDomain <= 5308.0\nmse = 8.02468851067e+13\nsamples = 0.0%\nvalue = 2701686.75", fillcolor="#e5813901"] ;
520 -> 524 ;
525 [label="mse = 1.12136473526e+14\nsamples = 0.0%\nvalue = 4115955.06", fillcolor="#e5813901"] ;
524 -> 525 ;
526 [label="mse = 3.84034651037e+13\nsamples = 0.0%\nvalue = 1067012.99", fillcolor="#e5813900"] ;
524 -> 526 ;
527 [label="visitNumber <= 23.5\nmse = 2.92100183883e+12\nsamples = 0.0%\nvalue = 130697.67", fillcolor="#e5813900"] ;
513 -> 527 ;
528 [label="mse = 6.92127283951e+12\nsamples = 0.0%\nvalue = 312222.22", fillcolor="#e5813900"] ;
527 -> 528 ;
529 [label="mse = 0.0\nsamples = 0.0%\nvalue = 0.0", fillcolor="#e5813900"] ;
527 -> 529 ;
530 [label="visitNumber <= 10.5\nmse = 1.10315138072e+16\nsamples = 0.3%\nvalue = 18081113.78", fillcolor="#e5813906"] ;
458 -> 530 ;
531 [label="geoNetwork_region <= 107.5\nmse = 4.64244841039e+15\nsamples = 0.3%\nvalue = 12843221.1", fillcolor="#e5813904"] ;
530 -> 531 ;
532 [label="geoNetwork_networkDomain <= 1465.0\nmse = 8.33693085703e+14\nsamples = 0.1%\nvalue = 6521837.84", fillcolor="#e5813902"] ;
531 -> 532 ;
533 [label="totals_pageviews <= 11.5\nmse = 2.73441860605e+14\nsamples = 0.1%\nvalue = 4178882.83", fillcolor="#e5813901"] ;
532 -> 533 ;
534 [label="totals_pageviews <= 9.5\nmse = 1.44776137938e+14\nsamples = 0.1%\nvalue = 2203174.6", fillcolor="#e5813901"] ;
533 -> 534 ;
535 [label="yearday_local <= 272.5\nmse = 3.10867154577e+13\nsamples = 0.0%\nvalue = 503145.54", fillcolor="#e5813900"] ;
534 -> 535 ;
536 [label="mse = 0.0\nsamples = 0.0%\nvalue = 0.0", fillcolor="#e5813900"] ;
535 -> 536 ;
537 [label="mse = 9.17412137671e+13\nsamples = 0.0%\nvalue = 1509436.62", fillcolor="#e5813900"] ;
535 -> 537 ;
538 [label="totals_hits <= 12.5\nmse = 2.24328263981e+14\nsamples = 0.0%\nvalue = 3447525.77", fillcolor="#e5813901"] ;
534 -> 538 ;
539 [label="yearday_local <= 213.5\nmse = 3.64638855273e+14\nsamples = 0.0%\nvalue = 5716511.63", fillcolor="#e5813902"] ;
538 -> 539 ;
540 [label="mse = 4.91983538636e+14\nsamples = 0.0%\nvalue = 8120000.0", fillcolor="#e5813903"] ;
539 -> 540 ;
541 [label="mse = 2.18838276531e+14\nsamples = 0.0%\nvalue = 3198571.43", fillcolor="#e5813901"] ;
539 -> 541 ;
542 [label="mse = 3.32976568039e+12\nsamples = 0.0%\nvalue = 167983.19", fillcolor="#e5813900"] ;
538 -> 542 ;
543 [label="totals_hits <= 16.5\nmse = 5.28090516106e+14\nsamples = 0.0%\nvalue = 8508260.87", fillcolor="#e5813903"] ;
533 -> 543 ;
544 [label="hour_local <= 13.5\nmse = 6.1869548849e+14\nsamples = 0.0%\nvalue = 11307006.37", fillcolor="#e5813904"] ;
543 -> 544 ;
545 [label="mse = 8.85598438806e+14\nsamples = 0.0%\nvalue = 16541756.76", fillcolor="#e5813905"] ;
544 -> 545 ;
546 [label="mse = 3.34520504805e+14\nsamples = 0.0%\nvalue = 6639879.52", fillcolor="#e5813902"] ;
544 -> 546 ;
547 [label="mse = 2.80150496341e+14\nsamples = 0.0%\nvalue = 2489041.1", fillcolor="#e5813901"] ;
543 -> 547 ;
548 [label="hour_local <= 13.5\nmse = 2.8845361607e+15\nsamples = 0.0%\nvalue = 15525654.45", fillcolor="#e5813905"] ;
532 -> 548 ;
549 [label="mse = 5.86592461898e+15\nsamples = 0.0%\nvalue = 23360731.71", fillcolor="#e5813908"] ;
548 -> 549 ;
550 [label="mse = 5.60732127464e+14\nsamples = 0.0%\nvalue = 9631376.15", fillcolor="#e5813903"] ;
548 -> 550 ;
551 [label="geoNetwork_region <= 155.5\nmse = 8.66373196595e+15\nsamples = 0.1%\nvalue = 19666184.36", fillcolor="#e5813906"] ;
531 -> 551 ;
552 [label="mse = 1.71194205687e+16\nsamples = 0.0%\nvalue = 55794929.58", fillcolor="#e5813912"] ;
551 -> 552 ;
553 [label="geoNetwork_networkDomain <= 898.5\nmse = 7.77136472913e+15\nsamples = 0.1%\nvalue = 16402646.31", fillcolor="#e5813905"] ;
551 -> 553 ;
554 [label="visitNumber <= 4.5\nmse = 1.10458262244e+16\nsamples = 0.1%\nvalue = 21084003.8", fillcolor="#e5813907"] ;
553 -> 554 ;
555 [label="weekday_local <= 3.5\nmse = 4.24606582755e+15\nsamples = 0.0%\nvalue = 13467687.3", fillcolor="#e5813904"] ;
554 -> 555 ;
556 [label="yearday_local <= 160.5\nmse = 6.78163492543e+15\nsamples = 0.0%\nvalue = 19338571.43", fillcolor="#e5813906"] ;
555 -> 556 ;
557 [label="mse = 6.27325063281e+14\nsamples = 0.0%\nvalue = 6377605.63", fillcolor="#e5813902"] ;
556 -> 557 ;
558 [label="mse = 1.05419946961e+16\nsamples = 0.0%\nvalue = 27628918.92", fillcolor="#e5813909"] ;
556 -> 558 ;
559 [label="mse = 4.31024431898e+14\nsamples = 0.0%\nvalue = 4919680.0", fillcolor="#e5813902"] ;
555 -> 559 ;
560 [label="visitNumber <= 6.5\nmse = 2.034067573e+16\nsamples = 0.0%\nvalue = 31712227.27", fillcolor="#e581390a"] ;
554 -> 560 ;
561 [label="mse = 3.75611037753e+16\nsamples = 0.0%\nvalue = 54412173.91", fillcolor="#e5813911"] ;
560 -> 561 ;
562 [label="mse = 2.97732931283e+14\nsamples = 0.0%\nvalue = 6850380.95", fillcolor="#e5813902"] ;
560 -> 562 ;
563 [label="geoNetwork_city <= 486.0\nmse = 9.73332608315e+14\nsamples = 0.0%\nvalue = 6877258.69", fillcolor="#e5813902"] ;
553 -> 563 ;
564 [label="mse = 2.83288531061e+15\nsamples = 0.0%\nvalue = 15824675.32", fillcolor="#e5813905"] ;
563 -> 564 ;
565 [label="totals_hits <= 13.5\nmse = 1.38399217042e+14\nsamples = 0.0%\nvalue = 3091813.19", fillcolor="#e5813901"] ;
563 -> 565 ;
566 [label="mse = 2.6712079265e+13\nsamples = 0.0%\nvalue = 856696.43", fillcolor="#e5813900"] ;
565 -> 566 ;
567 [label="mse = 2.96316330286e+14\nsamples = 0.0%\nvalue = 6668000.0", fillcolor="#e5813902"] ;
565 -> 567 ;
568 [label="geoNetwork_region <= 209.5\nmse = 4.77324509432e+16\nsamples = 0.0%\nvalue = 49090830.56", fillcolor="#e5813910"] ;
530 -> 568 ;
569 [label="yearday_local <= 161.5\nmse = 1.22002888794e+16\nsamples = 0.0%\nvalue = 24727656.25", fillcolor="#e5813908"] ;
568 -> 569 ;
570 [label="mse = 2.65935867841e+16\nsamples = 0.0%\nvalue = 47591204.82", fillcolor="#e581390f"] ;
569 -> 570 ;
571 [label="mse = 5.39100400657e+14\nsamples = 0.0%\nvalue = 7317798.17", fillcolor="#e5813902"] ;
569 -> 571 ;
572 [label="mse = 1.07433976219e+17\nsamples = 0.0%\nvalue = 92005779.82", fillcolor="#e581391e"] ;
568 -> 572 ;
573 [label="visitNumber <= 2.5\nmse = 6.81424090146e+15\nsamples = 3.5%\nvalue = 12444978.52", fillcolor="#e5813904"] ;
1 -> 573 ;
574 [label="totals_newVisits <= 0.5\nmse = 1.37256966622e+15\nsamples = 2.8%\nvalue = 6339453.51", fillcolor="#e5813902"] ;
573 -> 574 ;
575 [label="geoNetwork_country <= 210.5\nmse = 3.93223268711e+15\nsamples = 0.5%\nvalue = 15610353.74", fillcolor="#e5813905"] ;
574 -> 575 ;
576 [label="weekday_local <= 1.5\nmse = 8.79451827191e+13\nsamples = 0.1%\nvalue = 1262072.89", fillcolor="#e5813900"] ;
575 -> 576 ;
577 [label="mse = 4.26386747358e+14\nsamples = 0.0%\nvalue = 4576888.89", fillcolor="#e5813901"] ;
576 -> 577 ;
578 [label="trafficSource_source <= 265.0\nmse = 2.40925366966e+13\nsamples = 0.1%\nvalue = 659784.66", fillcolor="#e5813900"] ;
576 -> 578 ;
579 [label="yearday_local <= 72.5\nmse = 1.28872180594e+13\nsamples = 0.1%\nvalue = 463711.18", fillcolor="#e5813900"] ;
578 -> 579 ;
580 [label="mse = 5.14063371628e+13\nsamples = 0.0%\nvalue = 1700165.29", fillcolor="#e5813901"] ;
579 -> 580 ;
581 [label="yearday_local <= 320.5\nmse = 3.53999313053e+12\nsamples = 0.1%\nvalue = 177648.18", fillcolor="#e5813900"] ;
579 -> 581 ;
582 [label="yearday_local <= 126.5\nmse = 384651355044.0\nsamples = 0.1%\nvalue = 33489.93", fillcolor="#e5813900"] ;
581 -> 582 ;
583 [label="mse = 2.25936650667e+12\nsamples = 0.0%\nvalue = 199600.0", fillcolor="#e5813900"] ;
582 -> 583 ;
584 [label="mse = 0.0\nsamples = 0.1%\nvalue = 0.0", fillcolor="#e5813900"] ;
582 -> 584 ;
585 [label="mse = 2.12572589335e+13\nsamples = 0.0%\nvalue = 1025526.32", fillcolor="#e5813900"] ;
581 -> 585 ;
586 [label="mse = 9.51067966534e+13\nsamples = 0.0%\nvalue = 1935252.53", fillcolor="#e5813901"] ;
578 -> 586 ;
587 [label="totals_pageviews <= 19.5\nmse = 5.05407283035e+15\nsamples = 0.4%\nvalue = 20114390.42", fillcolor="#e5813906"] ;
575 -> 587 ;
588 [label="yearday_local <= 158.5\nmse = 3.73026465035e+15\nsamples = 0.3%\nvalue = 15219906.74", fillcolor="#e5813905"] ;
587 -> 588 ;
589 [label="yearday_local <= 145.5\nmse = 6.78909093072e+15\nsamples = 0.1%\nvalue = 23607146.74", fillcolor="#e5813908"] ;
588 -> 589 ;
590 [label="weekday_local <= 4.5\nmse = 6.37008277803e+15\nsamples = 0.1%\nvalue = 20444283.56", fillcolor="#e5813907"] ;
589 -> 590 ;
591 [label="weekday_local <= 3.5\nmse = 8.44121515323e+15\nsamples = 0.1%\nvalue = 25392593.36", fillcolor="#e5813908"] ;
590 -> 591 ;
592 [label="totals_hits <= 20.5\nmse = 3.27573338625e+15\nsamples = 0.1%\nvalue = 20394895.29", fillcolor="#e5813907"] ;
591 -> 592 ;
593 [label="yearday_local <= 72.5\nmse = 4.72933750426e+15\nsamples = 0.0%\nvalue = 28425198.24", fillcolor="#e5813909"] ;
592 -> 593 ;
594 [label="mse = 3.03545344956e+15\nsamples = 0.0%\nvalue = 13010660.38", fillcolor="#e5813904"] ;
593 -> 594 ;
595 [label="mse = 5.82273506808e+15\nsamples = 0.0%\nvalue = 41928842.98", fillcolor="#e581390d"] ;
593 -> 595 ;
596 [label="totals_hits <= 23.5\nmse = 9.14156713657e+14\nsamples = 0.0%\nvalue = 8634387.1", fillcolor="#e5813903"] ;
592 -> 596 ;
597 [label="mse = 1.62282038458e+15\nsamples = 0.0%\nvalue = 13508441.56", fillcolor="#e5813904"] ;
596 -> 597 ;
598 [label="mse = 1.6797546384e+14\nsamples = 0.0%\nvalue = 3822820.51", fillcolor="#e5813901"] ;
596 -> 598 ;
599 [label="mse = 2.77134692456e+16\nsamples = 0.0%\nvalue = 44483800.0", fillcolor="#e581390e"] ;
591 -> 599 ;
600 [label="geoNetwork_city <= 509.5\nmse = 6.15846026458e+14\nsamples = 0.0%\nvalue = 7267016.57", fillcolor="#e5813902"] ;
590 -> 600 ;
601 [label="mse = 1.39874698614e+15\nsamples = 0.0%\nvalue = 15386086.96", fillcolor="#e5813905"] ;
600 -> 601 ;
602 [label="mse = 6.7892837492e+13\nsamples = 0.0%\nvalue = 2265089.29", fillcolor="#e5813901"] ;
600 -> 602 ;
603 [label="mse = 9.67858021501e+15\nsamples = 0.0%\nvalue = 52332876.71", fillcolor="#e5813911"] ;
589 -> 603 ;
604 [label="trafficSource_isTrueDirect <= 0.5\nmse = 1.77466561339e+15\nsamples = 0.2%\nvalue = 10049882.75", fillcolor="#e5813903"] ;
588 -> 604 ;
605 [label="yearday_local <= 296.0\nmse = 7.37790042518e+13\nsamples = 0.0%\nvalue = 2163266.13", fillcolor="#e5813901"] ;
604 -> 605 ;
606 [label="totals_hits <= 19.5\nmse = 1.37660587255e+13\nsamples = 0.0%\nvalue = 590463.58", fillcolor="#e5813900"] ;
605 -> 606 ;
607 [label="mse = 2.84416300337e+13\nsamples = 0.0%\nvalue = 1255774.65", fillcolor="#e5813900"] ;
606 -> 607 ;
608 [label="mse = 0.0\nsamples = 0.0%\nvalue = 0.0", fillcolor="#e5813900"] ;
606 -> 608 ;
609 [label="mse = 1.57355813774e+14\nsamples = 0.0%\nvalue = 4611649.48", fillcolor="#e5813901"] ;
605 -> 609 ;
610 [label="hour_local <= 10.5\nmse = 2.19998354012e+15\nsamples = 0.1%\nvalue = 12117410.15", fillcolor="#e5813904"] ;
604 -> 610 ;
611 [label="totals_hits <= 20.5\nmse = 4.15204968011e+15\nsamples = 0.0%\nvalue = 21063617.02", fillcolor="#e5813907"] ;
610 -> 611 ;
612 [label="mse = 7.75012225784e+15\nsamples = 0.0%\nvalue = 37193303.57", fillcolor="#e581390c"] ;
611 -> 612 ;
613 [label="mse = 4.23142435984e+14\nsamples = 0.0%\nvalue = 6376422.76", fillcolor="#e5813902"] ;
611 -> 613 ;
614 [label="geoNetwork_city <= 294.5\nmse = 1.51958951732e+15\nsamples = 0.1%\nvalue = 9160506.33", fillcolor="#e5813903"] ;
610 -> 614 ;
615 [label="mse = 8.26179497306e+15\nsamples = 0.0%\nvalue = 23320789.47", fillcolor="#e5813907"] ;
614 -> 615 ;
616 [label="yearday_local <= 340.5\nmse = 6.85777652495e+14\nsamples = 0.1%\nvalue = 7465732.28", fillcolor="#e5813902"] ;
614 -> 616 ;
617 [label="trafficSource_medium <= 3.5\nmse = 4.5781804415e+14\nsamples = 0.1%\nvalue = 6182791.13", fillcolor="#e5813902"] ;
616 -> 617 ;
618 [label="mse = 8.67170035088e+13\nsamples = 0.0%\nvalue = 2030000.0", fillcolor="#e5813901"] ;
617 -> 618 ;
619 [label="hour_local <= 13.5\nmse = 5.51060735927e+14\nsamples = 0.1%\nvalue = 7291498.83", fillcolor="#e5813902"] ;
617 -> 619 ;
620 [label="mse = 1.01394043385e+15\nsamples = 0.0%\nvalue = 11399921.26", fillcolor="#e5813904"] ;
619 -> 620 ;
621 [label="geoNetwork_city <= 379.5\nmse = 3.44937901529e+14\nsamples = 0.0%\nvalue = 5552266.67", fillcolor="#e5813902"] ;
619 -> 621 ;
622 [label="mse = 3.59300180634e+12\nsamples = 0.0%\nvalue = 318405.8", fillcolor="#e5813900"] ;
621 -> 622 ;
623 [label="totals_pageviews <= 16.5\nmse = 4.36271554476e+14\nsamples = 0.0%\nvalue = 7115627.71", fillcolor="#e5813902"] ;
621 -> 623 ;
624 [label="mse = 1.68586120076e+14\nsamples = 0.0%\nvalue = 4055310.34", fillcolor="#e5813901"] ;
623 -> 624 ;
625 [label="mse = 8.45186985249e+14\nsamples = 0.0%\nvalue = 12275465.12", fillcolor="#e5813904"] ;
623 -> 625 ;
626 [label="mse = 1.93376549865e+15\nsamples = 0.0%\nvalue = 14849468.09", fillcolor="#e5813905"] ;
616 -> 626 ;
627 [label="yearday_local <= 213.5\nmse = 7.82892001589e+15\nsamples = 0.1%\nvalue = 31009838.52", fillcolor="#e581390a"] ;
587 -> 627 ;
628 [label="trafficSource_source <= 265.0\nmse = 9.93085633365e+15\nsamples = 0.1%\nvalue = 39983142.25", fillcolor="#e581390d"] ;
627 -> 628 ;
629 [label="geoNetwork_region <= 230.0\nmse = 6.67476995887e+15\nsamples = 0.0%\nvalue = 23828489.21", fillcolor="#e5813908"] ;
628 -> 629 ;
630 [label="mse = 1.37288289211e+16\nsamples = 0.0%\nvalue = 42263760.0", fillcolor="#e581390e"] ;
629 -> 630 ;
631 [label="totals_hits <= 26.5\nmse = 4.07138485078e+14\nsamples = 0.0%\nvalue = 8766993.46", fillcolor="#e5813903"] ;
629 -> 631 ;
632 [label="mse = 5.26845772235e+14\nsamples = 0.0%\nvalue = 12526000.0", fillcolor="#e5813904"] ;
631 -> 632 ;
633 [label="mse = 2.17763385121e+14\nsamples = 0.0%\nvalue = 4068235.29", fillcolor="#e5813901"] ;
631 -> 633 ;
634 [label="hour_local <= 15.5\nmse = 1.37035965392e+16\nsamples = 0.0%\nvalue = 63252538.86", fillcolor="#e5813914"] ;
628 -> 634 ;
635 [label="mse = 2.19317797474e+16\nsamples = 0.0%\nvalue = 95462395.83", fillcolor="#e581391f"] ;
634 -> 635 ;
636 [label="mse = 3.51726677751e+15\nsamples = 0.0%\nvalue = 31374742.27", fillcolor="#e581390a"] ;
634 -> 636 ;
637 [label="trafficSource_medium <= 3.5\nmse = 5.11921097284e+15\nsamples = 0.1%\nvalue = 20337045.45", fillcolor="#e5813907"] ;
627 -> 637 ;
638 [label="mse = 2.26563583805e+16\nsamples = 0.0%\nvalue = 48548533.33", fillcolor="#e5813910"] ;
637 -> 638 ;
639 [label="totals_hits <= 29.5\nmse = 7.92344008468e+14\nsamples = 0.0%\nvalue = 13745576.32", fillcolor="#e5813904"] ;
637 -> 639 ;
640 [label="totals_hits <= 24.5\nmse = 1.03502045299e+15\nsamples = 0.0%\nvalue = 19339366.52", fillcolor="#e5813906"] ;
639 -> 640 ;
641 [label="mse = 3.04144548541e+14\nsamples = 0.0%\nvalue = 8636931.82", fillcolor="#e5813903"] ;
640 -> 641 ;
642 [label="mse = 1.39267530405e+15\nsamples = 0.0%\nvalue = 26420676.69", fillcolor="#e5813908"] ;
640 -> 642 ;
643 [label="mse = 3.405121011e+13\nsamples = 0.0%\nvalue = 1383300.0", fillcolor="#e5813900"] ;
639 -> 643 ;
644 [label="geoNetwork_country <= 211.5\nmse = 7.38286386764e+14\nsamples = 2.3%\nvalue = 4133811.1", fillcolor="#e5813901"] ;
574 -> 644 ;
645 [label="totals_pageviews <= 21.5\nmse = 1.67160801524e+13\nsamples = 0.8%\nvalue = 175564.76", fillcolor="#e5813900"] ;
644 -> 645 ;
646 [label="yearday_local <= 351.5\nmse = 4.13052474686e+12\nsamples = 0.7%\nvalue = 112593.77", fillcolor="#e5813900"] ;
645 -> 646 ;
647 [label="geoNetwork_city <= 572.5\nmse = 2.35393695972e+12\nsamples = 0.7%\nvalue = 82179.01", fillcolor="#e5813900"] ;
646 -> 647 ;
648 [label="totals_pageviews <= 19.5\nmse = 5.58629423721e+12\nsamples = 0.2%\nvalue = 190524.39", fillcolor="#e5813900"] ;
647 -> 648 ;
649 [label="yearday_local <= 299.5\nmse = 2.52276627997e+12\nsamples = 0.2%\nvalue = 96855.71", fillcolor="#e5813900"] ;
648 -> 649 ;
650 [label="yearday_local <= 39.5\nmse = 298352007346.0\nsamples = 0.2%\nvalue = 22484.85", fillcolor="#e5813900"] ;
649 -> 650 ;
651 [label="mse = 2.92557201992e+12\nsamples = 0.0%\nvalue = 223879.31", fillcolor="#e5813900"] ;
650 -> 651 ;
652 [label="mse = 0.0\nsamples = 0.2%\nvalue = 0.0", fillcolor="#e5813900"] ;
650 -> 652 ;
653 [label="geoNetwork_networkDomain <= 14876.0\nmse = 1.31606147889e+13\nsamples = 0.0%\nvalue = 457773.11", fillcolor="#e5813900"] ;
649 -> 653 ;
654 [label="mse = 2.65497606049e+13\nsamples = 0.0%\nvalue = 939224.14", fillcolor="#e5813900"] ;
653 -> 654 ;
655 [label="mse = 0.0\nsamples = 0.0%\nvalue = 0.0", fillcolor="#e5813900"] ;
653 -> 655 ;
656 [label="geoNetwork_city <= 282.5\nmse = 2.25350584438e+13\nsamples = 0.0%\nvalue = 718785.43", fillcolor="#e5813900"] ;
648 -> 656 ;
657 [label="mse = 0.0\nsamples = 0.0%\nvalue = 0.0", fillcolor="#e5813900"] ;
656 -> 657 ;
658 [label="mse = 4.67417635256e+13\nsamples = 0.0%\nvalue = 1530517.24", fillcolor="#e5813900"] ;
656 -> 658 ;
659 [label="yearday_local <= 331.5\nmse = 698619397506.0\nsamples = 0.5%\nvalue = 26996.89", fillcolor="#e5813900"] ;
647 -> 659 ;
660 [label="trafficSource_source <= 265.0\nmse = 479229315841.0\nsamples = 0.4%\nvalue = 12622.13", fillcolor="#e5813900"] ;
659 -> 660 ;
661 [label="mse = 0.0\nsamples = 0.4%\nvalue = 0.0", fillcolor="#e5813900"] ;
660 -> 661 ;
662 [label="weekday_local <= 2.5\nmse = 4.65311384673e+12\nsamples = 0.0%\nvalue = 122912.62", fillcolor="#e5813900"] ;
660 -> 662 ;
663 [label="mse = 1.94893204729e+13\nsamples = 0.0%\nvalue = 520273.97", fillcolor="#e5813900"] ;
662 -> 663 ;
664 [label="mse = 0.0\nsamples = 0.0%\nvalue = 0.0", fillcolor="#e5813900"] ;
662 -> 664 ;
665 [label="yearday_local <= 338.5\nmse = 3.78229840749e+12\nsamples = 0.0%\nvalue = 231990.52", fillcolor="#e5813900"] ;
659 -> 665 ;
666 [label="mse = 1.18855043787e+13\nsamples = 0.0%\nvalue = 753076.92", fillcolor="#e5813900"] ;
665 -> 666 ;
667 [label="mse = 0.0\nsamples = 0.0%\nvalue = 0.0", fillcolor="#e5813900"] ;
665 -> 667 ;
668 [label="weekday_local <= 4.5\nmse = 5.16593331294e+13\nsamples = 0.0%\nvalue = 938379.89", fillcolor="#e5813900"] ;
646 -> 668 ;
669 [label="mse = 0.0\nsamples = 0.0%\nvalue = 0.0", fillcolor="#e5813900"] ;
668 -> 669 ;
670 [label="mse = 1.18860585509e+14\nsamples = 0.0%\nvalue = 2210131.58", fillcolor="#e5813901"] ;
668 -> 670 ;
671 [label="totals_hits <= 25.5\nmse = 1.16150546743e+14\nsamples = 0.1%\nvalue = 674481.13", fillcolor="#e5813900"] ;
645 -> 671 ;
672 [label="totals_hits <= 23.5\nmse = 4.40075627903e+14\nsamples = 0.0%\nvalue = 2584156.63", fillcolor="#e5813901"] ;
671 -> 672 ;
673 [label="mse = 0.0\nsamples = 0.0%\nvalue = 0.0", fillcolor="#e5813900"] ;
672 -> 673 ;
674 [label="mse = 8.18977243066e+14\nsamples = 0.0%\nvalue = 4874659.09", fillcolor="#e5813902"] ;
672 -> 674 ;
675 [label="mse = 0.0\nsamples = 0.1%\nvalue = 0.0", fillcolor="#e5813900"] ;
671 -> 675 ;
676 [label="trafficSource_medium <= 1.5\nmse = 1.14294879526e+15\nsamples = 1.4%\nvalue = 6432526.61", fillcolor="#e5813902"] ;
644 -> 676 ;
677 [label="yearday_local <= 151.5\nmse = 3.52118068087e+15\nsamples = 0.2%\nvalue = 12499574.06", fillcolor="#e5813904"] ;
676 -> 677 ;
678 [label="device_isMobile <= 0.5\nmse = 7.21876194556e+15\nsamples = 0.1%\nvalue = 20298663.45", fillcolor="#e5813907"] ;
677 -> 678 ;
679 [label="totals_hits <= 18.5\nmse = 1.00662595392e+16\nsamples = 0.1%\nvalue = 28058620.69", fillcolor="#e5813909"] ;
678 -> 679 ;
680 [label="totals_hits <= 16.5\nmse = 2.48140160142e+16\nsamples = 0.0%\nvalue = 52860625.0", fillcolor="#e5813911"] ;
679 -> 680 ;
681 [label="mse = 6.35270404076e+15\nsamples = 0.0%\nvalue = 24582820.51", fillcolor="#e5813908"] ;
680 -> 681 ;
682 [label="mse = 4.45700633985e+16\nsamples = 0.0%\nvalue = 86279848.48", fillcolor="#e581391c"] ;
680 -> 682 ;
683 [label="geoNetwork_city <= 597.5\nmse = 2.31337140073e+15\nsamples = 0.0%\nvalue = 15785463.92", fillcolor="#e5813905"] ;
679 -> 683 ;
684 [label="geoNetwork_region <= 129.5\nmse = 4.10277667378e+15\nsamples = 0.0%\nvalue = 26342866.67", fillcolor="#e5813908"] ;
683 -> 684 ;
685 [label="mse = 1.49069871597e+15\nsamples = 0.0%\nvalue = 16842906.98", fillcolor="#e5813905"] ;
684 -> 685 ;
686 [label="mse = 7.32852422256e+15\nsamples = 0.0%\nvalue = 39108437.5", fillcolor="#e581390d"] ;
684 -> 686 ;
687 [label="weekday_local <= 3.5\nmse = 1.65033988874e+14\nsamples = 0.0%\nvalue = 4554184.4", fillcolor="#e5813901"] ;
683 -> 687 ;
688 [label="mse = 1.18028674073e+13\nsamples = 0.0%\nvalue = 568732.39", fillcolor="#e5813900"] ;
687 -> 688 ;
689 [label="mse = 2.88002493959e+14\nsamples = 0.0%\nvalue = 8596571.43", fillcolor="#e5813903"] ;
687 -> 689 ;
690 [label="geoNetwork_region <= 347.5\nmse = 8.91015100734e+13\nsamples = 0.0%\nvalue = 2150376.34", fillcolor="#e5813901"] ;
678 -> 690 ;
691 [label="mse = 4.57457921324e+12\nsamples = 0.0%\nvalue = 325060.24", fillcolor="#e5813900"] ;
690 -> 691 ;
692 [label="mse = 1.52367108116e+14\nsamples = 0.0%\nvalue = 3621262.14", fillcolor="#e5813901"] ;
690 -> 692 ;
693 [label="geoNetwork_city <= 150.0\nmse = 1.04364874121e+15\nsamples = 0.1%\nvalue = 7412142.86", fillcolor="#e5813902"] ;
677 -> 693 ;
694 [label="mse = 2.22442580993e+15\nsamples = 0.0%\nvalue = 19601891.89", fillcolor="#e5813906"] ;
693 -> 694 ;
695 [label="hour_local <= 11.5\nmse = 9.30550901936e+14\nsamples = 0.1%\nvalue = 6384760.82", fillcolor="#e5813902"] ;
693 -> 695 ;
696 [label="totals_pageviews <= 15.5\nmse = 1.81819914585e+15\nsamples = 0.0%\nvalue = 10371245.67", fillcolor="#e5813903"] ;
695 -> 696 ;
697 [label="mse = 1.0157226951e+14\nsamples = 0.0%\nvalue = 2242948.72", fillcolor="#e5813901"] ;
696 -> 697 ;
698 [label="yearday_local <= 221.5\nmse = 2.41932924102e+15\nsamples = 0.0%\nvalue = 13376018.96", fillcolor="#e5813904"] ;
696 -> 698 ;
699 [label="mse = 8.64773754437e+13\nsamples = 0.0%\nvalue = 3843472.22", fillcolor="#e5813901"] ;
698 -> 699 ;
700 [label="yearday_local <= 280.0\nmse = 3.55626277593e+15\nsamples = 0.0%\nvalue = 18313741.01", fillcolor="#e5813906"] ;
698 -> 700 ;
701 [label="mse = 6.25004210486e+15\nsamples = 0.0%\nvalue = 28595833.33", fillcolor="#e5813909"] ;
700 -> 701 ;
702 [label="mse = 4.25754537982e+14\nsamples = 0.0%\nvalue = 7264328.36", fillcolor="#e5813902"] ;
700 -> 702 ;
703 [label="totals_hits <= 20.5\nmse = 4.83391879576e+14\nsamples = 0.1%\nvalue = 4428743.63", fillcolor="#e5813901"] ;
695 -> 703 ;
704 [label="totals_hits <= 18.5\nmse = 8.69639686139e+14\nsamples = 0.0%\nvalue = 7147833.33", fillcolor="#e5813902"] ;
703 -> 704 ;
705 [label="hour_local <= 16.5\nmse = 1.5746979047e+14\nsamples = 0.0%\nvalue = 3528527.61", fillcolor="#e5813901"] ;
704 -> 705 ;
706 [label="mse = 3.698978324e+13\nsamples = 0.0%\nvalue = 1952600.0", fillcolor="#e5813901"] ;
705 -> 706 ;
707 [label="mse = 3.38508393651e+14\nsamples = 0.0%\nvalue = 6030000.0", fillcolor="#e5813902"] ;
705 -> 707 ;
708 [label="mse = 2.2907894335e+15\nsamples = 0.0%\nvalue = 14809480.52", fillcolor="#e5813905"] ;
704 -> 708 ;
709 [label="totals_pageviews <= 18.5\nmse = 2.09196641445e+14\nsamples = 0.1%\nvalue = 2558882.52", fillcolor="#e5813901"] ;
703 -> 709 ;
710 [label="totals_pageviews <= 16.5\nmse = 6.58315742787e+12\nsamples = 0.0%\nvalue = 394932.43", fillcolor="#e5813900"] ;
709 -> 710 ;
711 [label="mse = 0.0\nsamples = 0.0%\nvalue = 0.0", fillcolor="#e5813900"] ;
710 -> 711 ;
712 [label="mse = 1.41253734016e+13\nsamples = 0.0%\nvalue = 872388.06", fillcolor="#e5813900"] ;
710 -> 712 ;
713 [label="weekday_local <= 2.5\nmse = 3.52397951704e+14\nsamples = 0.0%\nvalue = 4152238.81", fillcolor="#e5813901"] ;
709 -> 713 ;
714 [label="mse = 6.90623187688e+14\nsamples = 0.0%\nvalue = 6675974.03", fillcolor="#e5813902"] ;
713 -> 714 ;
715 [label="mse = 1.35959913703e+14\nsamples = 0.0%\nvalue = 2585080.65", fillcolor="#e5813901"] ;
713 -> 715 ;
716 [label="trafficSource_source <= 200.0\nmse = 6.78261905305e+14\nsamples = 1.2%\nvalue = 5268547.38", fillcolor="#e5813902"] ;
676 -> 716 ;
717 [label="totals_pageviews <= 16.5\nmse = 1.99187188423e+14\nsamples = 0.8%\nvalue = 3040103.24", fillcolor="#e5813901"] ;
716 -> 717 ;
718 [label="totals_hits <= 19.5\nmse = 8.82608673766e+13\nsamples = 0.4%\nvalue = 1865293.88", fillcolor="#e5813901"] ;
717 -> 718 ;
719 [label="device_isMobile <= 0.5\nmse = 1.24751170741e+14\nsamples = 0.2%\nvalue = 2543572.73", fillcolor="#e5813901"] ;
718 -> 719 ;
720 [label="yearday_local <= 207.5\nmse = 1.72578376835e+14\nsamples = 0.2%\nvalue = 3287953.49", fillcolor="#e5813901"] ;
719 -> 720 ;
721 [label="yearday_local <= 174.5\nmse = 2.65879754037e+14\nsamples = 0.1%\nvalue = 4638276.52", fillcolor="#e5813901"] ;
720 -> 721 ;
722 [label="geoNetwork_city <= 509.5\nmse = 1.75382997091e+14\nsamples = 0.1%\nvalue = 3300241.23", fillcolor="#e5813901"] ;
721 -> 722 ;
723 [label="mse = 4.49381711871e+14\nsamples = 0.0%\nvalue = 6844444.44", fillcolor="#e5813902"] ;
722 -> 723 ;
724 [label="yearday_local <= 74.5\nmse = 7.49854580851e+13\nsamples = 0.1%\nvalue = 2077020.65", fillcolor="#e5813901"] ;
722 -> 724 ;
725 [label="weekday_local <= 4.5\nmse = 1.37783334564e+13\nsamples = 0.0%\nvalue = 592010.87", fillcolor="#e5813900"] ;
724 -> 725 ;
726 [label="mse = 0.0\nsamples = 0.0%\nvalue = 0.0", fillcolor="#e5813900"] ;
725 -> 726 ;
727 [label="mse = 3.17610456738e+13\nsamples = 0.0%\nvalue = 1414675.32", fillcolor="#e5813900"] ;
725 -> 727 ;
728 [label="geoNetwork_networkDomain <= 5272.5\nmse = 1.4191874708e+14\nsamples = 0.0%\nvalue = 3839870.97", fillcolor="#e5813901"] ;
724 -> 728 ;
729 [label="mse = 8.39683925316e+13\nsamples = 0.0%\nvalue = 2549753.09", fillcolor="#e5813901"] ;
728 -> 729 ;
730 [label="mse = 2.01534859405e+14\nsamples = 0.0%\nvalue = 5252027.03", fillcolor="#e5813902"] ;
728 -> 730 ;
731 [label="mse = 7.55874607639e+14\nsamples = 0.0%\nvalue = 13112500.0", fillcolor="#e5813904"] ;
721 -> 731 ;
732 [label="yearday_local <= 309.5\nmse = 7.90588748741e+13\nsamples = 0.1%\nvalue = 1984533.82", fillcolor="#e5813901"] ;
720 -> 732 ;
733 [label="yearday_local <= 237.0\nmse = 2.1361706121e+13\nsamples = 0.1%\nvalue = 711099.48", fillcolor="#e5813900"] ;
732 -> 733 ;
734 [label="mse = 6.89865090501e+13\nsamples = 0.0%\nvalue = 2099797.98", fillcolor="#e5813901"] ;
733 -> 734 ;
735 [label="yearday_local <= 280.5\nmse = 3.7908100688e+12\nsamples = 0.0%\nvalue = 225300.35", fillcolor="#e5813900"] ;
733 -> 735 ;
736 [label="mse = 0.0\nsamples = 0.0%\nvalue = 0.0", fillcolor="#e5813900"] ;
735 -> 736 ;
737 [label="mse = 1.25082461315e+13\nsamples = 0.0%\nvalue = 768192.77", fillcolor="#e5813900"] ;
735 -> 737 ;
738 [label="device_operatingSystem <= 11.5\nmse = 2.00190387107e+14\nsamples = 0.0%\nvalue = 4932727.27", fillcolor="#e5813902"] ;
732 -> 738 ;
739 [label="mse = 3.18785399638e+14\nsamples = 0.0%\nvalue = 8297021.28", fillcolor="#e5813903"] ;
738 -> 739 ;
740 [label="mse = 8.35292477683e+12\nsamples = 0.0%\nvalue = 478591.55", fillcolor="#e5813900"] ;
738 -> 740 ;
741 [label="totals_hits <= 16.5\nmse = 3.1199661559e+13\nsamples = 0.1%\nvalue = 1134753.52", fillcolor="#e5813900"] ;
719 -> 741 ;
742 [label="totals_hits <= 15.5\nmse = 9.29506132161e+12\nsamples = 0.0%\nvalue = 370836.24", fillcolor="#e5813900"] ;
741 -> 742 ;
743 [label="weekday_local <= 3.5\nmse = 116716786136.0\nsamples = 0.0%\nvalue = 35649.35", fillcolor="#e5813900"] ;
742 -> 743 ;
744 [label="mse = 280820408163.0\nsamples = 0.0%\nvalue = 87142.86", fillcolor="#e5813900"] ;
743 -> 744 ;
745 [label="mse = 0.0\nsamples = 0.0%\nvalue = 0.0", fillcolor="#e5813900"] ;
743 -> 745 ;
746 [label="mse = 1.96418981401e+13\nsamples = 0.0%\nvalue = 758947.37", fillcolor="#e5813900"] ;
742 -> 746 ;
747 [label="geoNetwork_networkDomain <= 5078.5\nmse = 5.23671887008e+13\nsamples = 0.0%\nvalue = 1914982.21", fillcolor="#e5813901"] ;
741 -> 747 ;
748 [label="weekday_local <= 3.5\nmse = 7.07737869507e+13\nsamples = 0.0%\nvalue = 2572091.84", fillcolor="#e5813901"] ;
747 -> 748 ;
749 [label="mse = 1.31940091601e+14\nsamples = 0.0%\nvalue = 4074743.59", fillcolor="#e5813901"] ;
748 -> 749 ;
750 [label="mse = 2.78626697788e+13\nsamples = 0.0%\nvalue = 1578813.56", fillcolor="#e5813901"] ;
748 -> 750 ;
751 [label="mse = 6.63219053287e+12\nsamples = 0.0%\nvalue = 399764.71", fillcolor="#e5813900"] ;
747 -> 751 ;
752 [label="yearday_local <= 329.5\nmse = 1.58169240768e+13\nsamples = 0.1%\nvalue = 566445.22", fillcolor="#e5813900"] ;
718 -> 752 ;
753 [label="device_operatingSystem <= 17.5\nmse = 9.4530607091e+12\nsamples = 0.1%\nvalue = 345302.83", fillcolor="#e5813900"] ;
752 -> 753 ;
754 [label="yearday_local <= 51.5\nmse = 2.20590592134e+12\nsamples = 0.1%\nvalue = 106099.66", fillcolor="#e5813900"] ;
753 -> 754 ;
755 [label="mse = 1.56357252862e+13\nsamples = 0.0%\nvalue = 721935.48", fillcolor="#e5813900"] ;
754 -> 755 ;
756 [label="yearday_local <= 286.5\nmse = 554048046967.0\nsamples = 0.1%\nvalue = 32673.08", fillcolor="#e5813900"] ;
754 -> 756 ;
757 [label="mse = 0.0\nsamples = 0.1%\nvalue = 0.0", fillcolor="#e5813900"] ;
756 -> 757 ;
758 [label="mse = 4.58071438606e+12\nsamples = 0.0%\nvalue = 274032.26", fillcolor="#e5813900"] ;
756 -> 758 ;
759 [label="hour_local <= 16.5\nmse = 3.4696310559e+13\nsamples = 0.0%\nvalue = 1210000.0", fillcolor="#e5813900"] ;
753 -> 759 ;
760 [label="mse = 1.23231901371e+12\nsamples = 0.0%\nvalue = 113298.97", fillcolor="#e5813900"] ;
759 -> 760 ;
761 [label="mse = 8.08293827148e+13\nsamples = 0.0%\nvalue = 2872187.5", fillcolor="#e5813901"] ;
759 -> 761 ;
762 [label="mse = 5.45756632136e+13\nsamples = 0.0%\nvalue = 1995217.39", fillcolor="#e5813901"] ;
752 -> 762 ;
763 [label="totals_hits <= 29.5\nmse = 2.83595664634e+14\nsamples = 0.5%\nvalue = 3954290.6", fillcolor="#e5813901"] ;
717 -> 763 ;
764 [label="device_operatingSystem <= 11.5\nmse = 3.18295026994e+14\nsamples = 0.4%\nvalue = 4446213.0", fillcolor="#e5813901"] ;
763 -> 764 ;
765 [label="geoNetwork_metro <= 66.5\nmse = 4.74250468916e+14\nsamples = 0.2%\nvalue = 5745222.7", fillcolor="#e5813902"] ;
764 -> 765 ;
766 [label="yearday_local <= 193.0\nmse = 9.41110292974e+14\nsamples = 0.0%\nvalue = 10586452.99", fillcolor="#e5813903"] ;
765 -> 766 ;
767 [label="mse = 1.28724515247e+15\nsamples = 0.0%\nvalue = 14997777.78", fillcolor="#e5813905"] ;
766 -> 767 ;
768 [label="mse = 6.13446467756e+14\nsamples = 0.0%\nvalue = 6805317.46", fillcolor="#e5813902"] ;
766 -> 768 ;
769 [label="hour_local <= 7.5\nmse = 3.74217810517e+14\nsamples = 0.2%\nvalue = 4766943.01", fillcolor="#e5813902"] ;
765 -> 769 ;
770 [label="hour_local <= 1.5\nmse = 3.85678338814e+12\nsamples = 0.0%\nvalue = 394966.44", fillcolor="#e5813900"] ;
769 -> 770 ;
771 [label="mse = 3.28649212457e+12\nsamples = 0.0%\nvalue = 281411.76", fillcolor="#e5813900"] ;
770 -> 771 ;
772 [label="mse = 4.57433063965e+12\nsamples = 0.0%\nvalue = 545781.25", fillcolor="#e5813900"] ;
770 -> 772 ;
773 [label="hour_local <= 10.5\nmse = 4.25669952828e+14\nsamples = 0.2%\nvalue = 5412556.99", fillcolor="#e5813902"] ;
769 -> 773 ;
774 [label="mse = 1.87498367322e+15\nsamples = 0.0%\nvalue = 11539241.38", fillcolor="#e5813904"] ;
773 -> 774 ;
775 [label="totals_pageviews <= 17.5\nmse = 1.75083525506e+14\nsamples = 0.1%\nvalue = 4384351.85", fillcolor="#e5813901"] ;
773 -> 775 ;
776 [label="device_operatingSystem <= 4.5\nmse = 6.91187802893e+13\nsamples = 0.0%\nvalue = 1507727.27", fillcolor="#e5813900"] ;
775 -> 776 ;
777 [label="mse = 2.15910414e+14\nsamples = 0.0%\nvalue = 3214000.0", fillcolor="#e5813901"] ;
776 -> 777 ;
778 [label="yearday_local <= 247.5\nmse = 1.25707442344e+13\nsamples = 0.0%\nvalue = 867875.0", fillcolor="#e5813900"] ;
776 -> 778 ;
779 [label="mse = 4.0725144806e+12\nsamples = 0.0%\nvalue = 294487.18", fillcolor="#e5813900"] ;
778 -> 779 ;
780 [label="mse = 2.00442098899e+13\nsamples = 0.0%\nvalue = 1413292.68", fillcolor="#e5813900"] ;
778 -> 780 ;
781 [label="yearday_local <= 81.0\nmse = 2.07490114277e+14\nsamples = 0.1%\nvalue = 5367049.69", fillcolor="#e5813902"] ;
775 -> 781 ;
782 [label="mse = 3.77888105673e+13\nsamples = 0.0%\nvalue = 1485135.14", fillcolor="#e5813900"] ;
781 -> 782 ;
783 [label="yearday_local <= 199.5\nmse = 2.39039478054e+14\nsamples = 0.1%\nvalue = 6175478.42", fillcolor="#e5813902"] ;
781 -> 783 ;
784 [label="hour_local <= 18.5\nmse = 4.11848492579e+14\nsamples = 0.0%\nvalue = 9717000.0", fillcolor="#e5813903"] ;
783 -> 784 ;
785 [label="mse = 5.67389045172e+14\nsamples = 0.0%\nvalue = 12822956.52", fillcolor="#e5813904"] ;
784 -> 785 ;
786 [label="mse = 1.35879875449e+14\nsamples = 0.0%\nvalue = 4954533.33", fillcolor="#e5813902"] ;
784 -> 786 ;
787 [label="totals_pageviews <= 20.5\nmse = 1.32518132355e+14\nsamples = 0.1%\nvalue = 4213702.62", fillcolor="#e5813901"] ;
783 -> 787 ;
788 [label="totals_hits <= 22.5\nmse = 1.09384354537e+14\nsamples = 0.0%\nvalue = 3196653.39", fillcolor="#e5813901"] ;
787 -> 788 ;
789 [label="mse = 1.58176020553e+14\nsamples = 0.0%\nvalue = 5738750.0", fillcolor="#e5813902"] ;
788 -> 789 ;
790 [label="yearday_local <= 257.0\nmse = 6.70585782591e+13\nsamples = 0.0%\nvalue = 1398163.27", fillcolor="#e5813900"] ;
788 -> 790 ;
791 [label="mse = 1.47890011993e+14\nsamples = 0.0%\nvalue = 2815322.58", fillcolor="#e5813901"] ;
790 -> 791 ;
792 [label="mse = 5.56575177855e+12\nsamples = 0.0%\nvalue = 364470.59", fillcolor="#e5813900"] ;
790 -> 792 ;
793 [label="mse = 1.85111649858e+14\nsamples = 0.0%\nvalue = 6988478.26", fillcolor="#e5813902"] ;
787 -> 793 ;
794 [label="yearday_local <= 333.5\nmse = 1.5732867452e+14\nsamples = 0.2%\nvalue = 3134005.81", fillcolor="#e5813901"] ;
764 -> 794 ;
795 [label="yearday_local <= 194.5\nmse = 1.18008353547e+14\nsamples = 0.2%\nvalue = 2513788.12", fillcolor="#e5813901"] ;
794 -> 795 ;
796 [label="totals_pageviews <= 20.5\nmse = 1.83536470149e+14\nsamples = 0.1%\nvalue = 3848148.73", fillcolor="#e5813901"] ;
795 -> 796 ;
797 [label="yearday_local <= 138.5\nmse = 1.29171506967e+14\nsamples = 0.1%\nvalue = 3120234.04", fillcolor="#e5813901"] ;
796 -> 797 ;
798 [label="month_local <= 1.5\nmse = 9.73347960254e+13\nsamples = 0.1%\nvalue = 2449920.63", fillcolor="#e5813901"] ;
797 -> 798 ;
799 [label="mse = 2.99139982503e+14\nsamples = 0.0%\nvalue = 4578481.01", fillcolor="#e5813901"] ;
798 -> 799 ;
800 [label="totals_hits <= 20.5\nmse = 4.25016493932e+13\nsamples = 0.0%\nvalue = 1887525.08", fillcolor="#e5813901"] ;
798 -> 800 ;
801 [label="mse = 8.99090952405e+13\nsamples = 0.0%\nvalue = 3673707.87", fillcolor="#e5813901"] ;
800 -> 801 ;
802 [label="totals_hits <= 23.5\nmse = 2.04847287732e+13\nsamples = 0.0%\nvalue = 1130523.81", fillcolor="#e5813900"] ;
800 -> 802 ;
803 [label="mse = 2.8461217021e+13\nsamples = 0.0%\nvalue = 1696068.38", fillcolor="#e5813901"] ;
802 -> 803 ;
804 [label="mse = 9.54119153659e+12\nsamples = 0.0%\nvalue = 419032.26", fillcolor="#e5813900"] ;
802 -> 804 ;
805 [label="mse = 2.50547600662e+14\nsamples = 0.0%\nvalue = 5874347.83", fillcolor="#e5813902"] ;
797 -> 805 ;
806 [label="device_browser <= 15.5\nmse = 3.35264817284e+14\nsamples = 0.0%\nvalue = 5960000.0", fillcolor="#e5813902"] ;
796 -> 806 ;
807 [label="mse = 4.49987332426e+14\nsamples = 0.0%\nvalue = 8282380.95", fillcolor="#e5813903"] ;
806 -> 807 ;
808 [label="mse = 1.99654029717e+14\nsamples = 0.0%\nvalue = 3458974.36", fillcolor="#e5813901"] ;
806 -> 808 ;
809 [label="totals_hits <= 26.5\nmse = 4.68400577218e+13\nsamples = 0.1%\nvalue = 1140309.45", fillcolor="#e5813900"] ;
795 -> 809 ;
810 [label="totals_hits <= 24.5\nmse = 5.82811315973e+13\nsamples = 0.1%\nvalue = 1428877.55", fillcolor="#e5813900"] ;
809 -> 810 ;
811 [label="totals_hits <= 20.5\nmse = 3.16349822917e+13\nsamples = 0.1%\nvalue = 1160000.0", fillcolor="#e5813900"] ;
810 -> 811 ;
812 [label="mse = 6.14655547264e+13\nsamples = 0.0%\nvalue = 2151440.0", fillcolor="#e5813901"] ;
811 -> 812 ;
813 [label="yearday_local <= 239.5\nmse = 1.65346328677e+13\nsamples = 0.0%\nvalue = 681505.79", fillcolor="#e5813900"] ;
811 -> 813 ;
814 [label="mse = 5.37288089844e+13\nsamples = 0.0%\nvalue = 2024375.0", fillcolor="#e5813901"] ;
813 -> 814 ;
815 [label="hour_local <= 13.5\nmse = 3.54121325444e+12\nsamples = 0.0%\nvalue = 240769.23", fillcolor="#e5813900"] ;
813 -> 815 ;
816 [label="mse = 8.63564630178e+12\nsamples = 0.0%\nvalue = 601923.08", fillcolor="#e5813900"] ;
815 -> 816 ;
817 [label="mse = 0.0\nsamples = 0.0%\nvalue = 0.0", fillcolor="#e5813900"] ;
815 -> 817 ;
818 [label="mse = 1.53599911258e+14\nsamples = 0.0%\nvalue = 2402924.53", fillcolor="#e5813901"] ;
810 -> 818 ;
819 [label="mse = 0.0\nsamples = 0.0%\nvalue = 0.0", fillcolor="#e5813900"] ;
809 -> 819 ;
820 [label="mse = 4.90582697704e+14\nsamples = 0.0%\nvalue = 8988484.85", fillcolor="#e5813903"] ;
794 -> 820 ;
821 [label="geoNetwork_networkDomain <= 21938.0\nmse = 5.61871014772e+13\nsamples = 0.1%\nvalue = 885315.32", fillcolor="#e5813900"] ;
763 -> 821 ;
822 [label="yearday_local <= 175.0\nmse = 1.68431862926e+13\nsamples = 0.1%\nvalue = 327973.33", fillcolor="#e5813900"] ;
821 -> 822 ;
823 [label="mse = 4.42382727583e+13\nsamples = 0.0%\nvalue = 791970.8", fillcolor="#e5813900"] ;
822 -> 823 ;
824 [label="yearday_local <= 235.5\nmse = 878478633218.0\nsamples = 0.0%\nvalue = 60882.35", fillcolor="#e5813900"] ;
822 -> 824 ;
825 [label="mse = 2.69134214876e+12\nsamples = 0.0%\nvalue = 188181.82", fillcolor="#e5813900"] ;
824 -> 825 ;
826 [label="mse = 0.0\nsamples = 0.0%\nvalue = 0.0", fillcolor="#e5813900"] ;
824 -> 826 ;
827 [label="mse = 2.59149482546e+14\nsamples = 0.0%\nvalue = 3914347.83", fillcolor="#e5813901"] ;
821 -> 827 ;
828 [label="geoNetwork_metro <= 61.0\nmse = 1.74276909382e+15\nsamples = 0.4%\nvalue = 10395583.74", fillcolor="#e5813903"] ;
716 -> 828 ;
