digraph Tree {
node [shape=box, style="filled, rounded", color="black", fontname=helvetica] ;
graph [ranksep=equally, splines=polyline] ;
edge [fontname=helvetica] ;
0 [label="totals_pageviews <= 33.5\nmse = 3.43954529499e+15\nsamples = 100.0%\nvalue = 1746077.11", fillcolor="#e5813900"] ;
1 [label="totals_pageviews <= 19.5\nmse = 4.90777449773e+14\nsamples = 99.0%\nvalue = 926204.48", fillcolor="#e5813900"] ;
0 -> 1 [labeldistance=2.5, labelangle=45, headlabel="True"] ;
2 [label="visitNumber <= 304.5\nmse = 2.28165554526e+14\nsamples = 97.0%\nvalue = 424448.17", fillcolor="#e5813900"] ;
1 -> 2 ;
3 [label="totals_pageviews <= 12.5\nmse = 1.73653487474e+14\nsamples = 96.9%\nvalue = 402167.75", fillcolor="#e5813900"] ;
2 -> 3 ;
4 [label="totals_pageviews <= 9.5\nmse = 6.16514603342e+13\nsamples = 93.7%\nvalue = 125522.91", fillcolor="#e5813900"] ;
3 -> 4 ;
5 [label="totals_pageviews <= 7.5\nmse = 1.38494050668e+13\nsamples = 90.8%\nvalue = 31568.46", fillcolor="#e5813900"] ;
4 -> 5 ;
6 [label="totals_pageviews <= 6.5\nmse = 642629037966.0\nsamples = 87.7%\nvalue = 4902.87", fillcolor="#e5813900"] ;
5 -> 6 ;
7 [label="totals_hits <= 9.5\nmse = 545083914411.0\nsamples = 85.6%\nvalue = 3232.65", fillcolor="#e5813900"] ;
6 -> 7 ;
8 [label="totals_newVisits <= 0.5\nmse = 217613745424.0\nsamples = 85.3%\nvalue = 2487.6", fillcolor="#e5813900"] ;
7 -> 8 ;
9 [label="totals_pageviews <= 3.5\nmse = 1.06379861759e+12\nsamples = 17.3%\nvalue = 11864.33", fillcolor="#e5813900"] ;
8 -> 9 ;
10 [label="totals_pageviews <= 2.5\nmse = 207812877102.0\nsamples = 14.3%\nvalue = 3691.36", fillcolor="#e5813900"] ;
9 -> 10 ;
11 [label="yearday_local <= 41.5\nmse = 41234702643.7\nsamples = 12.4%\nvalue = 1213.54", fillcolor="#e5813900"] ;
10 -> 11 ;
12 [label="yearday_local <= 40.5\nmse = 390256963049.0\nsamples = 1.3%\nvalue = 11488.79", fillcolor="#e5813900"] ;
11 -> 12 ;
13 [label="mse = 0.0\nsamples = 1.3%\nvalue = 0.0", fillcolor="#e5813900"] ;
12 -> 13 ;
14 [label="trafficSource_source <= 27.0\nmse = 1.51899359289e+13\nsamples = 0.0%\nvalue = 453066.67", fillcolor="#e5813900"] ;
12 -> 14 ;
15 [label="geoNetwork_continent <= 3.5\nmse = 8.010317775e+13\nsamples = 0.0%\nvalue = 2548500.0", fillcolor="#e5813900"] ;
14 -> 15 ;
16 [label="mse = 0.0\nsamples = 0.0%\nvalue = 0.0", fillcolor="#e5813900"] ;
15 -> 16 ;
17 [label="totals_pageviews <= 1.5\nmse = 2.56586755556e+14\nsamples = 0.0%\nvalue = 11326666.67", fillcolor="#e5813900"] ;
15 -> 17 ;
18 [label="mse = 0.0\nsamples = 0.0%\nvalue = 0.0", fillcolor="#e5813900"] ;
17 -> 18 ;
19 [label="mse = 0.0\nsamples = 0.0%\nvalue = 33980000.0", fillcolor="#e5813900"] ;
17 -> 19 ;
20 [label="mse = 0.0\nsamples = 0.0%\nvalue = 0.0", fillcolor="#e5813900"] ;
14 -> 20 ;
21 [label="mse = 0.0\nsamples = 11.1%\nvalue = 0.0", fillcolor="#e5813900"] ;
11 -> 21 ;
22 [label="hour_local <= 0.5\nmse = 1.32025334834e+12\nsamples = 1.9%\nvalue = 20243.34", fillcolor="#e5813900"] ;
10 -> 22 ;
23 [label="weekday_local <= 1.5\nmse = 8.95485155955e+12\nsamples = 0.0%\nvalue = 313695.65", fillcolor="#e5813900"] ;
22 -> 23 ;
24 [label="trafficSource_source <= 208.0\nmse = 5.778240975e+13\nsamples = 0.0%\nvalue = 2164500.0", fillcolor="#e5813900"] ;
23 -> 24 ;
25 [label="mse = 0.0\nsamples = 0.0%\nvalue = 0.0", fillcolor="#e5813900"] ;
24 -> 25 ;
26 [label="visitNumber <= 3.0\nmse = 1.99895904e+14\nsamples = 0.0%\nvalue = 17316000.0", fillcolor="#e5813900"] ;
24 -> 26 ;
27 [label="yearday_local <= 138.5\nmse = 1.56168675e+14\nsamples = 0.0%\nvalue = 21645000.0", fillcolor="#e5813900"] ;
26 -> 27 ;
28 [label="mse = 0.0\nsamples = 0.0%\nvalue = 0.0", fillcolor="#e5813900"] ;
27 -> 28 ;
29 [label="mse = 0.0\nsamples = 0.0%\nvalue = 28860000.0", fillcolor="#e5813900"] ;
27 -> 29 ;
30 [label="mse = 0.0\nsamples = 0.0%\nvalue = 0.0", fillcolor="#e5813900"] ;
26 -> 30 ;
31 [label="mse = 0.0\nsamples = 0.0%\nvalue = 0.0", fillcolor="#e5813900"] ;
23 -> 31 ;
32 [label="trafficSource_isTrueDirect <= 0.5\nmse = 1.14695064035e+12\nsamples = 1.8%\nvalue = 13658.02", fillcolor="#e5813900"] ;
22 -> 32 ;
33 [label="hour_local <= 13.5\nmse = 5.830012623e+12\nsamples = 0.4%\nvalue = 69470.64", fillcolor="#e5813900"] ;
32 -> 33 ;
34 [label="hour_local <= 12.5\nmse = 1.39137920078e+13\nsamples = 0.2%\nvalue = 165988.14", fillcolor="#e5813900"] ;
33 -> 34 ;
35 [label="mse = 0.0\nsamples = 0.1%\nvalue = 0.0", fillcolor="#e5813900"] ;
34 -> 35 ;
36 [label="yearday_local <= 188.5\nmse = 7.16099292202e+13\nsamples = 0.0%\nvalue = 861435.9", fillcolor="#e5813900"] ;
34 -> 36 ;
37 [label="yearday_local <= 185.0\nmse = 1.46898471978e+14\nsamples = 0.0%\nvalue = 1787021.28", fillcolor="#e5813900"] ;
36 -> 37 ;
38 [label="mse = 0.0\nsamples = 0.0%\nvalue = 0.0", fillcolor="#e5813900"] ;
37 -> 38 ;
39 [label="trafficSource_source <= 208.0\nmse = 1.56762668889e+15\nsamples = 0.0%\nvalue = 55993333.33", fillcolor="#e5813901"] ;
37 -> 39 ;
40 [label="mse = 0.0\nsamples = 0.0%\nvalue = 83990000.0", fillcolor="#e5813901"] ;
39 -> 40 ;
41 [label="mse = 0.0\nsamples = 0.0%\nvalue = 0.0", fillcolor="#e5813900"] ;
39 -> 41 ;
42 [label="mse = 0.0\nsamples = 0.0%\nvalue = 0.0", fillcolor="#e5813900"] ;
36 -> 42 ;
43 [label="mse = 0.0\nsamples = 0.2%\nvalue = 0.0", fillcolor="#e5813900"] ;
33 -> 43 ;
44 [label="mse = 0.0\nsamples = 1.5%\nvalue = 0.0", fillcolor="#e5813900"] ;
32 -> 44 ;
45 [label="trafficSource_source <= 364.0\nmse = 5.11158759014e+12\nsamples = 3.0%\nvalue = 50530.03", fillcolor="#e5813900"] ;
9 -> 45 ;
46 [label="hour_local <= 18.5\nmse = 3.39391090803e+12\nsamples = 3.0%\nvalue = 41957.49", fillcolor="#e5813900"] ;
45 -> 46 ;
47 [label="visitNumber <= 76.5\nmse = 1.1723190811e+12\nsamples = 2.4%\nvalue = 21287.38", fillcolor="#e5813900"] ;
46 -> 47 ;
48 [label="trafficSource_source <= 0.5\nmse = 1.01381303788e+12\nsamples = 2.4%\nvalue = 18267.8", fillcolor="#e5813900"] ;
47 -> 48 ;
49 [label="visitNumber <= 2.5\nmse = 4.42234390701e+12\nsamples = 0.4%\nvalue = 60872.23", fillcolor="#e5813900"] ;
48 -> 49 ;
50 [label="totals_pageviews <= 4.5\nmse = 1.09304732824e+13\nsamples = 0.2%\nvalue = 150640.81", fillcolor="#e5813900"] ;
49 -> 50 ;
51 [label="mse = 0.0\nsamples = 0.1%\nvalue = 0.0", fillcolor="#e5813900"] ;
50 -> 51 ;
52 [label="totals_hits <= 5.5\nmse = 2.08693095224e+13\nsamples = 0.1%\nvalue = 288161.29", fillcolor="#e5813900"] ;
50 -> 52 ;
53 [label="hour_local <= 13.5\nmse = 5.97301976506e+13\nsamples = 0.0%\nvalue = 830976.74", fillcolor="#e5813900"] ;
52 -> 53 ;
54 [label="hour_local <= 11.5\nmse = 1.08697773102e+14\nsamples = 0.0%\nvalue = 1527008.55", fillcolor="#e5813900"] ;
53 -> 54 ;
55 [label="mse = 0.0\nsamples = 0.0%\nvalue = 0.0", fillcolor="#e5813900"] ;
54 -> 55 ;
56 [label="weekday_local <= 3.5\nmse = 3.97549164889e+14\nsamples = 0.0%\nvalue = 5955333.33", fillcolor="#e5813900"] ;
54 -> 56 ;
57 [label="weekday_local <= 2.5\nmse = 6.5369666436e+14\nsamples = 0.0%\nvalue = 10509411.76", fillcolor="#e5813900"] ;
56 -> 57 ;
58 [label="mse = 0.0\nsamples = 0.0%\nvalue = 0.0", fillcolor="#e5813900"] ;
57 -> 58 ;
59 [label="month_local <= 11.5\nmse = 1.20436302041e+15\nsamples = 0.0%\nvalue = 25522857.14", fillcolor="#e5813900"] ;
57 -> 59 ;
60 [label="geoNetwork_continent <= 3.0\nmse = 1.321315136e+15\nsamples = 0.0%\nvalue = 35732000.0", fillcolor="#e5813900"] ;
59 -> 60 ;
61 [label="month_local <= 2.5\nmse = 1.252651475e+15\nsamples = 0.0%\nvalue = 44665000.0", fillcolor="#e5813900"] ;
60 -> 61 ;
62 [label="mse = 0.0\nsamples = 0.0%\nvalue = 0.0", fillcolor="#e5813900"] ;
61 -> 62 ;
63 [label="hour_local <= 12.5\nmse = 7.83552088889e+14\nsamples = 0.0%\nvalue = 59553333.33", fillcolor="#e5813901"] ;
61 -> 63 ;
64 [label="mse = 0.0\nsamples = 0.0%\nvalue = 39760000.0", fillcolor="#e5813900"] ;
63 -> 64 ;
65 [label="mse = 0.0\nsamples = 0.0%\nvalue = 99140000.0", fillcolor="#e5813901"] ;
63 -> 65 ;
66 [label="mse = 0.0\nsamples = 0.0%\nvalue = 0.0", fillcolor="#e5813900"] ;
60 -> 66 ;
67 [label="mse = 0.0\nsamples = 0.0%\nvalue = 0.0", fillcolor="#e5813900"] ;
59 -> 67 ;
68 [label="mse = 0.0\nsamples = 0.0%\nvalue = 0.0", fillcolor="#e5813900"] ;
56 -> 68 ;
69 [label="mse = 0.0\nsamples = 0.0%\nvalue = 0.0", fillcolor="#e5813900"] ;
53 -> 69 ;
70 [label="mse = 0.0\nsamples = 0.1%\nvalue = 0.0", fillcolor="#e5813900"] ;
52 -> 70 ;
71 [label="mse = 0.0\nsamples = 0.3%\nvalue = 0.0", fillcolor="#e5813900"] ;
49 -> 71 ;
72 [label="hour_local <= 0.5\nmse = 250464109858.0\nsamples = 2.0%\nvalue = 8732.65", fillcolor="#e5813900"] ;
48 -> 72 ;
73 [label="trafficSource_source <= 265.0\nmse = 4.48506980443e+12\nsamples = 0.1%\nvalue = 105495.05", fillcolor="#e5813900"] ;
72 -> 73 ;
74 [label="mse = 0.0\nsamples = 0.0%\nvalue = 0.0", fillcolor="#e5813900"] ;
73 -> 74 ;
75 [label="weekday_local <= 5.5\nmse = 1.93218551046e+13\nsamples = 0.0%\nvalue = 458279.57", fillcolor="#e5813900"] ;
73 -> 75 ;
76 [label="mse = 0.0\nsamples = 0.0%\nvalue = 0.0", fillcolor="#e5813900"] ;
75 -> 76 ;
77 [label="totals_hits <= 4.5\nmse = 1.00565503114e+14\nsamples = 0.0%\nvalue = 2507058.82", fillcolor="#e5813900"] ;
75 -> 77 ;
78 [label="month_local <= 5.5\nmse = 3.40587075e+14\nsamples = 0.0%\nvalue = 10655000.0", fillcolor="#e5813900"] ;
77 -> 78 ;
79 [label="mse = 0.0\nsamples = 0.0%\nvalue = 0.0", fillcolor="#e5813900"] ;
78 -> 79 ;
80 [label="mse = 0.0\nsamples = 0.0%\nvalue = 42620000.0", fillcolor="#e5813900"] ;
78 -> 80 ;
81 [label="mse = 0.0\nsamples = 0.0%\nvalue = 0.0", fillcolor="#e5813900"] ;
77 -> 81 ;
82 [label="hour_local <= 11.5\nmse = 115555882326.0\nsamples = 1.9%\nvalue = 5656.96", fillcolor="#e5813900"] ;
72 -> 82 ;
83 [label="weekday_local <= 3.5\nmse = 319130037335.0\nsamples = 0.7%\nvalue = 15630.43", fillcolor="#e5813900"] ;
82 -> 83 ;
84 [label="month_local <= 7.5\nmse = 612000542327.0\nsamples = 0.4%\nvalue = 29995.83", fillcolor="#e5813900"] ;
83 -> 84 ;
85 [label="yearday_local <= 209.5\nmse = 1.16087609912e+12\nsamples = 0.2%\nvalue = 56973.06", fillcolor="#e5813900"] ;
84 -> 85 ;
86 [label="weekday_local <= 2.5\nmse = 361289032721.0\nsamples = 0.2%\nvalue = 32402.6", fillcolor="#e5813900"] ;
85 -> 86 ;
87 [label="mse = 0.0\nsamples = 0.1%\nvalue = 0.0", fillcolor="#e5813900"] ;
86 -> 87 ;
88 [label="yearday_local <= 147.5\nmse = 1.09788397441e+12\nsamples = 0.1%\nvalue = 99057.07", fillcolor="#e5813900"] ;
86 -> 88 ;
89 [label="hour_local <= 1.5\nmse = 60000647689.0\nsamples = 0.0%\nvalue = 15133.08", fillcolor="#e5813900"] ;
88 -> 89 ;
90 [label="trafficSource_source <= 283.5\nmse = 1.30912396694e+12\nsamples = 0.0%\nvalue = 361818.18", fillcolor="#e5813900"] ;
89 -> 90 ;
91 [label="mse = 0.0\nsamples = 0.0%\nvalue = 0.0", fillcolor="#e5813900"] ;
90 -> 91 ;
92 [label="mse = 0.0\nsamples = 0.0%\nvalue = 3980000.0", fillcolor="#e5813900"] ;
90 -> 92 ;
93 [label="mse = 0.0\nsamples = 0.0%\nvalue = 0.0", fillcolor="#e5813900"] ;
89 -> 93 ;
94 [label="yearday_local <= 154.5\nmse = 3.00953491837e+12\nsamples = 0.0%\nvalue = 256714.29", fillcolor="#e5813900"] ;
88 -> 94 ;
95 [label="visitNumber <= 2.5\nmse = 1.62783062382e+13\nsamples = 0.0%\nvalue = 1562608.7", fillcolor="#e5813900"] ;
94 -> 95 ;
96 [label="hour_local <= 10.5\nmse = 3.58801e+13\nsamples = 0.0%\nvalue = 5990000.0", fillcolor="#e5813900"] ;
95 -> 96 ;
97 [label="mse = 0.0\nsamples = 0.0%\nvalue = 11980000.0", fillcolor="#e5813900"] ;
96 -> 97 ;
98 [label="mse = 0.0\nsamples = 0.0%\nvalue = 0.0", fillcolor="#e5813900"] ;
96 -> 98 ;
99 [label="mse = 0.0\nsamples = 0.0%\nvalue = 0.0", fillcolor="#e5813900"] ;
95 -> 99 ;
100 [label="mse = 0.0\nsamples = 0.0%\nvalue = 0.0", fillcolor="#e5813900"] ;
94 -> 100 ;
101 [label="hour_local <= 10.5\nmse = 3.2954324e+13\nsamples = 0.0%\nvalue = 1066000.0", fillcolor="#e5813900"] ;
85 -> 101 ;
102 [label="mse = 0.0\nsamples = 0.0%\nvalue = 0.0", fillcolor="#e5813900"] ;
101 -> 102 ;
103 [label="totals_hits <= 4.5\nmse = 1.25231069388e+14\nsamples = 0.0%\nvalue = 4568571.43", fillcolor="#e5813900"] ;
101 -> 103 ;
104 [label="trafficSource_source <= 300.5\nmse = 2.556801e+14\nsamples = 0.0%\nvalue = 15990000.0", fillcolor="#e5813900"] ;
103 -> 104 ;
105 [label="mse = 0.0\nsamples = 0.0%\nvalue = 31980000.0", fillcolor="#e5813900"] ;
104 -> 105 ;
106 [label="mse = 0.0\nsamples = 0.0%\nvalue = 0.0", fillcolor="#e5813900"] ;
104 -> 106 ;
107 [label="mse = 0.0\nsamples = 0.0%\nvalue = 0.0", fillcolor="#e5813900"] ;
103 -> 107 ;
108 [label="mse = 0.0\nsamples = 0.2%\nvalue = 0.0", fillcolor="#e5813900"] ;
84 -> 108 ;
109 [label="mse = 0.0\nsamples = 0.3%\nvalue = 0.0", fillcolor="#e5813900"] ;
83 -> 109 ;
110 [label="mse = 0.0\nsamples = 1.2%\nvalue = 0.0", fillcolor="#e5813900"] ;
82 -> 110 ;
111 [label="visitNumber <= 77.5\nmse = 1.37694987748e+13\nsamples = 0.0%\nvalue = 262388.06", fillcolor="#e5813900"] ;
47 -> 111 ;
112 [label="weekday_local <= 1.5\nmse = 3.40592767347e+14\nsamples = 0.0%\nvalue = 7534285.71", fillcolor="#e5813900"] ;
111 -> 112 ;
113 [label="trafficSource_source <= 74.5\nmse = 6.953769e+14\nsamples = 0.0%\nvalue = 26370000.0", fillcolor="#e5813900"] ;
112 -> 113 ;
114 [label="mse = 0.0\nsamples = 0.0%\nvalue = 0.0", fillcolor="#e5813900"] ;
113 -> 114 ;
115 [label="mse = 0.0\nsamples = 0.0%\nvalue = 52740000.0", fillcolor="#e5813901"] ;
113 -> 115 ;
116 [label="mse = 0.0\nsamples = 0.0%\nvalue = 0.0", fillcolor="#e5813900"] ;
112 -> 116 ;
117 [label="mse = 0.0\nsamples = 0.0%\nvalue = 0.0", fillcolor="#e5813900"] ;
111 -> 117 ;
118 [label="hour_local <= 19.5\nmse = 1.29070113992e+13\nsamples = 0.6%\nvalue = 130559.22", fillcolor="#e5813900"] ;
46 -> 118 ;
119 [label="trafficSource_isTrueDirect <= 0.5\nmse = 5.90992720059e+13\nsamples = 0.1%\nvalue = 600667.48", fillcolor="#e5813900"] ;
118 -> 119 ;
120 [label="totals_hits <= 4.5\nmse = 2.79729812543e+14\nsamples = 0.0%\nvalue = 2911470.59", fillcolor="#e5813900"] ;
119 -> 120 ;
121 [label="yearday_local <= 168.5\nmse = 8.09836371901e+14\nsamples = 0.0%\nvalue = 8999090.91", fillcolor="#e5813900"] ;
120 -> 121 ;
122 [label="month_local <= 5.5\nmse = 1.52203714571e+15\nsamples = 0.0%\nvalue = 19036538.46", fillcolor="#e5813900"] ;
121 -> 122 ;
123 [label="mse = 0.0\nsamples = 0.0%\nvalue = 0.0", fillcolor="#e5813900"] ;
122 -> 123 ;
124 [label="trafficSource_source <= 208.0\nmse = 1.99980002041e+15\nsamples = 0.0%\nvalue = 70707142.86", fillcolor="#e5813901"] ;
122 -> 124 ;
125 [label="mse = 0.0\nsamples = 0.0%\nvalue = 98990000.0", fillcolor="#e5813901"] ;
124 -> 125 ;
126 [label="mse = 0.0\nsamples = 0.0%\nvalue = 0.0", fillcolor="#e5813900"] ;
124 -> 126 ;
127 [label="mse = 0.0\nsamples = 0.0%\nvalue = 0.0", fillcolor="#e5813900"] ;
121 -> 127 ;
128 [label="mse = 0.0\nsamples = 0.0%\nvalue = 0.0", fillcolor="#e5813900"] ;
120 -> 128 ;
129 [label="mse = 0.0\nsamples = 0.1%\nvalue = 0.0", fillcolor="#e5813900"] ;
119 -> 129 ;
130 [label="mse = 0.0\nsamples = 0.4%\nvalue = 0.0", fillcolor="#e5813900"] ;
118 -> 130 ;
131 [label="hour_local <= 2.5\nmse = 9.71849231289e+13\nsamples = 0.1%\nvalue = 511126.01", fillcolor="#e5813900"] ;
45 -> 131 ;
132 [label="trafficSource_source <= 376.5\nmse = 1.51161303403e+15\nsamples = 0.0%\nvalue = 8289130.43", fillcolor="#e5813900"] ;
131 -> 132 ;
133 [label="geoNetwork_continent <= 2.5\nmse = 9.086855625e+15\nsamples = 0.0%\nvalue = 95325000.0", fillcolor="#e5813901"] ;
132 -> 133 ;
134 [label="mse = 0.0\nsamples = 0.0%\nvalue = 190650000.0", fillcolor="#e5813902"] ;
133 -> 134 ;
135 [label="mse = 0.0\nsamples = 0.0%\nvalue = 0.0", fillcolor="#e5813900"] ;
133 -> 135 ;
136 [label="mse = 0.0\nsamples = 0.0%\nvalue = 0.0", fillcolor="#e5813900"] ;
132 -> 136 ;
137 [label="mse = 0.0\nsamples = 0.1%\nvalue = 0.0", fillcolor="#e5813900"] ;
131 -> 137 ;
138 [label="hour_local <= 3.5\nmse = 2496690551.77\nsamples = 68.0%\nvalue = 104.16", fillcolor="#e5813900"] ;
8 -> 138 ;
139 [label="weekday_local <= 1.5\nmse = 30219370873.1\nsamples = 5.6%\nvalue = 1260.78", fillcolor="#e5813900"] ;
138 -> 139 ;
140 [label="yearday_local <= 322.5\nmse = 222482406112.0\nsamples = 0.8%\nvalue = 9285.3", fillcolor="#e5813900"] ;
139 -> 140 ;
141 [label="mse = 0.0\nsamples = 0.7%\nvalue = 0.0", fillcolor="#e5813900"] ;
140 -> 141 ;
142 [label="hour_local <= 2.5\nmse = 1.4346e+12\nsamples = 0.1%\nvalue = 60000.0", fillcolor="#e5813900"] ;
140 -> 142 ;
143 [label="mse = 0.0\nsamples = 0.1%\nvalue = 0.0", fillcolor="#e5813900"] ;
142 -> 143 ;
144 [label="geoNetwork_country <= 211.5\nmse = 7.97842947828e+12\nsamples = 0.0%\nvalue = 337605.63", fillcolor="#e5813900"] ;
142 -> 144 ;
145 [label="mse = 0.0\nsamples = 0.0%\nvalue = 0.0", fillcolor="#e5813900"] ;
144 -> 145 ;
146 [label="yearday_local <= 329.5\nmse = 2.60571836735e+13\nsamples = 0.0%\nvalue = 1141428.57", fillcolor="#e5813900"] ;
144 -> 146 ;
147 [label="totals_hits <= 1.5\nmse = 1.0773016875e+14\nsamples = 0.0%\nvalue = 5992500.0", fillcolor="#e5813900"] ;
146 -> 147 ;
148 [label="mse = 0.0\nsamples = 0.0%\nvalue = 0.0", fillcolor="#e5813900"] ;
147 -> 148 ;
149 [label="totals_hits <= 2.5\nmse = 1.43640225e+14\nsamples = 0.0%\nvalue = 11985000.0", fillcolor="#e5813900"] ;
147 -> 149 ;
150 [label="mse = 0.0\nsamples = 0.0%\nvalue = 23970000.0", fillcolor="#e5813900"] ;
149 -> 150 ;
151 [label="mse = 0.0\nsamples = 0.0%\nvalue = 0.0", fillcolor="#e5813900"] ;
149 -> 151 ;
152 [label="mse = 0.0\nsamples = 0.0%\nvalue = 0.0", fillcolor="#e5813900"] ;
146 -> 152 ;
153 [label="mse = 0.0\nsamples = 4.8%\nvalue = 0.0", fillcolor="#e5813900"] ;
139 -> 153 ;
154 [label="mse = 0.0\nsamples = 62.4%\nvalue = 0.0", fillcolor="#e5813900"] ;
138 -> 154 ;
155 [label="visitNumber <= 5.5\nmse = 1.05214545834e+14\nsamples = 0.3%\nvalue = 241501.39", fillcolor="#e5813900"] ;
7 -> 155 ;
156 [label="mse = 0.0\nsamples = 0.3%\nvalue = 0.0", fillcolor="#e5813900"] ;
155 -> 156 ;
157 [label="yearday_local <= 310.0\nmse = 1.66668988544e+15\nsamples = 0.0%\nvalue = 3857610.62", fillcolor="#e5813900"] ;
155 -> 157 ;
158 [label="mse = 0.0\nsamples = 0.0%\nvalue = 0.0", fillcolor="#e5813900"] ;
157 -> 158 ;
159 [label="geoNetwork_country <= 120.5\nmse = 1.4515227841e+16\nsamples = 0.0%\nvalue = 36325833.33", fillcolor="#e5813900"] ;
157 -> 159 ;
160 [label="mse = 0.0\nsamples = 0.0%\nvalue = 435910000.0", fillcolor="#e5813905"] ;
159 -> 160 ;
161 [label="mse = 0.0\nsamples = 0.0%\nvalue = 0.0", fillcolor="#e5813900"] ;
159 -> 161 ;
162 [label="visitNumber <= 2.5\nmse = 4.47749202983e+12\nsamples = 2.2%\nvalue = 70641.65", fillcolor="#e5813900"] ;
6 -> 162 ;
163 [label="yearday_local <= 7.5\nmse = 684165650095.0\nsamples = 1.8%\nvalue = 17437.89", fillcolor="#e5813900"] ;
162 -> 163 ;
164 [label="hour_local <= 4.0\nmse = 2.21424135725e+13\nsamples = 0.0%\nvalue = 463653.85", fillcolor="#e5813900"] ;
163 -> 164 ;
165 [label="trafficSource_source <= 208.0\nmse = 1.65100714793e+14\nsamples = 0.0%\nvalue = 3709230.77", fillcolor="#e5813900"] ;
164 -> 165 ;
166 [label="mse = 0.0\nsamples = 0.0%\nvalue = 0.0", fillcolor="#e5813900"] ;
165 -> 166 ;
167 [label="hour_local <= 2.0\nmse = 5.16704088889e+14\nsamples = 0.0%\nvalue = 32146666.67", fillcolor="#e5813900"] ;
165 -> 167 ;
168 [label="mse = 0.0\nsamples = 0.0%\nvalue = 0.0", fillcolor="#e5813900"] ;
167 -> 168 ;
169 [label="mse = 0.0\nsamples = 0.0%\nvalue = 48220000.0", fillcolor="#e5813901"] ;
167 -> 169 ;
170 [label="mse = 0.0\nsamples = 0.0%\nvalue = 0.0", fillcolor="#e5813900"] ;
164 -> 170 ;
171 [label="hour_local <= 22.5\nmse = 308367111090.0\nsamples = 1.8%\nvalue = 9696.39", fillcolor="#e5813900"] ;
163 -> 171 ;
172 [label="weekday_local <= 6.5\nmse = 6219509451.93\nsamples = 1.7%\nvalue = 1041.98", fillcolor="#e5813900"] ;
171 -> 172 ;
173 [label="mse = 0.0\nsamples = 1.5%\nvalue = 0.0", fillcolor="#e5813900"] ;
172 -> 173 ;
174 [label="trafficSource_source <= 27.0\nmse = 61396716398.1\nsamples = 0.2%\nvalue = 10301.98", fillcolor="#e5813900"] ;
172 -> 174 ;
175 [label="hour_local <= 10.5\nmse = 395960005050.0\nsamples = 0.0%\nvalue = 67078.65", fillcolor="#e5813900"] ;
174 -> 175 ;
176 [label="hour_local <= 9.5\nmse = 1.51363822222e+12\nsamples = 0.0%\nvalue = 265333.33", fillcolor="#e5813900"] ;
175 -> 176 ;
177 [label="mse = 0.0\nsamples = 0.0%\nvalue = 0.0", fillcolor="#e5813900"] ;
176 -> 177 ;
178 [label="yearday_local <= 197.0\nmse = 4.950125e+12\nsamples = 0.0%\nvalue = 995000.0", fillcolor="#e5813900"] ;
176 -> 178 ;
179 [label="mse = 0.0\nsamples = 0.0%\nvalue = 0.0", fillcolor="#e5813900"] ;
178 -> 179 ;
180 [label="yearday_local <= 268.0\nmse = 7.9202e+12\nsamples = 0.0%\nvalue = 3980000.0", fillcolor="#e5813900"] ;
178 -> 180 ;
181 [label="mse = 0.0\nsamples = 0.0%\nvalue = 5970000.0", fillcolor="#e5813900"] ;
180 -> 181 ;
182 [label="mse = 0.0\nsamples = 0.0%\nvalue = 0.0", fillcolor="#e5813900"] ;
180 -> 182 ;
183 [label="mse = 0.0\nsamples = 0.0%\nvalue = 0.0", fillcolor="#e5813900"] ;
175 -> 183 ;
184 [label="mse = 0.0\nsamples = 0.1%\nvalue = 0.0", fillcolor="#e5813900"] ;
174 -> 184 ;
185 [label="trafficSource_source <= 27.0\nmse = 6.80439492666e+12\nsamples = 0.1%\nvalue = 196811.32", fillcolor="#e5813900"] ;
171 -> 185 ;
186 [label="geoNetwork_country <= 211.5\nmse = 3.62338949729e+13\nsamples = 0.0%\nvalue = 1075360.82", fillcolor="#e5813900"] ;
185 -> 186 ;
187 [label="mse = 0.0\nsamples = 0.0%\nvalue = 0.0", fillcolor="#e5813900"] ;
186 -> 187 ;
188 [label="yearday_local <= 147.0\nmse = 9.00753804237e+13\nsamples = 0.0%\nvalue = 2819189.19", fillcolor="#e5813900"] ;
186 -> 188 ;
189 [label="month_local <= 4.5\nmse = 2.686562e+14\nsamples = 0.0%\nvalue = 11590000.0", fillcolor="#e5813900"] ;
188 -> 189 ;
190 [label="mse = 0.0\nsamples = 0.0%\nvalue = 0.0", fillcolor="#e5813900"] ;
189 -> 190 ;
191 [label="mse = 0.0\nsamples = 0.0%\nvalue = 34770000.0", fillcolor="#e5813900"] ;
189 -> 191 ;
192 [label="mse = 0.0\nsamples = 0.0%\nvalue = 0.0", fillcolor="#e5813900"] ;
188 -> 192 ;
193 [label="mse = 0.0\nsamples = 0.1%\nvalue = 0.0", fillcolor="#e5813900"] ;
185 -> 193 ;
194 [label="totals_hits <= 8.5\nmse = 2.27936904617e+13\nsamples = 0.4%\nvalue = 328664.02", fillcolor="#e5813900"] ;
162 -> 194 ;
195 [label="visitNumber <= 3.5\nmse = 3.72812175558e+13\nsamples = 0.2%\nvalue = 539197.65", fillcolor="#e5813900"] ;
194 -> 195 ;
196 [label="yearday_local <= 268.5\nmse = 6.65022885673e+13\nsamples = 0.1%\nvalue = 1148683.6", fillcolor="#e5813900"] ;
195 -> 196 ;
197 [label="geoNetwork_country <= 168.5\nmse = 1.28386897675e+13\nsamples = 0.0%\nvalue = 298075.6", fillcolor="#e5813900"] ;
196 -> 197 ;
198 [label="geoNetwork_country <= 160.0\nmse = 6.26240109394e+13\nsamples = 0.0%\nvalue = 1495517.24", fillcolor="#e5813900"] ;
197 -> 198 ;
199 [label="mse = 0.0\nsamples = 0.0%\nvalue = 0.0", fillcolor="#e5813900"] ;
198 -> 199 ;
200 [label="mse = 0.0\nsamples = 0.0%\nvalue = 43370000.0", fillcolor="#e5813900"] ;
198 -> 200 ;
201 [label="mse = 0.0\nsamples = 0.0%\nvalue = 0.0", fillcolor="#e5813900"] ;
197 -> 201 ;
202 [label="yearday_local <= 271.5\nmse = 1.71953576929e+14\nsamples = 0.0%\nvalue = 2891830.99", fillcolor="#e5813900"] ;
196 -> 202 ;
203 [label="mse = 0.0\nsamples = 0.0%\nvalue = 85950000.0", fillcolor="#e5813901"] ;
202 -> 203 ;
204 [label="trafficSource_source <= 208.0\nmse = 1.23899445541e+14\nsamples = 0.0%\nvalue = 2302765.96", fillcolor="#e5813900"] ;
202 -> 204 ;
205 [label="totals_hits <= 7.5\nmse = 3.07420242215e+13\nsamples = 0.0%\nvalue = 784117.65", fillcolor="#e5813900"] ;
204 -> 205 ;
206 [label="mse = 0.0\nsamples = 0.0%\nvalue = 0.0", fillcolor="#e5813900"] ;
205 -> 206 ;
207 [label="month_local <= 11.5\nmse = 1.13552669822e+14\nsamples = 0.0%\nvalue = 3076153.85", fillcolor="#e5813900"] ;
205 -> 207 ;
208 [label="mse = 0.0\nsamples = 0.0%\nvalue = 0.0", fillcolor="#e5813900"] ;
207 -> 208 ;
209 [label="trafficSource_source <= 74.5\nmse = 3.83808024e+14\nsamples = 0.0%\nvalue = 15996000.0", fillcolor="#e5813900"] ;
207 -> 209 ;
210 [label="mse = 0.0\nsamples = 0.0%\nvalue = 39990000.0", fillcolor="#e5813900"] ;
209 -> 210 ;
211 [label="mse = 0.0\nsamples = 0.0%\nvalue = 0.0", fillcolor="#e5813900"] ;
209 -> 211 ;
212 [label="yearday_local <= 318.5\nmse = 3.45734501775e+14\nsamples = 0.0%\nvalue = 6274615.38", fillcolor="#e5813900"] ;
204 -> 212 ;
213 [label="yearday_local <= 315.5\nmse = 8.39768225e+14\nsamples = 0.0%\nvalue = 40785000.0", fillcolor="#e5813900"] ;
212 -> 213 ;
214 [label="yearday_local <= 287.0\nmse = 1.00352e+15\nsamples = 0.0%\nvalue = 22400000.0", fillcolor="#e5813900"] ;
213 -> 214 ;
215 [label="mse = 0.0\nsamples = 0.0%\nvalue = 67200000.0", fillcolor="#e5813901"] ;
214 -> 215 ;
216 [label="mse = 0.0\nsamples = 0.0%\nvalue = 0.0", fillcolor="#e5813900"] ;
214 -> 216 ;
217 [label="mse = 0.0\nsamples = 0.0%\nvalue = 59170000.0", fillcolor="#e5813901"] ;
213 -> 217 ;
218 [label="mse = 0.0\nsamples = 0.0%\nvalue = 0.0", fillcolor="#e5813900"] ;
212 -> 218 ;
219 [label="trafficSource_isTrueDirect <= 0.5\nmse = 2.55749564842e+13\nsamples = 0.2%\nvalue = 299281.82", fillcolor="#e5813900"] ;
195 -> 219 ;
220 [label="yearday_local <= 125.0\nmse = 1.10421530781e+14\nsamples = 0.0%\nvalue = 1285844.16", fillcolor="#e5813900"] ;
219 -> 220 ;
221 [label="yearday_local <= 122.0\nmse = 2.88330783131e+14\nsamples = 0.0%\nvalue = 3109107.14", fillcolor="#e5813900"] ;
220 -> 221 ;
222 [label="yearday_local <= 99.0\nmse = 6.29643945124e+13\nsamples = 0.0%\nvalue = 1079818.18", fillcolor="#e5813900"] ;
221 -> 222 ;
223 [label="mse = 0.0\nsamples = 0.0%\nvalue = 0.0", fillcolor="#e5813900"] ;
222 -> 223 ;
224 [label="yearday_local <= 102.5\nmse = 2.33945088265e+14\nsamples = 0.0%\nvalue = 4242142.86", fillcolor="#e5813900"] ;
222 -> 224 ;
225 [label="mse = 0.0\nsamples = 0.0%\nvalue = 59390000.0", fillcolor="#e5813901"] ;
224 -> 225 ;
226 [label="mse = 0.0\nsamples = 0.0%\nvalue = 0.0", fillcolor="#e5813900"] ;
224 -> 226 ;
227 [label="mse = 0.0\nsamples = 0.0%\nvalue = 114720000.0", fillcolor="#e5813901"] ;
221 -> 227 ;
228 [label="trafficSource_source <= 265.0\nmse = 5.77402599958e+12\nsamples = 0.0%\nvalue = 243979.59", fillcolor="#e5813900"] ;
220 -> 228 ;
229 [label="mse = 0.0\nsamples = 0.0%\nvalue = 0.0", fillcolor="#e5813900"] ;
228 -> 229 ;
230 [label="weekday_local <= 3.5\nmse = 1.63198160035e+13\nsamples = 0.0%\nvalue = 703235.29", fillcolor="#e5813900"] ;
228 -> 230 ;
231 [label="mse = 0.0\nsamples = 0.0%\nvalue = 0.0", fillcolor="#e5813900"] ;
230 -> 231 ;
232 [label="hour_local <= 14.5\nmse = 6.25283859375e+13\nsamples = 0.0%\nvalue = 2988750.0", fillcolor="#e5813900"] ;
230 -> 232 ;
233 [label="mse = 0.0\nsamples = 0.0%\nvalue = 0.0", fillcolor="#e5813900"] ;
232 -> 233 ;
234 [label="visitNumber <= 13.0\nmse = 1.42922025e+14\nsamples = 0.0%\nvalue = 11955000.0", fillcolor="#e5813900"] ;
232 -> 234 ;
235 [label="mse = 0.0\nsamples = 0.0%\nvalue = 23910000.0", fillcolor="#e5813900"] ;
234 -> 235 ;
236 [label="mse = 0.0\nsamples = 0.0%\nvalue = 0.0", fillcolor="#e5813900"] ;
234 -> 236 ;
237 [label="visitNumber <= 18.5\nmse = 1.15784850405e+13\nsamples = 0.1%\nvalue = 138678.65", fillcolor="#e5813900"] ;
219 -> 237 ;
238 [label="weekday_local <= 4.5\nmse = 1.14522194059e+12\nsamples = 0.1%\nvalue = 36749.12", fillcolor="#e5813900"] ;
237 -> 238 ;
239 [label="mse = 0.0\nsamples = 0.1%\nvalue = 0.0", fillcolor="#e5813900"] ;
238 -> 239 ;
240 [label="trafficSource_source <= 265.0\nmse = 4.2139463138e+12\nsamples = 0.0%\nvalue = 135652.17", fillcolor="#e5813900"] ;
238 -> 240 ;
241 [label="mse = 0.0\nsamples = 0.0%\nvalue = 0.0", fillcolor="#e5813900"] ;
240 -> 241 ;
242 [label="hour_local <= 16.5\nmse = 1.43121051459e+13\nsamples = 0.0%\nvalue = 465671.64", fillcolor="#e5813900"] ;
240 -> 242 ;
243 [label="mse = 0.0\nsamples = 0.0%\nvalue = 0.0", fillcolor="#e5813900"] ;
242 -> 243 ;
244 [label="visitNumber <= 4.5\nmse = 6.45648979592e+13\nsamples = 0.0%\nvalue = 2228571.43", fillcolor="#e5813900"] ;
242 -> 244 ;
245 [label="mse = 0.0\nsamples = 0.0%\nvalue = 31200000.0", fillcolor="#e5813900"] ;
244 -> 245 ;
246 [label="mse = 0.0\nsamples = 0.0%\nvalue = 0.0", fillcolor="#e5813900"] ;
244 -> 246 ;
247 [label="visitNumber <= 20.0\nmse = 1.0200956633e+14\nsamples = 0.0%\nvalue = 1030824.74", fillcolor="#e5813900"] ;
237 -> 247 ;
248 [label="month_local <= 7.0\nmse = 1.388611125e+15\nsamples = 0.0%\nvalue = 16665000.0", fillcolor="#e5813900"] ;
247 -> 248 ;
249 [label="yearday_local <= 154.0\nmse = 2.499500025e+15\nsamples = 0.0%\nvalue = 49995000.0", fillcolor="#e5813901"] ;
248 -> 249 ;
250 [label="mse = 0.0\nsamples = 0.0%\nvalue = 0.0", fillcolor="#e5813900"] ;
249 -> 250 ;
251 [label="mse = 0.0\nsamples = 0.0%\nvalue = 99990000.0", fillcolor="#e5813901"] ;
249 -> 251 ;
252 [label="mse = 0.0\nsamples = 0.0%\nvalue = 0.0", fillcolor="#e5813900"] ;
248 -> 252 ;
253 [label="mse = 0.0\nsamples = 0.0%\nvalue = 0.0", fillcolor="#e5813900"] ;
247 -> 253 ;
254 [label="mse = 0.0\nsamples = 0.1%\nvalue = 0.0", fillcolor="#e5813900"] ;
194 -> 254 ;
255 [label="visitNumber <= 19.5\nmse = 3.89084070881e+14\nsamples = 3.1%\nvalue = 790402.11", fillcolor="#e5813900"] ;
5 -> 255 ;
256 [label="visitNumber <= 2.5\nmse = 2.2424160803e+14\nsamples = 3.1%\nvalue = 671480.55", fillcolor="#e5813900"] ;
255 -> 256 ;
257 [label="trafficSource_isTrueDirect <= 0.5\nmse = 7.09727743035e+13\nsamples = 2.6%\nvalue = 332740.62", fillcolor="#e5813900"] ;
256 -> 257 ;
258 [label="visitNumber <= 1.5\nmse = 2.0417570198e+13\nsamples = 1.9%\nvalue = 157957.96", fillcolor="#e5813900"] ;
257 -> 258 ;
259 [label="yearday_local <= 342.5\nmse = 1.84700976219e+13\nsamples = 1.8%\nvalue = 119025.4", fillcolor="#e5813900"] ;
258 -> 259 ;
260 [label="trafficSource_source <= 251.5\nmse = 6.16629530759e+12\nsamples = 1.7%\nvalue = 76442.45", fillcolor="#e5813900"] ;
259 -> 260 ;
261 [label="yearday_local <= 330.5\nmse = 723809222312.0\nsamples = 1.3%\nvalue = 15243.61", fillcolor="#e5813900"] ;
260 -> 261 ;
262 [label="yearday_local <= 15.5\nmse = 64841743105.2\nsamples = 1.3%\nvalue = 4916.61", fillcolor="#e5813900"] ;
261 -> 262 ;
263 [label="yearday_local <= 14.5\nmse = 731685648699.0\nsamples = 0.1%\nvalue = 45919.54", fillcolor="#e5813900"] ;
262 -> 263 ;
264 [label="mse = 0.0\nsamples = 0.0%\nvalue = 0.0", fillcolor="#e5813900"] ;
263 -> 264 ;
265 [label="hour_local <= 16.5\nmse = 1.33985395062e+13\nsamples = 0.0%\nvalue = 887777.78", fillcolor="#e5813900"] ;
263 -> 265 ;
266 [label="mse = 0.0\nsamples = 0.0%\nvalue = 0.0", fillcolor="#e5813900"] ;
265 -> 266 ;
267 [label="hour_local <= 18.5\nmse = 4.0857664e+13\nsamples = 0.0%\nvalue = 3196000.0", fillcolor="#e5813900"] ;
265 -> 267 ;
268 [label="mse = 0.0\nsamples = 0.0%\nvalue = 15980000.0", fillcolor="#e5813900"] ;
267 -> 268 ;
269 [label="mse = 0.0\nsamples = 0.0%\nvalue = 0.0", fillcolor="#e5813900"] ;
267 -> 269 ;
270 [label="yearday_local <= 125.5\nmse = 35924013057.5\nsamples = 1.2%\nvalue = 3143.18", fillcolor="#e5813900"] ;
262 -> 270 ;
271 [label="yearday_local <= 101.5\nmse = 108602877763.0\nsamples = 0.4%\nvalue = 9507.52", fillcolor="#e5813900"] ;
270 -> 271 ;
272 [label="mse = 0.0\nsamples = 0.3%\nvalue = 0.0", fillcolor="#e5813900"] ;
271 -> 272 ;
273 [label="yearday_local <= 102.5\nmse = 528349635216.0\nsamples = 0.1%\nvalue = 46403.67", fillcolor="#e5813900"] ;
271 -> 273 ;
274 [label="totals_hits <= 8.5\nmse = 6.29935061728e+12\nsamples = 0.0%\nvalue = 492222.22", fillcolor="#e5813900"] ;
273 -> 274 ;
275 [label="geoNetwork_continent <= 2.5\nmse = 2.4531125e+13\nsamples = 0.0%\nvalue = 2215000.0", fillcolor="#e5813900"] ;
274 -> 275 ;
276 [label="hour_local <= 17.0\nmse = 3.92498e+13\nsamples = 0.0%\nvalue = 4430000.0", fillcolor="#e5813900"] ;
275 -> 276 ;
277 [label="mse = 0.0\nsamples = 0.0%\nvalue = 13290000.0", fillcolor="#e5813900"] ;
276 -> 277 ;
278 [label="mse = 0.0\nsamples = 0.0%\nvalue = 0.0", fillcolor="#e5813900"] ;
276 -> 278 ;
279 [label="mse = 0.0\nsamples = 0.0%\nvalue = 0.0", fillcolor="#e5813900"] ;
275 -> 279 ;
280 [label="mse = 0.0\nsamples = 0.0%\nvalue = 0.0", fillcolor="#e5813900"] ;
274 -> 280 ;
281 [label="weekday_local <= 6.5\nmse = 216644802552.0\nsamples = 0.1%\nvalue = 23166.02", fillcolor="#e5813900"] ;
273 -> 281 ;
282 [label="yearday_local <= 124.5\nmse = 5056154127.1\nsamples = 0.1%\nvalue = 3378.38", fillcolor="#e5813900"] ;
281 -> 282 ;
283 [label="mse = 0.0\nsamples = 0.1%\nvalue = 0.0", fillcolor="#e5813900"] ;
282 -> 283 ;
284 [label="hour_local <= 19.5\nmse = 70239334027.1\nsamples = 0.0%\nvalue = 48387.1", fillcolor="#e5813900"] ;
282 -> 284 ;
285 [label="mse = 0.0\nsamples = 0.0%\nvalue = 0.0", fillcolor="#e5813900"] ;
284 -> 285 ;
286 [label="hour_local <= 21.5\nmse = 421875000000.0\nsamples = 0.0%\nvalue = 375000.0", fillcolor="#e5813900"] ;
284 -> 286 ;
287 [label="mse = 0.0\nsamples = 0.0%\nvalue = 1500000.0", fillcolor="#e5813900"] ;
286 -> 287 ;
288 [label="mse = 0.0\nsamples = 0.0%\nvalue = 0.0", fillcolor="#e5813900"] ;
286 -> 288 ;
289 [label="hour_local <= 13.5\nmse = 1.46973155588e+12\nsamples = 0.0%\nvalue = 141891.89", fillcolor="#e5813900"] ;
281 -> 289 ;
290 [label="hour_local <= 12.5\nmse = 6.10380622837e+12\nsamples = 0.0%\nvalue = 617647.06", fillcolor="#e5813900"] ;
289 -> 290 ;
291 [label="mse = 0.0\nsamples = 0.0%\nvalue = 0.0", fillcolor="#e5813900"] ;
290 -> 291 ;
292 [label="mse = 0.0\nsamples = 0.0%\nvalue = 10500000.0", fillcolor="#e5813900"] ;
290 -> 292 ;
293 [label="mse = 0.0\nsamples = 0.0%\nvalue = 0.0", fillcolor="#e5813900"] ;
289 -> 293 ;
294 [label="mse = 0.0\nsamples = 0.8%\nvalue = 0.0", fillcolor="#e5813900"] ;
270 -> 294 ;
295 [label="yearday_local <= 331.5\nmse = 1.41354757324e+13\nsamples = 0.1%\nvalue = 226155.72", fillcolor="#e5813900"] ;
261 -> 295 ;
296 [label="totals_hits <= 8.5\nmse = 1.40161370637e+14\nsamples = 0.0%\nvalue = 1946315.79", fillcolor="#e5813900"] ;
295 -> 296 ;
297 [label="hour_local <= 12.5\nmse = 4.92307344e+14\nsamples = 0.0%\nvalue = 7396000.0", fillcolor="#e5813900"] ;
296 -> 297 ;
298 [label="hour_local <= 10.0\nmse = 1.0256403e+15\nsamples = 0.0%\nvalue = 18490000.0", fillcolor="#e5813900"] ;
297 -> 298 ;
299 [label="mse = 0.0\nsamples = 0.0%\nvalue = 0.0", fillcolor="#e5813900"] ;
298 -> 299 ;
300 [label="mse = 0.0\nsamples = 0.0%\nvalue = 73960000.0", fillcolor="#e5813901"] ;
298 -> 300 ;
301 [label="mse = 0.0\nsamples = 0.0%\nvalue = 0.0", fillcolor="#e5813900"] ;
297 -> 301 ;
302 [label="mse = 0.0\nsamples = 0.0%\nvalue = 0.0", fillcolor="#e5813900"] ;
296 -> 302 ;
303 [label="hour_local <= 2.5\nmse = 964217935872.0\nsamples = 0.1%\nvalue = 50911.53", fillcolor="#e5813900"] ;
295 -> 303 ;
304 [label="weekday_local <= 1.5\nmse = 1.1619981e+13\nsamples = 0.0%\nvalue = 633000.0", fillcolor="#e5813900"] ;
303 -> 304 ;
305 [label="hour_local <= 1.5\nmse = 5.0086125e+13\nsamples = 0.0%\nvalue = 3165000.0", fillcolor="#e5813900"] ;
304 -> 305 ;
306 [label="mse = 0.0\nsamples = 0.0%\nvalue = 0.0", fillcolor="#e5813900"] ;
305 -> 306 ;
307 [label="totals_hits <= 11.5\nmse = 9.0155025e+13\nsamples = 0.0%\nvalue = 9495000.0", fillcolor="#e5813900"] ;
305 -> 307 ;
308 [label="mse = 0.0\nsamples = 0.0%\nvalue = 18990000.0", fillcolor="#e5813900"] ;
307 -> 308 ;
309 [label="mse = 0.0\nsamples = 0.0%\nvalue = 0.0", fillcolor="#e5813900"] ;
307 -> 309 ;
310 [label="mse = 0.0\nsamples = 0.0%\nvalue = 0.0", fillcolor="#e5813900"] ;
304 -> 310 ;
311 [label="mse = 0.0\nsamples = 0.0%\nvalue = 0.0", fillcolor="#e5813900"] ;
303 -> 311 ;
312 [label="totals_hits <= 8.5\nmse = 2.40478233367e+13\nsamples = 0.4%\nvalue = 278110.03", fillcolor="#e5813900"] ;
260 -> 312 ;
313 [label="hour_local <= 14.5\nmse = 1.02594707409e+14\nsamples = 0.1%\nvalue = 1043028.76", fillcolor="#e5813900"] ;
312 -> 313 ;
314 [label="hour_local <= 12.5\nmse = 1.9938210805e+14\nsamples = 0.0%\nvalue = 2047940.2", fillcolor="#e5813900"] ;
313 -> 314 ;
315 [label="yearday_local <= 117.5\nmse = 3.44818983924e+13\nsamples = 0.0%\nvalue = 565045.87", fillcolor="#e5813900"] ;
314 -> 315 ;
316 [label="yearday_local <= 116.5\nmse = 9.36023918282e+13\nsamples = 0.0%\nvalue = 1559240.51", fillcolor="#e5813900"] ;
315 -> 316 ;
317 [label="mse = 0.0\nsamples = 0.0%\nvalue = 0.0", fillcolor="#e5813900"] ;
316 -> 317 ;
318 [label="mse = 0.0\nsamples = 0.0%\nvalue = 61590000.0", fillcolor="#e5813901"] ;
316 -> 318 ;
319 [label="mse = 0.0\nsamples = 0.0%\nvalue = 0.0", fillcolor="#e5813900"] ;
315 -> 319 ;
320 [label="weekday_local <= 4.5\nmse = 6.11548171839e+14\nsamples = 0.0%\nvalue = 5942771.08", fillcolor="#e5813900"] ;
314 -> 320 ;
321 [label="weekday_local <= 1.5\nmse = 1.00608163265e+14\nsamples = 0.0%\nvalue = 2242857.14", fillcolor="#e5813900"] ;
320 -> 321 ;
322 [label="yearday_local <= 201.5\nmse = 3.081125e+14\nsamples = 0.0%\nvalue = 7850000.0", fillcolor="#e5813900"] ;
321 -> 322 ;
323 [label="yearday_local <= 184.0\nmse = 5.43284081633e+14\nsamples = 0.0%\nvalue = 20185714.29", fillcolor="#e5813900"] ;
322 -> 323 ;
324 [label="mse = 0.0\nsamples = 0.0%\nvalue = 0.0", fillcolor="#e5813900"] ;
323 -> 324 ;
325 [label="mse = 0.0\nsamples = 0.0%\nvalue = 47100000.0", fillcolor="#e5813901"] ;
323 -> 325 ;
326 [label="mse = 0.0\nsamples = 0.0%\nvalue = 0.0", fillcolor="#e5813900"] ;
322 -> 326 ;
327 [label="mse = 0.0\nsamples = 0.0%\nvalue = 0.0", fillcolor="#e5813900"] ;
321 -> 327 ;
328 [label="yearday_local <= 132.0\nmse = 2.04205499875e+15\nsamples = 0.0%\nvalue = 17597500.0", fillcolor="#e5813900"] ;
320 -> 328 ;
329 [label="yearday_local <= 121.5\nmse = 5.4952569e+15\nsamples = 0.0%\nvalue = 74130000.0", fillcolor="#e5813901"] ;
328 -> 329 ;
330 [label="mse = 0.0\nsamples = 0.0%\nvalue = 0.0", fillcolor="#e5813900"] ;
329 -> 330 ;
331 [label="mse = 0.0\nsamples = 0.0%\nvalue = 148260000.0", fillcolor="#e5813902"] ;
329 -> 331 ;
332 [label="yearday_local <= 156.5\nmse = 1.80028412109e+14\nsamples = 0.0%\nvalue = 3464375.0", fillcolor="#e5813900"] ;
328 -> 332 ;
333 [label="month_local <= 5.5\nmse = 6.82774422222e+14\nsamples = 0.0%\nvalue = 18476666.67", fillcolor="#e5813900"] ;
332 -> 333 ;
334 [label="mse = 0.0\nsamples = 0.0%\nvalue = 0.0", fillcolor="#e5813900"] ;
333 -> 334 ;
335 [label="hour_local <= 13.5\nmse = 7.68121225e+14\nsamples = 0.0%\nvalue = 27715000.0", fillcolor="#e5813900"] ;
333 -> 335 ;
336 [label="mse = 0.0\nsamples = 0.0%\nvalue = 55430000.0", fillcolor="#e5813901"] ;
335 -> 336 ;
337 [label="mse = 0.0\nsamples = 0.0%\nvalue = 0.0", fillcolor="#e5813900"] ;
335 -> 337 ;
338 [label="mse = 0.0\nsamples = 0.0%\nvalue = 0.0", fillcolor="#e5813900"] ;
332 -> 338 ;
339 [label="mse = 0.0\nsamples = 0.0%\nvalue = 0.0", fillcolor="#e5813900"] ;
313 -> 339 ;
340 [label="month_local <= 10.5\nmse = 1.52730053256e+12\nsamples = 0.3%\nvalue = 60874.58", fillcolor="#e5813900"] ;
312 -> 340 ;
341 [label="weekday_local <= 1.5\nmse = 246851684023.0\nsamples = 0.3%\nvalue = 23273.13", fillcolor="#e5813900"] ;
340 -> 341 ;
342 [label="totals_hits <= 9.5\nmse = 1.35711948338e+12\nsamples = 0.0%\nvalue = 129240.12", fillcolor="#e5813900"] ;
341 -> 342 ;
343 [label="month_local <= 5.5\nmse = 3.42080458984e+12\nsamples = 0.0%\nvalue = 332187.5", fillcolor="#e5813900"] ;
342 -> 343 ;
344 [label="yearday_local <= 138.5\nmse = 8.02344852071e+12\nsamples = 0.0%\nvalue = 817692.31", fillcolor="#e5813900"] ;
343 -> 344 ;
345 [label="mse = 0.0\nsamples = 0.0%\nvalue = 0.0", fillcolor="#e5813900"] ;
344 -> 345 ;
346 [label="hour_local <= 10.0\nmse = 2.8249225e+13\nsamples = 0.0%\nvalue = 5315000.0", fillcolor="#e5813900"] ;
344 -> 346 ;
347 [label="mse = 0.0\nsamples = 0.0%\nvalue = 0.0", fillcolor="#e5813900"] ;
346 -> 347 ;
348 [label="hour_local <= 17.0\nmse = 2.51104222222e+13\nsamples = 0.0%\nvalue = 7086666.67", fillcolor="#e5813900"] ;
346 -> 348 ;
349 [label="mse = 0.0\nsamples = 0.0%\nvalue = 10630000.0", fillcolor="#e5813900"] ;
348 -> 349 ;
350 [label="mse = 0.0\nsamples = 0.0%\nvalue = 0.0", fillcolor="#e5813900"] ;
348 -> 350 ;
351 [label="mse = 0.0\nsamples = 0.0%\nvalue = 0.0", fillcolor="#e5813900"] ;
343 -> 351 ;
352 [label="mse = 0.0\nsamples = 0.0%\nvalue = 0.0", fillcolor="#e5813900"] ;
342 -> 352 ;
353 [label="mse = 0.0\nsamples = 0.2%\nvalue = 0.0", fillcolor="#e5813900"] ;
341 -> 353 ;
354 [label="trafficSource_source <= 260.0\nmse = 1.06541375783e+13\nsamples = 0.0%\nvalue = 331338.58", fillcolor="#e5813900"] ;
340 -> 354 ;
355 [label="hour_local <= 19.0\nmse = 1.387778e+14\nsamples = 0.0%\nvalue = 8330000.0", fillcolor="#e5813900"] ;
354 -> 355 ;
356 [label="mse = 0.0\nsamples = 0.0%\nvalue = 0.0", fillcolor="#e5813900"] ;
355 -> 356 ;
357 [label="mse = 0.0\nsamples = 0.0%\nvalue = 24990000.0", fillcolor="#e5813900"] ;
355 -> 357 ;
358 [label="yearday_local <= 319.5\nmse = 8.34895513405e+12\nsamples = 0.0%\nvalue = 235737.05", fillcolor="#e5813900"] ;
354 -> 358 ;
359 [label="hour_local <= 10.5\nmse = 2.43334943391e+13\nsamples = 0.0%\nvalue = 696117.65", fillcolor="#e5813900"] ;
358 -> 359 ;
360 [label="yearday_local <= 316.5\nmse = 1.98137688889e+14\nsamples = 0.0%\nvalue = 4976666.67", fillcolor="#e5813900"] ;
359 -> 360 ;
361 [label="mse = 0.0\nsamples = 0.0%\nvalue = 0.0", fillcolor="#e5813900"] ;
360 -> 361 ;
362 [label="mse = 0.0\nsamples = 0.0%\nvalue = 44790000.0", fillcolor="#e5813900"] ;
360 -> 362 ;
363 [label="yearday_local <= 306.5\nmse = 1.32462306094e+12\nsamples = 0.0%\nvalue = 189210.53", fillcolor="#e5813900"] ;
359 -> 363 ;
364 [label="trafficSource_source <= 300.5\nmse = 8.93512839506e+12\nsamples = 0.0%\nvalue = 1597777.78", fillcolor="#e5813900"] ;
363 -> 364 ;
365 [label="hour_local <= 13.5\nmse = 1.2407064e+13\nsamples = 0.0%\nvalue = 2876000.0", fillcolor="#e5813900"] ;
364 -> 365 ;
366 [label="mse = 0.0\nsamples = 0.0%\nvalue = 0.0", fillcolor="#e5813900"] ;
365 -> 366 ;
367 [label="mse = 1.14880222222e+13\nsamples = 0.0%\nvalue = 4793333.33", fillcolor="#e5813900"] ;
365 -> 367 ;
368 [label="mse = 0.0\nsamples = 0.0%\nvalue = 0.0", fillcolor="#e5813900"] ;
364 -> 368 ;
369 [label="mse = 0.0\nsamples = 0.0%\nvalue = 0.0", fillcolor="#e5813900"] ;
363 -> 369 ;
370 [label="mse = 0.0\nsamples = 0.0%\nvalue = 0.0", fillcolor="#e5813900"] ;
358 -> 370 ;
371 [label="yearday_local <= 343.5\nmse = 1.85027541211e+14\nsamples = 0.1%\nvalue = 696713.95", fillcolor="#e5813900"] ;
259 -> 371 ;
372 [label="hour_local <= 15.5\nmse = 2.74174793732e+15\nsamples = 0.0%\nvalue = 10171636.36", fillcolor="#e5813900"] ;
371 -> 372 ;
373 [label="mse = 0.0\nsamples = 0.0%\nvalue = 0.0", fillcolor="#e5813900"] ;
372 -> 373 ;
374 [label="hour_local <= 16.5\nmse = 7.7277312e+15\nsamples = 0.0%\nvalue = 31080000.0", fillcolor="#e5813900"] ;
372 -> 374 ;
375 [label="totals_hits <= 10.0\nmse = 1.73873952e+16\nsamples = 0.0%\nvalue = 186480000.0", fillcolor="#e5813902"] ;
374 -> 375 ;
376 [label="mse = 0.0\nsamples = 0.0%\nvalue = 279720000.0", fillcolor="#e5813903"] ;
375 -> 376 ;
377 [label="mse = 0.0\nsamples = 0.0%\nvalue = 0.0", fillcolor="#e5813900"] ;
375 -> 377 ;
378 [label="mse = 0.0\nsamples = 0.0%\nvalue = 0.0", fillcolor="#e5813900"] ;
374 -> 378 ;
379 [label="geoNetwork_country <= 39.5\nmse = 576819110377.0\nsamples = 0.1%\nvalue = 37901.39", fillcolor="#e5813900"] ;
371 -> 379 ;
380 [label="yearday_local <= 363.5\nmse = 5.24656560357e+12\nsamples = 0.0%\nvalue = 314629.63", fillcolor="#e5813900"] ;
379 -> 380 ;
381 [label="mse = 0.0\nsamples = 0.0%\nvalue = 0.0", fillcolor="#e5813900"] ;
380 -> 381 ;
382 [label="geoNetwork_continent <= 2.5\nmse = 5.412376875e+13\nsamples = 0.0%\nvalue = 4247500.0", fillcolor="#e5813900"] ;
380 -> 382 ;
383 [label="mse = 0.0\nsamples = 0.0%\nvalue = 16990000.0", fillcolor="#e5813900"] ;
382 -> 383 ;
384 [label="mse = 0.0\nsamples = 0.0%\nvalue = 0.0", fillcolor="#e5813900"] ;
382 -> 384 ;
385 [label="hour_local <= 19.5\nmse = 228644701005.0\nsamples = 0.1%\nvalue = 17625.51", fillcolor="#e5813900"] ;
379 -> 385 ;
386 [label="mse = 0.0\nsamples = 0.1%\nvalue = 0.0", fillcolor="#e5813900"] ;
385 -> 386 ;
387 [label="hour_local <= 20.5\nmse = 1.24985705614e+12\nsamples = 0.0%\nvalue = 96940.3", fillcolor="#e5813900"] ;
385 -> 387 ;
388 [label="yearday_local <= 355.5\nmse = 6.24038831361e+12\nsamples = 0.0%\nvalue = 499615.38", fillcolor="#e5813900"] ;
387 -> 388 ;
389 [label="mse = 0.0\nsamples = 0.0%\nvalue = 0.0", fillcolor="#e5813900"] ;
388 -> 389 ;
390 [label="yearday_local <= 358.5\nmse = 2.3436125e+13\nsamples = 0.0%\nvalue = 2165000.0", fillcolor="#e5813900"] ;
388 -> 390 ;
391 [label="mse = 0.0\nsamples = 0.0%\nvalue = 12990000.0", fillcolor="#e5813900"] ;
390 -> 391 ;
392 [label="mse = 0.0\nsamples = 0.0%\nvalue = 0.0", fillcolor="#e5813900"] ;
390 -> 392 ;
393 [label="mse = 0.0\nsamples = 0.0%\nvalue = 0.0", fillcolor="#e5813900"] ;
387 -> 393 ;
394 [label="weekday_local <= 2.5\nmse = 6.17081423919e+13\nsamples = 0.1%\nvalue = 998178.63", fillcolor="#e5813900"] ;
258 -> 394 ;
395 [label="hour_local <= 15.5\nmse = 1.5871392064e+14\nsamples = 0.0%\nvalue = 2534891.3", fillcolor="#e5813900"] ;
394 -> 395 ;
396 [label="hour_local <= 13.5\nmse = 2.79522263406e+14\nsamples = 0.0%\nvalue = 4618019.8", fillcolor="#e5813900"] ;
395 -> 396 ;
397 [label="yearday_local <= 38.0\nmse = 1.76645246914e+14\nsamples = 0.0%\nvalue = 1994444.44", fillcolor="#e5813900"] ;
396 -> 397 ;
398 [label="totals_pageviews <= 8.5\nmse = 1.53051918367e+15\nsamples = 0.0%\nvalue = 15971428.57", fillcolor="#e5813900"] ;
397 -> 398 ;
399 [label="mse = 0.0\nsamples = 0.0%\nvalue = 0.0", fillcolor="#e5813900"] ;
398 -> 399 ;
400 [label="mse = 0.0\nsamples = 0.0%\nvalue = 111800000.0", fillcolor="#e5813901"] ;
398 -> 400 ;
401 [label="yearday_local <= 136.0\nmse = 7.53942248521e+12\nsamples = 0.0%\nvalue = 489230.77", fillcolor="#e5813900"] ;
397 -> 401 ;
402 [label="yearday_local <= 128.5\nmse = 3.29101775148e+13\nsamples = 0.0%\nvalue = 2446153.85", fillcolor="#e5813900"] ;
401 -> 402 ;
403 [label="mse = 0.0\nsamples = 0.0%\nvalue = 0.0", fillcolor="#e5813900"] ;
402 -> 403 ;
404 [label="mse = 0.0\nsamples = 0.0%\nvalue = 15900000.0", fillcolor="#e5813900"] ;
402 -> 404 ;
405 [label="mse = 0.0\nsamples = 0.0%\nvalue = 0.0", fillcolor="#e5813900"] ;
401 -> 405 ;
406 [label="yearday_local <= 205.0\nmse = 4.75423524614e+14\nsamples = 0.0%\nvalue = 11131724.14", fillcolor="#e5813900"] ;
396 -> 406 ;
407 [label="month_local <= 6.5\nmse = 7.00921214876e+14\nsamples = 0.0%\nvalue = 24168181.82", fillcolor="#e5813900"] ;
406 -> 407 ;
408 [label="mse = 0.0\nsamples = 0.0%\nvalue = 0.0", fillcolor="#e5813900"] ;
407 -> 408 ;
409 [label="mse = 0.0\nsamples = 0.0%\nvalue = 53170000.0", fillcolor="#e5813901"] ;
407 -> 409 ;
410 [label="hour_local <= 14.5\nmse = 1.70292825e+14\nsamples = 0.0%\nvalue = 3165000.0", fillcolor="#e5813900"] ;
406 -> 410 ;
411 [label="mse = 0.0\nsamples = 0.0%\nvalue = 0.0", fillcolor="#e5813900"] ;
410 -> 411 ;
412 [label="weekday_local <= 1.5\nmse = 4.50775125e+14\nsamples = 0.0%\nvalue = 9495000.0", fillcolor="#e5813900"] ;
410 -> 412 ;
413 [label="mse = 0.0\nsamples = 0.0%\nvalue = 56970000.0", fillcolor="#e5813901"] ;
412 -> 413 ;
414 [label="mse = 0.0\nsamples = 0.0%\nvalue = 0.0", fillcolor="#e5813900"] ;
412 -> 414 ;
415 [label="mse = 0.0\nsamples = 0.0%\nvalue = 0.0", fillcolor="#e5813900"] ;
395 -> 415 ;
416 [label="yearday_local <= 362.0\nmse = 1.39299332505e+13\nsamples = 0.1%\nvalue = 267545.22", fillcolor="#e5813900"] ;
394 -> 416 ;
417 [label="hour_local <= 20.5\nmse = 5.61400043105e+12\nsamples = 0.1%\nvalue = 121387.43", fillcolor="#e5813900"] ;
416 -> 417 ;
418 [label="mse = 0.0\nsamples = 0.0%\nvalue = 0.0", fillcolor="#e5813900"] ;
417 -> 418 ;
419 [label="hour_local <= 21.5\nmse = 3.41209133455e+13\nsamples = 0.0%\nvalue = 747903.23", fillcolor="#e5813900"] ;
417 -> 419 ;
420 [label="trafficSource_source <= 208.0\nmse = 1.77700570248e+14\nsamples = 0.0%\nvalue = 4215454.55", fillcolor="#e5813900"] ;
419 -> 420 ;
421 [label="mse = 0.0\nsamples = 0.0%\nvalue = 0.0", fillcolor="#e5813900"] ;
420 -> 421 ;
422 [label="mse = 0.0\nsamples = 0.0%\nvalue = 46370000.0", fillcolor="#e5813901"] ;
420 -> 422 ;
423 [label="mse = 0.0\nsamples = 0.0%\nvalue = 0.0", fillcolor="#e5813900"] ;
419 -> 423 ;
424 [label="hour_local <= 10.5\nmse = 5.22945424e+14\nsamples = 0.0%\nvalue = 11434000.0", fillcolor="#e5813900"] ;
416 -> 424 ;
425 [label="mse = 0.0\nsamples = 0.0%\nvalue = 0.0", fillcolor="#e5813900"] ;
424 -> 425 ;
426 [label="totals_hits <= 11.5\nmse = 8.17102225e+14\nsamples = 0.0%\nvalue = 28585000.0", fillcolor="#e5813900"] ;
424 -> 426 ;
427 [label="mse = 0.0\nsamples = 0.0%\nvalue = 57170000.0", fillcolor="#e5813901"] ;
426 -> 427 ;
428 [label="mse = 0.0\nsamples = 0.0%\nvalue = 0.0", fillcolor="#e5813900"] ;
426 -> 428 ;
429 [label="geoNetwork_country <= 211.5\nmse = 2.10091170373e+14\nsamples = 0.7%\nvalue = 814804.28", fillcolor="#e5813900"] ;
257 -> 429 ;
430 [label="mse = 0.0\nsamples = 0.3%\nvalue = 0.0", fillcolor="#e5813900"] ;
429 -> 430 ;
431 [label="totals_hits <= 9.5\nmse = 3.56107348714e+14\nsamples = 0.4%\nvalue = 1384160.61", fillcolor="#e5813900"] ;
429 -> 431 ;
432 [label="yearday_local <= 103.5\nmse = 6.71657641759e+14\nsamples = 0.2%\nvalue = 2219879.79", fillcolor="#e5813900"] ;
431 -> 432 ;
433 [label="yearday_local <= 24.5\nmse = 1.32702957101e+12\nsamples = 0.1%\nvalue = 96122.45", fillcolor="#e5813900"] ;
432 -> 433 ;
434 [label="weekday_local <= 2.5\nmse = 4.95846988889e+12\nsamples = 0.0%\nvalue = 366333.33", fillcolor="#e5813900"] ;
433 -> 434 ;
435 [label="hour_local <= 16.5\nmse = 1.28909173554e+13\nsamples = 0.0%\nvalue = 999090.91", fillcolor="#e5813900"] ;
434 -> 435 ;
436 [label="mse = 0.0\nsamples = 0.0%\nvalue = 0.0", fillcolor="#e5813900"] ;
435 -> 436 ;
437 [label="hour_local <= 18.0\nmse = 2.44000933594e+13\nsamples = 0.0%\nvalue = 2060625.0", fillcolor="#e5813900"] ;
435 -> 437 ;
438 [label="mse = 0.0\nsamples = 0.0%\nvalue = 18990000.0", fillcolor="#e5813900"] ;
437 -> 438 ;
439 [label="totals_pageviews <= 8.5\nmse = 5.646056e+12\nsamples = 0.0%\nvalue = 932000.0", fillcolor="#e5813900"] ;
437 -> 439 ;
440 [label="mse = 0.0\nsamples = 0.0%\nvalue = 0.0", fillcolor="#e5813900"] ;
439 -> 440 ;
441 [label="yearday_local <= 23.5\nmse = 1.08578e+13\nsamples = 0.0%\nvalue = 2330000.0", fillcolor="#e5813900"] ;
439 -> 441 ;
442 [label="mse = 0.0\nsamples = 0.0%\nvalue = 0.0", fillcolor="#e5813900"] ;
441 -> 442 ;
443 [label="mse = 0.0\nsamples = 0.0%\nvalue = 6990000.0", fillcolor="#e5813900"] ;
441 -> 443 ;
444 [label="mse = 0.0\nsamples = 0.0%\nvalue = 0.0", fillcolor="#e5813900"] ;
434 -> 444 ;
445 [label="mse = 0.0\nsamples = 0.0%\nvalue = 0.0", fillcolor="#e5813900"] ;
433 -> 445 ;
446 [label="yearday_local <= 104.5\nmse = 9.02264189293e+14\nsamples = 0.1%\nvalue = 2957176.11", fillcolor="#e5813900"] ;
432 -> 446 ;
447 [label="trafficSource_source <= 133.5\nmse = 7.8853546875e+16\nsamples = 0.0%\nvalue = 162125000.0", fillcolor="#e5813902"] ;
446 -> 447 ;
448 [label="hour_local <= 8.5\nmse = 1.051380625e+17\nsamples = 0.0%\nvalue = 324250000.0", fillcolor="#e5813904"] ;
447 -> 448 ;
449 [label="mse = 0.0\nsamples = 0.0%\nvalue = 0.0", fillcolor="#e5813900"] ;
448 -> 449 ;
450 [label="mse = 0.0\nsamples = 0.0%\nvalue = 648500000.0", fillcolor="#e5813907"] ;
448 -> 450 ;
451 [label="mse = 0.0\nsamples = 0.0%\nvalue = 0.0", fillcolor="#e5813900"] ;
447 -> 451 ;
452 [label="yearday_local <= 150.5\nmse = 4.81985066542e+14\nsamples = 0.1%\nvalue = 2310152.44", fillcolor="#e5813900"] ;
446 -> 452 ;
453 [label="yearday_local <= 149.5\nmse = 1.70477951405e+15\nsamples = 0.0%\nvalue = 6647604.17", fillcolor="#e5813900"] ;
452 -> 453 ;
454 [label="trafficSource_source <= 74.5\nmse = 8.54417967134e+14\nsamples = 0.0%\nvalue = 3663404.26", fillcolor="#e5813900"] ;
453 -> 454 ;
455 [label="yearday_local <= 139.5\nmse = 3.60796492623e+13\nsamples = 0.0%\nvalue = 992030.08", fillcolor="#e5813900"] ;
454 -> 455 ;
456 [label="mse = 0.0\nsamples = 0.0%\nvalue = 0.0", fillcolor="#e5813900"] ;
455 -> 456 ;
457 [label="hour_local <= 12.5\nmse = 1.03041857231e+14\nsamples = 0.0%\nvalue = 2998636.36", fillcolor="#e5813900"] ;
455 -> 457 ;
458 [label="mse = 0.0\nsamples = 0.0%\nvalue = 0.0", fillcolor="#e5813900"] ;
457 -> 458 ;
459 [label="hour_local <= 13.5\nmse = 2.29733657439e+14\nsamples = 0.0%\nvalue = 7761176.47", fillcolor="#e5813900"] ;
457 -> 459 ;
460 [label="mse = 0.0\nsamples = 0.0%\nvalue = 45000000.0", fillcolor="#e5813900"] ;
459 -> 460 ;
461 [label="hour_local <= 14.5\nmse = 5.0814504e+13\nsamples = 0.0%\nvalue = 2796000.0", fillcolor="#e5813900"] ;
459 -> 461 ;
462 [label="totals_hits <= 8.5\nmse = 1.05537816e+14\nsamples = 0.0%\nvalue = 8388000.0", fillcolor="#e5813900"] ;
461 -> 462 ;
463 [label="mse = 0.0\nsamples = 0.0%\nvalue = 0.0", fillcolor="#e5813900"] ;
462 -> 463 ;
464 [label="yearday_local <= 143.0\nmse = 9.77202e+13\nsamples = 0.0%\nvalue = 13980000.0", fillcolor="#e5813900"] ;
462 -> 464 ;
465 [label="mse = 0.0\nsamples = 0.0%\nvalue = 20970000.0", fillcolor="#e5813900"] ;
464 -> 465 ;
466 [label="mse = 0.0\nsamples = 0.0%\nvalue = 0.0", fillcolor="#e5813900"] ;
464 -> 466 ;
467 [label="mse = 0.0\nsamples = 0.0%\nvalue = 0.0", fillcolor="#e5813900"] ;
461 -> 467 ;
468 [label="weekday_local <= 3.5\nmse = 2.77432218202e+15\nsamples = 0.0%\nvalue = 10123272.73", fillcolor="#e5813900"] ;
454 -> 468 ;
469 [label="mse = 0.0\nsamples = 0.0%\nvalue = 0.0", fillcolor="#e5813900"] ;
468 -> 469 ;
470 [label="hour_local <= 12.5\nmse = 6.05447182431e+15\nsamples = 0.0%\nvalue = 23199166.67", fillcolor="#e5813900"] ;
468 -> 470 ;
471 [label="trafficSource_source <= 208.0\nmse = 5.49245147929e+14\nsamples = 0.0%\nvalue = 6765384.62", fillcolor="#e5813900"] ;
470 -> 471 ;
472 [label="mse = 0.0\nsamples = 0.0%\nvalue = 0.0", fillcolor="#e5813900"] ;
471 -> 472 ;
473 [label="hour_local <= 11.5\nmse = 1.933800625e+15\nsamples = 0.0%\nvalue = 43975000.0", fillcolor="#e5813900"] ;
471 -> 473 ;
474 [label="mse = 0.0\nsamples = 0.0%\nvalue = 0.0", fillcolor="#e5813900"] ;
473 -> 474 ;
475 [label="mse = 0.0\nsamples = 0.0%\nvalue = 87950000.0", fillcolor="#e5813901"] ;
473 -> 475 ;
476 [label="totals_hits <= 8.5\nmse = 1.18642720446e+16\nsamples = 0.0%\nvalue = 42620909.09", fillcolor="#e5813900"] ;
470 -> 476 ;
477 [label="hour_local <= 14.0\nmse = 1.8348759375e+14\nsamples = 0.0%\nvalue = 10492500.0", fillcolor="#e5813900"] ;
476 -> 477 ;
478 [label="mse = 0.0\nsamples = 0.0%\nvalue = 27980000.0", fillcolor="#e5813900"] ;
477 -> 478 ;
479 [label="mse = 0.0\nsamples = 0.0%\nvalue = 0.0", fillcolor="#e5813900"] ;
477 -> 479 ;
480 [label="hour_local <= 15.5\nmse = 3.29200693556e+16\nsamples = 0.0%\nvalue = 128296666.67", fillcolor="#e5813901"] ;
476 -> 480 ;
481 [label="mse = 0.0\nsamples = 0.0%\nvalue = 384890000.0", fillcolor="#e5813904"] ;
480 -> 481 ;
482 [label="mse = 0.0\nsamples = 0.0%\nvalue = 0.0", fillcolor="#e5813900"] ;
480 -> 482 ;
483 [label="totals_hits <= 8.5\nmse = 2.1581079025e+16\nsamples = 0.0%\nvalue = 146905000.0", fillcolor="#e5813902"] ;
453 -> 483 ;
484 [label="mse = 0.0\nsamples = 0.0%\nvalue = 0.0", fillcolor="#e5813900"] ;
483 -> 484 ;
485 [label="mse = 0.0\nsamples = 0.0%\nvalue = 293810000.0", fillcolor="#e5813903"] ;
483 -> 485 ;
486 [label="hour_local <= 19.5\nmse = 1.79883544008e+14\nsamples = 0.1%\nvalue = 1258648.99", fillcolor="#e5813900"] ;
452 -> 486 ;
487 [label="weekday_local <= 1.5\nmse = 1.92322232072e+13\nsamples = 0.1%\nvalue = 523081.76", fillcolor="#e5813900"] ;
486 -> 487 ;
488 [label="trafficSource_source <= 208.0\nmse = 6.05396828017e+13\nsamples = 0.0%\nvalue = 1210990.99", fillcolor="#e5813900"] ;
487 -> 488 ;
489 [label="hour_local <= 4.0\nmse = 5.09696741974e+12\nsamples = 0.0%\nvalue = 243448.28", fillcolor="#e5813900"] ;
488 -> 489 ;
490 [label="visitNumber <= 1.5\nmse = 6.23045e+13\nsamples = 0.0%\nvalue = 3530000.0", fillcolor="#e5813900"] ;
489 -> 490 ;
491 [label="mse = 0.0\nsamples = 0.0%\nvalue = 0.0", fillcolor="#e5813900"] ;
490 -> 491 ;
492 [label="mse = 0.0\nsamples = 0.0%\nvalue = 21180000.0", fillcolor="#e5813900"] ;
490 -> 492 ;
493 [label="mse = 0.0\nsamples = 0.0%\nvalue = 0.0", fillcolor="#e5813900"] ;
489 -> 493 ;
494 [label="yearday_local <= 201.5\nmse = 2.45824572222e+14\nsamples = 0.0%\nvalue = 4718333.33", fillcolor="#e5813900"] ;
488 -> 494 ;
495 [label="mse = 0.0\nsamples = 0.0%\nvalue = 53270000.0", fillcolor="#e5813901"] ;
494 -> 495 ;
496 [label="hour_local <= 14.0\nmse = 1.49566767108e+14\nsamples = 0.0%\nvalue = 2607391.3", fillcolor="#e5813900"] ;
494 -> 496 ;
497 [label="hour_local <= 12.5\nmse = 4.40375620408e+14\nsamples = 0.0%\nvalue = 8567142.86", fillcolor="#e5813900"] ;
496 -> 497 ;
498 [label="mse = 0.0\nsamples = 0.0%\nvalue = 0.0", fillcolor="#e5813900"] ;
497 -> 498 ;
499 [label="yearday_local <= 273.5\nmse = 8.99100225e+14\nsamples = 0.0%\nvalue = 29985000.0", fillcolor="#e5813900"] ;
497 -> 499 ;
500 [label="mse = 0.0\nsamples = 0.0%\nvalue = 59970000.0", fillcolor="#e5813901"] ;
499 -> 500 ;
501 [label="mse = 0.0\nsamples = 0.0%\nvalue = 0.0", fillcolor="#e5813900"] ;
499 -> 501 ;
502 [label="mse = 0.0\nsamples = 0.0%\nvalue = 0.0", fillcolor="#e5813900"] ;
496 -> 502 ;
503 [label="yearday_local <= 273.5\nmse = 1.03774401357e+13\nsamples = 0.1%\nvalue = 377638.1", fillcolor="#e5813900"] ;
487 -> 503 ;
504 [label="mse = 0.0\nsamples = 0.0%\nvalue = 0.0", fillcolor="#e5813900"] ;
503 -> 504 ;
505 [label="yearday_local <= 274.5\nmse = 2.17161491354e+13\nsamples = 0.0%\nvalue = 802672.06", fillcolor="#e5813900"] ;
503 -> 505 ;
506 [label="hour_local <= 12.5\nmse = 1.20890025e+14\nsamples = 0.0%\nvalue = 10995000.0", fillcolor="#e5813900"] ;
505 -> 506 ;
507 [label="mse = 0.0\nsamples = 0.0%\nvalue = 21990000.0", fillcolor="#e5813900"] ;
506 -> 507 ;
508 [label="mse = 0.0\nsamples = 0.0%\nvalue = 0.0", fillcolor="#e5813900"] ;
506 -> 508 ;
509 [label="yearday_local <= 315.5\nmse = 1.83454916561e+13\nsamples = 0.0%\nvalue = 634897.12", fillcolor="#e5813900"] ;
505 -> 509 ;
510 [label="yearday_local <= 309.5\nmse = 4.1507445821e+13\nsamples = 0.0%\nvalue = 1435576.92", fillcolor="#e5813900"] ;
509 -> 510 ;
511 [label="mse = 0.0\nsamples = 0.0%\nvalue = 0.0", fillcolor="#e5813900"] ;
510 -> 511 ;
512 [label="totals_hits <= 8.5\nmse = 1.50097315972e+14\nsamples = 0.0%\nvalue = 6220833.33", fillcolor="#e5813900"] ;
510 -> 512 ;
513 [label="hour_local <= 13.5\nmse = 2.28264987654e+14\nsamples = 0.0%\nvalue = 16588888.89", fillcolor="#e5813900"] ;
512 -> 513 ;
514 [label="yearday_local <= 314.5\nmse = 1.52167776e+14\nsamples = 0.0%\nvalue = 10072000.0", fillcolor="#e5813900"] ;
513 -> 514 ;
515 [label="mse = 0.0\nsamples = 0.0%\nvalue = 0.0", fillcolor="#e5813900"] ;
514 -> 515 ;
516 [label="mse = 0.0\nsamples = 0.0%\nvalue = 25180000.0", fillcolor="#e5813900"] ;
514 -> 516 ;
517 [label="hour_local <= 16.5\nmse = 2.03940075e+14\nsamples = 0.0%\nvalue = 24735000.0", fillcolor="#e5813900"] ;
513 -> 517 ;
518 [label="mse = 0.0\nsamples = 0.0%\nvalue = 32980000.0", fillcolor="#e5813900"] ;
517 -> 518 ;
519 [label="mse = 0.0\nsamples = 0.0%\nvalue = 0.0", fillcolor="#e5813900"] ;
517 -> 519 ;
520 [label="mse = 0.0\nsamples = 0.0%\nvalue = 0.0", fillcolor="#e5813900"] ;
512 -> 520 ;
521 [label="yearday_local <= 358.0\nmse = 177136545727.0\nsamples = 0.0%\nvalue = 35827.34", fillcolor="#e5813900"] ;
509 -> 521 ;
522 [label="mse = 0.0\nsamples = 0.0%\nvalue = 0.0", fillcolor="#e5813900"] ;
521 -> 522 ;
523 [label="yearday_local <= 359.5\nmse = 2.71254375e+12\nsamples = 0.0%\nvalue = 622500.0", fillcolor="#e5813900"] ;
521 -> 523 ;
524 [label="mse = 0.0\nsamples = 0.0%\nvalue = 4980000.0", fillcolor="#e5813900"] ;
523 -> 524 ;
525 [label="mse = 0.0\nsamples = 0.0%\nvalue = 0.0", fillcolor="#e5813900"] ;
523 -> 525 ;
526 [label="trafficSource_source <= 208.0\nmse = 8.23647657212e+14\nsamples = 0.0%\nvalue = 4257500.0", fillcolor="#e5813900"] ;
486 -> 526 ;
527 [label="yearday_local <= 350.5\nmse = 1.1506430858e+14\nsamples = 0.0%\nvalue = 975163.93", fillcolor="#e5813900"] ;
526 -> 527 ;
528 [label="mse = 0.0\nsamples = 0.0%\nvalue = 0.0", fillcolor="#e5813900"] ;
527 -> 528 ;
529 [label="trafficSource_source <= 74.5\nmse = 1.08119770764e+15\nsamples = 0.0%\nvalue = 9914166.67", fillcolor="#e5813900"] ;
527 -> 529 ;
530 [label="mse = 0.0\nsamples = 0.0%\nvalue = 0.0", fillcolor="#e5813900"] ;
529 -> 530 ;
531 [label="totals_hits <= 8.5\nmse = 3.538465225e+15\nsamples = 0.0%\nvalue = 59485000.0", fillcolor="#e5813901"] ;
529 -> 531 ;
532 [label="mse = 0.0\nsamples = 0.0%\nvalue = 0.0", fillcolor="#e5813900"] ;
531 -> 532 ;
533 [label="mse = 0.0\nsamples = 0.0%\nvalue = 118970000.0", fillcolor="#e5813901"] ;
531 -> 533 ;
534 [label="yearday_local <= 282.0\nmse = 3.18883632491e+15\nsamples = 0.0%\nvalue = 16035294.12", fillcolor="#e5813900"] ;
526 -> 534 ;
535 [label="mse = 0.0\nsamples = 0.0%\nvalue = 0.0", fillcolor="#e5813900"] ;
534 -> 535 ;
536 [label="yearday_local <= 313.5\nmse = 1.06713694245e+16\nsamples = 0.0%\nvalue = 77885714.29", fillcolor="#e5813901"] ;
534 -> 536 ;
537 [label="mse = 0.0\nsamples = 0.0%\nvalue = 236630000.0", fillcolor="#e5813903"] ;
536 -> 537 ;
538 [label="weekday_local <= 2.5\nmse = 8.28058176e+14\nsamples = 0.0%\nvalue = 14388000.0", fillcolor="#e5813900"] ;
536 -> 538 ;
539 [label="mse = 0.0\nsamples = 0.0%\nvalue = 0.0", fillcolor="#e5813900"] ;
538 -> 539 ;
540 [label="mse = 0.0\nsamples = 0.0%\nvalue = 71940000.0", fillcolor="#e5813901"] ;
538 -> 540 ;
541 [label="yearday_local <= 325.5\nmse = 5.92756989613e+13\nsamples = 0.2%\nvalue = 601372.27", fillcolor="#e5813900"] ;
431 -> 541 ;
542 [label="totals_hits <= 10.5\nmse = 3.66295744855e+13\nsamples = 0.2%\nvalue = 333296.18", fillcolor="#e5813900"] ;
541 -> 542 ;
543 [label="yearday_local <= 248.0\nmse = 1.26917525728e+14\nsamples = 0.1%\nvalue = 897919.08", fillcolor="#e5813900"] ;
542 -> 543 ;
544 [label="yearday_local <= 48.5\nmse = 1.24467308043e+13\nsamples = 0.0%\nvalue = 401291.51", fillcolor="#e5813900"] ;
543 -> 544 ;
545 [label="yearday_local <= 47.5\nmse = 5.04093560303e+13\nsamples = 0.0%\nvalue = 1574531.25", fillcolor="#e5813900"] ;
544 -> 545 ;
546 [label="mse = 0.0\nsamples = 0.0%\nvalue = 0.0", fillcolor="#e5813900"] ;
545 -> 546 ;
547 [label="totals_pageviews <= 8.5\nmse = 2.36940501e+14\nsamples = 0.0%\nvalue = 10077000.0", fillcolor="#e5813900"] ;
545 -> 547 ;
548 [label="mse = 0.0\nsamples = 0.0%\nvalue = 0.0", fillcolor="#e5813900"] ;
547 -> 548 ;
549 [label="mse = 0.0\nsamples = 0.0%\nvalue = 33590000.0", fillcolor="#e5813900"] ;
547 -> 549 ;
550 [label="weekday_local <= 2.5\nmse = 152331232934.0\nsamples = 0.0%\nvalue = 38550.72", fillcolor="#e5813900"] ;
544 -> 550 ;
551 [label="yearday_local <= 156.5\nmse = 504856705187.0\nsamples = 0.0%\nvalue = 130819.67", fillcolor="#e5813900"] ;
550 -> 551 ;
552 [label="mse = 0.0\nsamples = 0.0%\nvalue = 0.0", fillcolor="#e5813900"] ;
551 -> 552 ;
553 [label="yearday_local <= 164.0\nmse = 1.3157107438e+12\nsamples = 0.0%\nvalue = 362727.27", fillcolor="#e5813900"] ;
551 -> 553 ;
554 [label="mse = 0.0\nsamples = 0.0%\nvalue = 3990000.0", fillcolor="#e5813900"] ;
553 -> 554 ;
555 [label="mse = 0.0\nsamples = 0.0%\nvalue = 0.0", fillcolor="#e5813900"] ;
553 -> 555 ;
556 [label="mse = 0.0\nsamples = 0.0%\nvalue = 0.0", fillcolor="#e5813900"] ;
550 -> 556 ;
557 [label="yearday_local <= 251.0\nmse = 5.3642731424e+14\nsamples = 0.0%\nvalue = 2692400.0", fillcolor="#e5813900"] ;
543 -> 557 ;
558 [label="mse = 0.0\nsamples = 0.0%\nvalue = 201930000.0", fillcolor="#e5813902"] ;
557 -> 558 ;
559 [label="mse = 0.0\nsamples = 0.0%\nvalue = 0.0", fillcolor="#e5813900"] ;
557 -> 559 ;
560 [label="weekday_local <= 1.5\nmse = 2.13300797295e+12\nsamples = 0.1%\nvalue = 118615.38", fillcolor="#e5813900"] ;
542 -> 560 ;
561 [label="totals_hits <= 11.5\nmse = 1.4340132213e+13\nsamples = 0.0%\nvalue = 830307.69", fillcolor="#e5813900"] ;
560 -> 561 ;
562 [label="totals_pageviews <= 8.5\nmse = 4.96795464844e+13\nsamples = 0.0%\nvalue = 3373125.0", fillcolor="#e5813900"] ;
561 -> 562 ;
563 [label="mse = 0.0\nsamples = 0.0%\nvalue = 0.0", fillcolor="#e5813900"] ;
562 -> 563 ;
564 [label="hour_local <= 14.5\nmse = 7.46167702422e+13\nsamples = 0.0%\nvalue = 6349411.76", fillcolor="#e5813900"] ;
562 -> 564 ;
565 [label="yearday_local <= 259.5\nmse = 8.01378e+13\nsamples = 0.0%\nvalue = 12660000.0", fillcolor="#e5813900"] ;
564 -> 565 ;
566 [label="mse = 0.0\nsamples = 0.0%\nvalue = 0.0", fillcolor="#e5813900"] ;
565 -> 566 ;
567 [label="mse = 0.0\nsamples = 0.0%\nvalue = 18990000.0", fillcolor="#e5813900"] ;
565 -> 567 ;
568 [label="yearday_local <= 89.5\nmse = 3.80350561983e+13\nsamples = 0.0%\nvalue = 2907272.73", fillcolor="#e5813900"] ;
564 -> 568 ;
569 [label="yearday_local <= 68.5\nmse = 5.68178e+13\nsamples = 0.0%\nvalue = 10660000.0", fillcolor="#e5813900"] ;
568 -> 569 ;
570 [label="mse = 0.0\nsamples = 0.0%\nvalue = 0.0", fillcolor="#e5813900"] ;
569 -> 570 ;
571 [label="mse = 0.0\nsamples = 0.0%\nvalue = 15990000.0", fillcolor="#e5813900"] ;
569 -> 571 ;
572 [label="mse = 0.0\nsamples = 0.0%\nvalue = 0.0", fillcolor="#e5813900"] ;
568 -> 572 ;
573 [label="mse = 0.0\nsamples = 0.0%\nvalue = 0.0", fillcolor="#e5813900"] ;
561 -> 573 ;
574 [label="mse = 0.0\nsamples = 0.1%\nvalue = 0.0", fillcolor="#e5813900"] ;
560 -> 574 ;
575 [label="yearday_local <= 326.5\nmse = 2.26949538424e+14\nsamples = 0.0%\nvalue = 2642000.0", fillcolor="#e5813900"] ;
541 -> 575 ;
576 [label="trafficSource_source <= 208.0\nmse = 2.14179175041e+15\nsamples = 0.0%\nvalue = 21816363.64", fillcolor="#e5813900"] ;
575 -> 576 ;
577 [label="mse = 0.0\nsamples = 0.0%\nvalue = 0.0", fillcolor="#e5813900"] ;
576 -> 577 ;
578 [label="totals_hits <= 12.5\nmse = 3.455424024e+15\nsamples = 0.0%\nvalue = 47996000.0", fillcolor="#e5813901"] ;
576 -> 578 ;
579 [label="totals_pageviews <= 8.5\nmse = 3.19946668889e+15\nsamples = 0.0%\nvalue = 79993333.33", fillcolor="#e5813901"] ;
578 -> 579 ;
580 [label="mse = 0.0\nsamples = 0.0%\nvalue = 0.0", fillcolor="#e5813900"] ;
579 -> 580 ;
581 [label="mse = 0.0\nsamples = 0.0%\nvalue = 119990000.0", fillcolor="#e5813901"] ;
579 -> 581 ;
582 [label="mse = 0.0\nsamples = 0.0%\nvalue = 0.0", fillcolor="#e5813900"] ;
578 -> 582 ;
583 [label="totals_hits <= 10.5\nmse = 6.20381390327e+13\nsamples = 0.0%\nvalue = 1272402.6", fillcolor="#e5813900"] ;
575 -> 583 ;
584 [label="hour_local <= 12.0\nmse = 1.86584201709e+14\nsamples = 0.0%\nvalue = 3896666.67", fillcolor="#e5813900"] ;
583 -> 584 ;
585 [label="yearday_local <= 346.5\nmse = 5.41831128395e+14\nsamples = 0.0%\nvalue = 12442222.22", fillcolor="#e5813900"] ;
584 -> 585 ;
586 [label="yearday_local <= 335.0\nmse = 6.96640022222e+14\nsamples = 0.0%\nvalue = 37326666.67", fillcolor="#e5813900"] ;
585 -> 586 ;
587 [label="mse = 0.0\nsamples = 0.0%\nvalue = 0.0", fillcolor="#e5813900"] ;
586 -> 587 ;
588 [label="mse = 0.0\nsamples = 0.0%\nvalue = 55990000.0", fillcolor="#e5813901"] ;
586 -> 588 ;
589 [label="mse = 0.0\nsamples = 0.0%\nvalue = 0.0", fillcolor="#e5813900"] ;
585 -> 589 ;
590 [label="totals_pageviews <= 8.5\nmse = 5.1529781e+13\nsamples = 0.0%\nvalue = 1333000.0", fillcolor="#e5813900"] ;
584 -> 590 ;
591 [label="mse = 0.0\nsamples = 0.0%\nvalue = 0.0", fillcolor="#e5813900"] ;
590 -> 591 ;
592 [label="yearday_local <= 341.0\nmse = 1.2216111875e+14\nsamples = 0.0%\nvalue = 3332500.0", fillcolor="#e5813900"] ;
590 -> 592 ;
593 [label="mse = 0.0\nsamples = 0.0%\nvalue = 0.0", fillcolor="#e5813900"] ;
592 -> 593 ;
594 [label="yearday_local <= 345.0\nmse = 2.9985001875e+14\nsamples = 0.0%\nvalue = 9997500.0", fillcolor="#e5813900"] ;
592 -> 594 ;
595 [label="mse = 0.0\nsamples = 0.0%\nvalue = 39990000.0", fillcolor="#e5813900"] ;
594 -> 595 ;
596 [label="mse = 0.0\nsamples = 0.0%\nvalue = 0.0", fillcolor="#e5813900"] ;
594 -> 596 ;
597 [label="yearday_local <= 355.5\nmse = 1.66732253762e+13\nsamples = 0.0%\nvalue = 382434.78", fillcolor="#e5813900"] ;
583 -> 597 ;
598 [label="mse = 0.0\nsamples = 0.0%\nvalue = 0.0", fillcolor="#e5813900"] ;
597 -> 598 ;
599 [label="yearday_local <= 356.5\nmse = 9.64441196676e+13\nsamples = 0.0%\nvalue = 2314736.84", fillcolor="#e5813900"] ;
597 -> 599 ;
600 [label="totals_hits <= 14.0\nmse = 3.62670075e+14\nsamples = 0.0%\nvalue = 10995000.0", fillcolor="#e5813900"] ;
599 -> 600 ;
601 [label="mse = 0.0\nsamples = 0.0%\nvalue = 43980000.0", fillcolor="#e5813900"] ;
600 -> 601 ;
602 [label="mse = 0.0\nsamples = 0.0%\nvalue = 0.0", fillcolor="#e5813900"] ;
600 -> 602 ;
603 [label="mse = 0.0\nsamples = 0.0%\nvalue = 0.0", fillcolor="#e5813900"] ;
599 -> 603 ;
604 [label="hour_local <= 0.5\nmse = 1.09638835852e+15\nsamples = 0.5%\nvalue = 2608759.77", fillcolor="#e5813900"] ;
256 -> 604 ;
605 [label="visitNumber <= 6.5\nmse = 3.37898828277e+16\nsamples = 0.0%\nvalue = 36654137.93", fillcolor="#e5813900"] ;
604 -> 605 ;
606 [label="visitNumber <= 4.5\nmse = 1.18757253287e+14\nsamples = 0.0%\nvalue = 2162352.94", fillcolor="#e5813900"] ;
605 -> 606 ;
607 [label="mse = 0.0\nsamples = 0.0%\nvalue = 0.0", fillcolor="#e5813900"] ;
606 -> 607 ;
608 [label="totals_hits <= 8.5\nmse = 5.968593e+14\nsamples = 0.0%\nvalue = 13785000.0", fillcolor="#e5813900"] ;
606 -> 608 ;
609 [label="mse = 0.0\nsamples = 0.0%\nvalue = 65490000.0", fillcolor="#e5813901"] ;
608 -> 609 ;
610 [label="month_local <= 10.5\nmse = 2.45650297959e+14\nsamples = 0.0%\nvalue = 6398571.43", fillcolor="#e5813900"] ;
608 -> 610 ;
611 [label="mse = 0.0\nsamples = 0.0%\nvalue = 0.0", fillcolor="#e5813900"] ;
610 -> 611 ;
612 [label="mse = 0.0\nsamples = 0.0%\nvalue = 44790000.0", fillcolor="#e5813900"] ;
610 -> 612 ;
613 [label="month_local <= 11.0\nmse = 2.07290063041e+17\nsamples = 0.0%\nvalue = 287951428.57", fillcolor="#e5813903"] ;
605 -> 613 ;
614 [label="mse = 0.0\nsamples = 0.0%\nvalue = 0.0", fillcolor="#e5813900"] ;
613 -> 614 ;
615 [label="mse = 0.0\nsamples = 0.0%\nvalue = 1007830000.0", fillcolor="#e581390b"] ;
613 -> 615 ;
616 [label="totals_hits <= 9.5\nmse = 4.44515944226e+14\nsamples = 0.4%\nvalue = 1953606.5", fillcolor="#e5813900"] ;
604 -> 616 ;
617 [label="weekday_local <= 1.5\nmse = 9.13857671839e+14\nsamples = 0.2%\nvalue = 3646597.27", fillcolor="#e5813900"] ;
616 -> 617 ;
618 [label="yearday_local <= 266.5\nmse = 3.65988540939e+15\nsamples = 0.0%\nvalue = 9727301.59", fillcolor="#e5813900"] ;
617 -> 618 ;
619 [label="yearday_local <= 259.5\nmse = 5.15360219964e+15\nsamples = 0.0%\nvalue = 13849039.55", fillcolor="#e5813900"] ;
618 -> 619 ;
620 [label="trafficSource_source <= 33.5\nmse = 1.87731590226e+15\nsamples = 0.0%\nvalue = 7710171.43", fillcolor="#e5813900"] ;
619 -> 620 ;
621 [label="hour_local <= 14.5\nmse = 9.17187387097e+15\nsamples = 0.0%\nvalue = 29250000.0", fillcolor="#e5813900"] ;
620 -> 621 ;
622 [label="hour_local <= 11.5\nmse = 1.4731833125e+16\nsamples = 0.0%\nvalue = 50375000.0", fillcolor="#e5813901"] ;
621 -> 622 ;
623 [label="mse = 0.0\nsamples = 0.0%\nvalue = 0.0", fillcolor="#e5813900"] ;
622 -> 623 ;
624 [label="month_local <= 4.5\nmse = 2.4388385e+16\nsamples = 0.0%\nvalue = 100750000.0", fillcolor="#e5813901"] ;
622 -> 624 ;
625 [label="mse = 0.0\nsamples = 0.0%\nvalue = 458850000.0", fillcolor="#e5813905"] ;
624 -> 625 ;
626 [label="yearday_local <= 198.0\nmse = 9.40380046875e+15\nsamples = 0.0%\nvalue = 55987500.0", fillcolor="#e5813901"] ;
624 -> 626 ;
627 [label="geoNetwork_country <= 193.0\nmse = 1.1145245e+16\nsamples = 0.0%\nvalue = 149300000.0", fillcolor="#e5813902"] ;
626 -> 627 ;
628 [label="mse = 0.0\nsamples = 0.0%\nvalue = 0.0", fillcolor="#e5813900"] ;
627 -> 628 ;
629 [label="mse = 0.0\nsamples = 0.0%\nvalue = 223950000.0", fillcolor="#e5813902"] ;
627 -> 629 ;
630 [label="mse = 0.0\nsamples = 0.0%\nvalue = 0.0", fillcolor="#e5813900"] ;
626 -> 630 ;
631 [label="mse = 0.0\nsamples = 0.0%\nvalue = 0.0", fillcolor="#e5813900"] ;
621 -> 631 ;
632 [label="totals_pageviews <= 8.5\nmse = 1.85576288151e+14\nsamples = 0.0%\nvalue = 3073125.0", fillcolor="#e5813900"] ;
620 -> 632 ;
633 [label="yearday_local <= 5.5\nmse = 1.46797736914e+13\nsamples = 0.0%\nvalue = 673444.44", fillcolor="#e5813900"] ;
632 -> 633 ;
634 [label="mse = 0.0\nsamples = 0.0%\nvalue = 24990000.0", fillcolor="#e5813900"] ;
633 -> 634 ;
635 [label="hour_local <= 11.5\nmse = 1.26946413998e+12\nsamples = 0.0%\nvalue = 120795.45", fillcolor="#e5813900"] ;
633 -> 635 ;
636 [label="yearday_local <= 198.0\nmse = 4.51202899306e+12\nsamples = 0.0%\nvalue = 442916.67", fillcolor="#e5813900"] ;
635 -> 636 ;
637 [label="mse = 0.0\nsamples = 0.0%\nvalue = 0.0", fillcolor="#e5813900"] ;
636 -> 637 ;
638 [label="trafficSource_source <= 208.0\nmse = 1.8079504e+13\nsamples = 0.0%\nvalue = 2126000.0", fillcolor="#e5813900"] ;
636 -> 638 ;
639 [label="mse = 0.0\nsamples = 0.0%\nvalue = 0.0", fillcolor="#e5813900"] ;
638 -> 639 ;
640 [label="mse = 0.0\nsamples = 0.0%\nvalue = 10630000.0", fillcolor="#e5813900"] ;
638 -> 640 ;
641 [label="mse = 0.0\nsamples = 0.0%\nvalue = 0.0", fillcolor="#e5813900"] ;
635 -> 641 ;
642 [label="trafficSource_source <= 265.0\nmse = 4.44810626612e+14\nsamples = 0.0%\nvalue = 7072592.59", fillcolor="#e5813900"] ;
632 -> 642 ;
643 [label="mse = 0.0\nsamples = 0.0%\nvalue = 0.0", fillcolor="#e5813900"] ;
642 -> 643 ;
644 [label="hour_local <= 14.0\nmse = 8.86046685822e+14\nsamples = 0.0%\nvalue = 16605217.39", fillcolor="#e5813900"] ;
642 -> 644 ;
645 [label="hour_local <= 8.5\nmse = 4.09590710059e+13\nsamples = 0.0%\nvalue = 3505384.62", fillcolor="#e5813900"] ;
644 -> 645 ;
646 [label="hour_local <= 4.5\nmse = 5.5376664e+13\nsamples = 0.0%\nvalue = 9114000.0", fillcolor="#e5813900"] ;
645 -> 646 ;
647 [label="mse = 0.0\nsamples = 0.0%\nvalue = 0.0", fillcolor="#e5813900"] ;
646 -> 647 ;
648 [label="mse = 0.0\nsamples = 0.0%\nvalue = 15190000.0", fillcolor="#e5813900"] ;
646 -> 648 ;
649 [label="mse = 0.0\nsamples = 0.0%\nvalue = 0.0", fillcolor="#e5813900"] ;
645 -> 649 ;
650 [label="yearday_local <= 166.5\nmse = 1.471559785e+15\nsamples = 0.0%\nvalue = 33635000.0", fillcolor="#e5813900"] ;
644 -> 650 ;
651 [label="month_local <= 5.5\nmse = 3.205512e+14\nsamples = 0.0%\nvalue = 85310000.0", fillcolor="#e5813901"] ;
650 -> 651 ;
652 [label="mse = 0.0\nsamples = 0.0%\nvalue = 59990000.0", fillcolor="#e5813901"] ;
651 -> 652 ;
653 [label="mse = 0.0\nsamples = 0.0%\nvalue = 97970000.0", fillcolor="#e5813901"] ;
651 -> 653 ;
654 [label="visitNumber <= 7.5\nmse = 3.29968183673e+14\nsamples = 0.0%\nvalue = 11488571.43", fillcolor="#e5813900"] ;
650 -> 654 ;
655 [label="mse = 0.0\nsamples = 0.0%\nvalue = 0.0", fillcolor="#e5813900"] ;
654 -> 655 ;
656 [label="mse = 0.0\nsamples = 0.0%\nvalue = 40210000.0", fillcolor="#e5813900"] ;
654 -> 656 ;
657 [label="mse = 0.0\nsamples = 0.0%\nvalue = 551000000.0", fillcolor="#e5813906"] ;
619 -> 657 ;
658 [label="mse = 0.0\nsamples = 0.0%\nvalue = 0.0", fillcolor="#e5813900"] ;
618 -> 658 ;
659 [label="yearday_local <= 229.5\nmse = 2.97403179273e+14\nsamples = 0.2%\nvalue = 2303619.63", fillcolor="#e5813900"] ;
617 -> 659 ;
660 [label="yearday_local <= 227.0\nmse = 4.78978048735e+14\nsamples = 0.1%\nvalue = 3453378.79", fillcolor="#e5813900"] ;
659 -> 660 ;
661 [label="geoNetwork_country <= 211.5\nmse = 3.17964097437e+14\nsamples = 0.1%\nvalue = 2977354.74", fillcolor="#e5813900"] ;
660 -> 661 ;
662 [label="mse = 0.0\nsamples = 0.0%\nvalue = 0.0", fillcolor="#e5813900"] ;
661 -> 662 ;
663 [label="yearday_local <= 46.0\nmse = 4.1877966444e+14\nsamples = 0.1%\nvalue = 3957703.25", fillcolor="#e5813900"] ;
661 -> 663 ;
664 [label="hour_local <= 8.5\nmse = 5.22934868873e+12\nsamples = 0.0%\nvalue = 350170.94", fillcolor="#e5813900"] ;
663 -> 664 ;
665 [label="weekday_local <= 4.0\nmse = 5.412376875e+13\nsamples = 0.0%\nvalue = 4247500.0", fillcolor="#e5813900"] ;
664 -> 665 ;
666 [label="mse = 0.0\nsamples = 0.0%\nvalue = 16990000.0", fillcolor="#e5813900"] ;
665 -> 666 ;
667 [label="mse = 0.0\nsamples = 0.0%\nvalue = 0.0", fillcolor="#e5813900"] ;
665 -> 667 ;
668 [label="trafficSource_source <= 60.0\nmse = 444145341301.0\nsamples = 0.0%\nvalue = 64128.44", fillcolor="#e5813900"] ;
664 -> 668 ;
669 [label="yearday_local <= 28.0\nmse = 1.9510109375e+12\nsamples = 0.0%\nvalue = 291250.0", fillcolor="#e5813900"] ;
668 -> 669 ;
670 [label="mse = 0.0\nsamples = 0.0%\nvalue = 0.0", fillcolor="#e5813900"] ;
669 -> 670 ;
671 [label="weekday_local <= 2.5\nmse = 1.2215025e+13\nsamples = 0.0%\nvalue = 3495000.0", fillcolor="#e5813900"] ;
669 -> 671 ;
672 [label="mse = 0.0\nsamples = 0.0%\nvalue = 6990000.0", fillcolor="#e5813900"] ;
671 -> 672 ;
673 [label="mse = 0.0\nsamples = 0.0%\nvalue = 0.0", fillcolor="#e5813900"] ;
671 -> 673 ;
674 [label="mse = 0.0\nsamples = 0.0%\nvalue = 0.0", fillcolor="#e5813900"] ;
668 -> 674 ;
675 [label="yearday_local <= 49.0\nmse = 5.42480041682e+14\nsamples = 0.1%\nvalue = 5083253.33", fillcolor="#e5813900"] ;
663 -> 675 ;
676 [label="trafficSource_isTrueDirect <= 0.5\nmse = 9.73085728926e+14\nsamples = 0.0%\nvalue = 34317272.73", fillcolor="#e5813900"] ;
675 -> 676 ;
677 [label="mse = 0.0\nsamples = 0.0%\nvalue = 87970000.0", fillcolor="#e5813901"] ;
676 -> 677 ;
678 [label="visitNumber <= 5.0\nmse = 4.0748091358e+14\nsamples = 0.0%\nvalue = 22394444.44", fillcolor="#e5813900"] ;
676 -> 678 ;
679 [label="hour_local <= 12.5\nmse = 2.35088013889e+14\nsamples = 0.0%\nvalue = 33591666.67", fillcolor="#e5813900"] ;
678 -> 679 ;
680 [label="weekday_local <= 4.5\nmse = 2.82072025e+14\nsamples = 0.0%\nvalue = 16795000.0", fillcolor="#e5813900"] ;
679 -> 680 ;
681 [label="mse = 0.0\nsamples = 0.0%\nvalue = 33590000.0", fillcolor="#e5813900"] ;
680 -> 681 ;
682 [label="mse = 0.0\nsamples = 0.0%\nvalue = 0.0", fillcolor="#e5813900"] ;
680 -> 682 ;
683 [label="mse = 0.0\nsamples = 0.0%\nvalue = 41990000.0", fillcolor="#e5813900"] ;
679 -> 683 ;
684 [label="mse = 0.0\nsamples = 0.0%\nvalue = 0.0", fillcolor="#e5813900"] ;
678 -> 684 ;
685 [label="weekday_local <= 4.5\nmse = 5.02860089249e+14\nsamples = 0.1%\nvalue = 4199807.69", fillcolor="#e5813900"] ;
675 -> 685 ;
686 [label="weekday_local <= 3.5\nmse = 7.89424902339e+14\nsamples = 0.0%\nvalue = 6264170.4", fillcolor="#e5813900"] ;
685 -> 686 ;
687 [label="yearday_local <= 77.0\nmse = 4.35516222723e+14\nsamples = 0.0%\nvalue = 3932792.21", fillcolor="#e5813900"] ;
686 -> 687 ;
688 [label="hour_local <= 13.5\nmse = 3.00943596821e+15\nsamples = 0.0%\nvalue = 21283888.89", fillcolor="#e5813900"] ;
687 -> 688 ;
689 [label="hour_local <= 10.5\nmse = 5.11286408395e+15\nsamples = 0.0%\nvalue = 42567777.78", fillcolor="#e5813900"] ;
688 -> 689 ;
690 [label="visitNumber <= 10.0\nmse = 3.25869573438e+14\nsamples = 0.0%\nvalue = 18013750.0", fillcolor="#e5813900"] ;
689 -> 690 ;
691 [label="trafficSource_source <= 208.0\nmse = 6.23995836735e+13\nsamples = 0.0%\nvalue = 11788571.43", fillcolor="#e5813900"] ;
690 -> 691 ;
692 [label="visitNumber <= 3.5\nmse = 9.26641875e+12\nsamples = 0.0%\nvalue = 17232500.0", fillcolor="#e5813900"] ;
691 -> 692 ;
693 [label="mse = 0.0\nsamples = 0.0%\nvalue = 11960000.0", fillcolor="#e5813900"] ;
692 -> 693 ;
694 [label="mse = 0.0\nsamples = 0.0%\nvalue = 18990000.0", fillcolor="#e5813900"] ;
692 -> 694 ;
695 [label="month_local <= 2.5\nmse = 4.10418e+13\nsamples = 0.0%\nvalue = 4530000.0", fillcolor="#e5813900"] ;
691 -> 695 ;
696 [label="mse = 0.0\nsamples = 0.0%\nvalue = 13590000.0", fillcolor="#e5813900"] ;
695 -> 696 ;
697 [label="mse = 0.0\nsamples = 0.0%\nvalue = 0.0", fillcolor="#e5813900"] ;
695 -> 697 ;
698 [label="mse = 0.0\nsamples = 0.0%\nvalue = 61590000.0", fillcolor="#e5813901"] ;
690 -> 698 ;
699 [label="mse = 0.0\nsamples = 0.0%\nvalue = 239000000.0", fillcolor="#e5813903"] ;
689 -> 699 ;
700 [label="mse = 0.0\nsamples = 0.0%\nvalue = 0.0", fillcolor="#e5813900"] ;
688 -> 700 ;
701 [label="totals_hits <= 8.5\nmse = 4.97303556012e+13\nsamples = 0.0%\nvalue = 1636323.53", fillcolor="#e5813900"] ;
687 -> 701 ;
702 [label="mse = 0.0\nsamples = 0.0%\nvalue = 0.0", fillcolor="#e5813900"] ;
701 -> 702 ;
703 [label="hour_local <= 11.5\nmse = 9.1714133551e+13\nsamples = 0.0%\nvalue = 3179142.86", fillcolor="#e5813900"] ;
701 -> 703 ;
704 [label="mse = 0.0\nsamples = 0.0%\nvalue = 0.0", fillcolor="#e5813900"] ;
703 -> 704 ;
705 [label="visitNumber <= 3.5\nmse = 1.33932029333e+14\nsamples = 0.0%\nvalue = 4945333.33", fillcolor="#e5813900"] ;
703 -> 705 ;
706 [label="mse = 0.0\nsamples = 0.0%\nvalue = 0.0", fillcolor="#e5813900"] ;
705 -> 706 ;
707 [label="totals_pageviews <= 8.5\nmse = 1.82555802667e+14\nsamples = 0.0%\nvalue = 7418000.0", fillcolor="#e5813900"] ;
705 -> 707 ;
708 [label="yearday_local <= 119.0\nmse = 2.98182913889e+14\nsamples = 0.0%\nvalue = 17261666.67", fillcolor="#e5813900"] ;
707 -> 708 ;
709 [label="mse = 0.0\nsamples = 0.0%\nvalue = 0.0", fillcolor="#e5813900"] ;
708 -> 709 ;
710 [label="trafficSource_isTrueDirect <= 0.5\nmse = 435555555556.0\nsamples = 0.0%\nvalue = 34523333.33", fillcolor="#e5813900"] ;
708 -> 710 ;
711 [label="mse = 0.0\nsamples = 0.0%\nvalue = 33590000.0", fillcolor="#e5813900"] ;
710 -> 711 ;
712 [label="mse = 0.0\nsamples = 0.0%\nvalue = 34990000.0", fillcolor="#e5813900"] ;
710 -> 712 ;
713 [label="visitNumber <= 6.5\nmse = 1.2336847066e+14\nsamples = 0.0%\nvalue = 4957083.33", fillcolor="#e5813900"] ;
707 -> 713 ;
714 [label="mse = 0.0\nsamples = 0.0%\nvalue = 0.0", fillcolor="#e5813900"] ;
713 -> 714 ;
715 [label="visitNumber <= 8.0\nmse = 2.05806624793e+14\nsamples = 0.0%\nvalue = 10815454.55", fillcolor="#e5813900"] ;
713 -> 715 ;
716 [label="month_local <= 6.5\nmse = 1.43963064e+14\nsamples = 0.0%\nvalue = 23794000.0", fillcolor="#e5813900"] ;
715 -> 716 ;
717 [label="month_local <= 5.5\nmse = 1.76501622222e+14\nsamples = 0.0%\nvalue = 18756666.67", fillcolor="#e5813900"] ;
716 -> 717 ;
718 [label="month_local <= 4.5\nmse = 893025000000.0\nsamples = 0.0%\nvalue = 28135000.0", fillcolor="#e5813900"] ;
717 -> 718 ;
719 [label="mse = 0.0\nsamples = 0.0%\nvalue = 27190000.0", fillcolor="#e5813900"] ;
718 -> 719 ;
720 [label="mse = 0.0\nsamples = 0.0%\nvalue = 29080000.0", fillcolor="#e5813900"] ;
718 -> 720 ;
721 [label="mse = 0.0\nsamples = 0.0%\nvalue = 0.0", fillcolor="#e5813900"] ;
717 -> 721 ;
722 [label="mse = 0.0\nsamples = 0.0%\nvalue = 31350000.0", fillcolor="#e5813900"] ;
716 -> 722 ;
723 [label="mse = 0.0\nsamples = 0.0%\nvalue = 0.0", fillcolor="#e5813900"] ;
715 -> 723 ;
724 [label="hour_local <= 15.5\nmse = 1.54010201277e+15\nsamples = 0.0%\nvalue = 11467536.23", fillcolor="#e5813900"] ;
686 -> 724 ;
725 [label="trafficSource_isTrueDirect <= 0.5\nmse = 7.84114787453e+13\nsamples = 0.0%\nvalue = 1748372.09", fillcolor="#e5813900"] ;
724 -> 725 ;
726 [label="trafficSource_source <= 208.0\nmse = 3.19459177778e+14\nsamples = 0.0%\nvalue = 8353333.33", fillcolor="#e5813900"] ;
725 -> 726 ;
727 [label="mse = 0.0\nsamples = 0.0%\nvalue = 55990000.0", fillcolor="#e5813901"] ;
726 -> 727 ;
728 [label="totals_hits <= 8.5\nmse = 4.02780109375e+13\nsamples = 0.0%\nvalue = 2398750.0", fillcolor="#e5813900"] ;
726 -> 728 ;
729 [label="mse = 0.0\nsamples = 0.0%\nvalue = 19190000.0", fillcolor="#e5813900"] ;
728 -> 729 ;
730 [label="mse = 0.0\nsamples = 0.0%\nvalue = 0.0", fillcolor="#e5813900"] ;
728 -> 730 ;
731 [label="mse = 0.0\nsamples = 0.0%\nvalue = 0.0", fillcolor="#e5813900"] ;
725 -> 731 ;
732 [label="hour_local <= 18.5\nmse = 3.54291386686e+15\nsamples = 0.0%\nvalue = 27541538.46", fillcolor="#e5813900"] ;
724 -> 732 ;
733 [label="yearday_local <= 197.5\nmse = 6.195873825e+15\nsamples = 0.0%\nvalue = 70545000.0", fillcolor="#e5813901"] ;
732 -> 733 ;
734 [label="trafficSource_source <= 74.5\nmse = 2.37998271094e+15\nsamples = 0.0%\nvalue = 37788750.0", fillcolor="#e5813900"] ;
733 -> 734 ;
735 [label="mse = 0.0\nsamples = 0.0%\nvalue = 100770000.0", fillcolor="#e5813901"] ;
734 -> 735 ;
736 [label="mse = 0.0\nsamples = 0.0%\nvalue = 0.0", fillcolor="#e5813900"] ;
734 -> 736 ;
737 [label="mse = 0.0\nsamples = 0.0%\nvalue = 201570000.0", fillcolor="#e5813902"] ;
733 -> 737 ;
738 [label="yearday_local <= 141.5\nmse = 6.62091210938e+12\nsamples = 0.0%\nvalue = 664375.0", fillcolor="#e5813900"] ;
732 -> 738 ;
739 [label="visitNumber <= 3.5\nmse = 2.8249225e+13\nsamples = 0.0%\nvalue = 5315000.0", fillcolor="#e5813900"] ;
738 -> 739 ;
740 [label="mse = 0.0\nsamples = 0.0%\nvalue = 0.0", fillcolor="#e5813900"] ;
739 -> 740 ;
741 [label="mse = 0.0\nsamples = 0.0%\nvalue = 10630000.0", fillcolor="#e5813900"] ;
739 -> 741 ;
742 [label="mse = 0.0\nsamples = 0.0%\nvalue = 0.0", fillcolor="#e5813900"] ;
738 -> 742 ;
743 [label="trafficSource_source <= 27.0\nmse = 3.22409313717e+13\nsamples = 0.0%\nvalue = 934893.62", fillcolor="#e5813900"] ;
685 -> 743 ;
744 [label="hour_local <= 6.5\nmse = 1.82940763265e+14\nsamples = 0.0%\nvalue = 6277142.86", fillcolor="#e5813900"] ;
743 -> 744 ;
745 [label="mse = 0.0\nsamples = 0.0%\nvalue = 41970000.0", fillcolor="#e5813900"] ;
744 -> 745 ;
746 [label="hour_local <= 11.5\nmse = 5.39784e+13\nsamples = 0.0%\nvalue = 2520000.0", fillcolor="#e5813900"] ;
744 -> 746 ;
747 [label="visitNumber <= 4.5\nmse = 1.37549664e+14\nsamples = 0.0%\nvalue = 9576000.0", fillcolor="#e5813900"] ;
746 -> 747 ;
748 [label="mse = 0.0\nsamples = 0.0%\nvalue = 0.0", fillcolor="#e5813900"] ;
747 -> 748 ;
749 [label="mse = 0.0\nsamples = 0.0%\nvalue = 23940000.0", fillcolor="#e5813900"] ;
747 -> 749 ;
750 [label="mse = 0.0\nsamples = 0.0%\nvalue = 0.0", fillcolor="#e5813900"] ;
746 -> 750 ;
751 [label="mse = 0.0\nsamples = 0.0%\nvalue = 0.0", fillcolor="#e5813900"] ;
743 -> 751 ;
752 [label="hour_local <= 10.0\nmse = 1.5312578e+16\nsamples = 0.0%\nvalue = 55340000.0", fillcolor="#e5813901"] ;
660 -> 752 ;
753 [label="mse = 0.0\nsamples = 0.0%\nvalue = 332040000.0", fillcolor="#e5813904"] ;
752 -> 753 ;
754 [label="mse = 0.0\nsamples = 0.0%\nvalue = 0.0", fillcolor="#e5813900"] ;
752 -> 754 ;
755 [label="yearday_local <= 355.5\nmse = 4.39539687233e+13\nsamples = 0.1%\nvalue = 725987.53", fillcolor="#e5813900"] ;
659 -> 755 ;
756 [label="hour_local <= 4.5\nmse = 2.12990414242e+13\nsamples = 0.1%\nvalue = 366606.33", fillcolor="#e5813900"] ;
755 -> 756 ;
757 [label="trafficSource_source <= 118.5\nmse = 5.03888006222e+14\nsamples = 0.0%\nvalue = 5999333.33", fillcolor="#e5813900"] ;
756 -> 757 ;
758 [label="mse = 0.0\nsamples = 0.0%\nvalue = 89990000.0", fillcolor="#e5813901"] ;
757 -> 758 ;
759 [label="mse = 0.0\nsamples = 0.0%\nvalue = 0.0", fillcolor="#e5813900"] ;
757 -> 759 ;
760 [label="trafficSource_isTrueDirect <= 0.5\nmse = 3.19256139835e+12\nsamples = 0.1%\nvalue = 168735.36", fillcolor="#e5813900"] ;
756 -> 760 ;
761 [label="weekday_local <= 4.5\nmse = 1.26720805697e+13\nsamples = 0.0%\nvalue = 655409.84", fillcolor="#e5813900"] ;
760 -> 761 ;
762 [label="mse = 0.0\nsamples = 0.0%\nvalue = 0.0", fillcolor="#e5813900"] ;
761 -> 762 ;
763 [label="yearday_local <= 295.0\nmse = 3.05250076389e+13\nsamples = 0.0%\nvalue = 1665833.33", fillcolor="#e5813900"] ;
761 -> 763 ;
764 [label="month_local <= 9.5\nmse = 6.90666839506e+13\nsamples = 0.0%\nvalue = 4442222.22", fillcolor="#e5813900"] ;
763 -> 764 ;
765 [label="mse = 0.0\nsamples = 0.0%\nvalue = 0.0", fillcolor="#e5813900"] ;
764 -> 765 ;
766 [label="mse = 0.0\nsamples = 0.0%\nvalue = 19990000.0", fillcolor="#e5813900"] ;
764 -> 766 ;
767 [label="mse = 0.0\nsamples = 0.0%\nvalue = 0.0", fillcolor="#e5813900"] ;
763 -> 767 ;
768 [label="yearday_local <= 320.5\nmse = 1.56658697259e+12\nsamples = 0.1%\nvalue = 87622.95", fillcolor="#e5813900"] ;
760 -> 768 ;
769 [label="mse = 0.0\nsamples = 0.0%\nvalue = 0.0", fillcolor="#e5813900"] ;
768 -> 769 ;
770 [label="yearday_local <= 321.5\nmse = 3.8981950882e+12\nsamples = 0.0%\nvalue = 219657.53", fillcolor="#e5813900"] ;
768 -> 770 ;
771 [label="mse = 1.1664e+14\nsamples = 0.0%\nvalue = 10800000.0", fillcolor="#e5813900"] ;
770 -> 771 ;
772 [label="totals_pageviews <= 8.5\nmse = 755969748264.0\nsamples = 0.0%\nvalue = 72708.33", fillcolor="#e5813900"] ;
770 -> 772 ;
773 [label="mse = 0.0\nsamples = 0.0%\nvalue = 0.0", fillcolor="#e5813900"] ;
772 -> 773 ;
774 [label="yearday_local <= 342.5\nmse = 1.5436412449e+12\nsamples = 0.0%\nvalue = 149571.43", fillcolor="#e5813900"] ;
772 -> 774 ;
775 [label="yearday_local <= 341.5\nmse = 3.12931634948e+12\nsamples = 0.0%\nvalue = 307941.18", fillcolor="#e5813900"] ;
774 -> 775 ;
776 [label="mse = 0.0\nsamples = 0.0%\nvalue = 0.0", fillcolor="#e5813900"] ;
775 -> 776 ;
777 [label="trafficSource_source <= 208.0\nmse = 9.865881e+12\nsamples = 0.0%\nvalue = 1047000.0", fillcolor="#e5813900"] ;
775 -> 777 ;
778 [label="hour_local <= 16.5\nmse = 1.7539344e+13\nsamples = 0.0%\nvalue = 2094000.0", fillcolor="#e5813900"] ;
777 -> 778 ;
779 [label="mse = 0.0\nsamples = 0.0%\nvalue = 10470000.0", fillcolor="#e5813900"] ;
778 -> 779 ;
780 [label="mse = 0.0\nsamples = 0.0%\nvalue = 0.0", fillcolor="#e5813900"] ;
778 -> 780 ;
781 [label="mse = 0.0\nsamples = 0.0%\nvalue = 0.0", fillcolor="#e5813900"] ;
777 -> 781 ;
782 [label="mse = 0.0\nsamples = 0.0%\nvalue = 0.0", fillcolor="#e5813900"] ;
774 -> 782 ;
783 [label="trafficSource_source <= 303.5\nmse = 2.82656834845e+14\nsamples = 0.0%\nvalue = 4798974.36", fillcolor="#e5813900"] ;
755 -> 783 ;
784 [label="yearday_local <= 356.5\nmse = 1.61346945675e+14\nsamples = 0.0%\nvalue = 2211176.47", fillcolor="#e5813900"] ;
783 -> 784 ;
785 [label="hour_local <= 18.0\nmse = 5.58225422222e+14\nsamples = 0.0%\nvalue = 8353333.33", fillcolor="#e5813900"] ;
784 -> 785 ;
786 [label="mse = 0.0\nsamples = 0.0%\nvalue = 0.0", fillcolor="#e5813900"] ;
785 -> 786 ;
787 [label="visitNumber <= 5.5\nmse = 1.2560072e+15\nsamples = 0.0%\nvalue = 25060000.0", fillcolor="#e5813900"] ;
785 -> 787 ;
788 [label="mse = 0.0\nsamples = 0.0%\nvalue = 75180000.0", fillcolor="#e5813901"] ;
787 -> 788 ;
789 [label="mse = 0.0\nsamples = 0.0%\nvalue = 0.0", fillcolor="#e5813900"] ;
787 -> 789 ;
790 [label="mse = 0.0\nsamples = 0.0%\nvalue = 0.0", fillcolor="#e5813900"] ;
784 -> 790 ;
791 [label="trafficSource_source <= 332.5\nmse = 7.52371224e+14\nsamples = 0.0%\nvalue = 22396000.0", fillcolor="#e5813900"] ;
783 -> 791 ;
792 [label="mse = 0.0\nsamples = 0.0%\nvalue = 55990000.0", fillcolor="#e5813901"] ;
791 -> 792 ;
793 [label="mse = 0.0\nsamples = 0.0%\nvalue = 0.0", fillcolor="#e5813900"] ;
791 -> 793 ;
794 [label="totals_pageviews <= 8.5\nmse = 3.66092640547e+13\nsamples = 0.2%\nvalue = 498741.52", fillcolor="#e5813900"] ;
616 -> 794 ;
795 [label="mse = 0.0\nsamples = 0.1%\nvalue = 0.0", fillcolor="#e5813900"] ;
794 -> 795 ;
796 [label="totals_hits <= 11.5\nmse = 6.81979351564e+13\nsamples = 0.1%\nvalue = 934635.84", fillcolor="#e5813900"] ;
794 -> 796 ;
797 [label="visitNumber <= 9.5\nmse = 1.48161896291e+14\nsamples = 0.1%\nvalue = 2062397.96", fillcolor="#e5813900"] ;
796 -> 797 ;
798 [label="trafficSource_source <= 232.5\nmse = 9.41221724488e+13\nsamples = 0.1%\nvalue = 1511505.68", fillcolor="#e5813900"] ;
797 -> 798 ;
799 [label="hour_local <= 18.5\nmse = 1.95877648572e+12\nsamples = 0.0%\nvalue = 98472.91", fillcolor="#e5813900"] ;
798 -> 799 ;
800 [label="mse = 0.0\nsamples = 0.0%\nvalue = 0.0", fillcolor="#e5813900"] ;
799 -> 800 ;
801 [label="weekday_local <= 4.5\nmse = 1.07916693673e+13\nsamples = 0.0%\nvalue = 555277.78", fillcolor="#e5813900"] ;
799 -> 801 ;
802 [label="mse = 0.0\nsamples = 0.0%\nvalue = 0.0", fillcolor="#e5813900"] ;
801 -> 802 ;
803 [label="month_local <= 6.5\nmse = 3.94666765432e+13\nsamples = 0.0%\nvalue = 2221111.11", fillcolor="#e5813900"] ;
801 -> 803 ;
804 [label="yearday_local <= 142.5\nmse = 8.88000222222e+13\nsamples = 0.0%\nvalue = 6663333.33", fillcolor="#e5813900"] ;
803 -> 804 ;
805 [label="mse = 0.0\nsamples = 0.0%\nvalue = 0.0", fillcolor="#e5813900"] ;
804 -> 805 ;
806 [label="mse = 0.0\nsamples = 0.0%\nvalue = 19990000.0", fillcolor="#e5813900"] ;
804 -> 806 ;
807 [label="mse = 0.0\nsamples = 0.0%\nvalue = 0.0", fillcolor="#e5813900"] ;
803 -> 807 ;
808 [label="totals_hits <= 10.5\nmse = 2.13260624981e+14\nsamples = 0.0%\nvalue = 3436644.3", fillcolor="#e5813900"] ;
798 -> 808 ;
809 [label="mse = 0.0\nsamples = 0.0%\nvalue = 0.0", fillcolor="#e5813900"] ;
808 -> 809 ;
810 [label="visitNumber <= 4.5\nmse = 3.36859590098e+14\nsamples = 0.0%\nvalue = 5627032.97", fillcolor="#e5813900"] ;
808 -> 810 ;
811 [label="visitNumber <= 3.5\nmse = 5.31110089575e+14\nsamples = 0.0%\nvalue = 9482592.59", fillcolor="#e5813900"] ;
810 -> 811 ;
812 [label="weekday_local <= 4.5\nmse = 8.8408736e+13\nsamples = 0.0%\nvalue = 3688000.0", fillcolor="#e5813900"] ;
811 -> 812 ;
813 [label="mse = 0.0\nsamples = 0.0%\nvalue = 0.0", fillcolor="#e5813900"] ;
812 -> 813 ;
814 [label="yearday_local <= 207.5\nmse = 1.77042287603e+14\nsamples = 0.0%\nvalue = 10058181.82", fillcolor="#e5813900"] ;
812 -> 814 ;
815 [label="mse = 0.0\nsamples = 0.0%\nvalue = 0.0", fillcolor="#e5813900"] ;
814 -> 815 ;
816 [label="hour_local <= 13.5\nmse = 1.87365453061e+14\nsamples = 0.0%\nvalue = 15805714.29", fillcolor="#e5813900"] ;
814 -> 816 ;
817 [label="mse = 0.0\nsamples = 0.0%\nvalue = 0.0", fillcolor="#e5813900"] ;
816 -> 817 ;
818 [label="mse = 0.0\nsamples = 0.0%\nvalue = 27660000.0", fillcolor="#e5813900"] ;
816 -> 818 ;
819 [label="month_local <= 1.5\nmse = 9.90050615972e+14\nsamples = 0.0%\nvalue = 16725833.33", fillcolor="#e5813900"] ;
811 -> 819 ;
820 [label="mse = 0.0\nsamples = 0.0%\nvalue = 95800000.0", fillcolor="#e5813901"] ;
819 -> 820 ;
821 [label="month_local <= 7.5\nmse = 7.494188431e+14\nsamples = 0.0%\nvalue = 13287826.09", fillcolor="#e5813900"] ;
819 -> 821 ;
822 [label="hour_local <= 20.5\nmse = 2.81306743056e+13\nsamples = 0.0%\nvalue = 1599166.67", fillcolor="#e5813900"] ;
821 -> 822 ;
823 [label="mse = 0.0\nsamples = 0.0%\nvalue = 0.0", fillcolor="#e5813900"] ;
822 -> 823 ;
824 [label="mse = 0.0\nsamples = 0.0%\nvalue = 19190000.0", fillcolor="#e5813900"] ;
822 -> 824 ;
825 [label="yearday_local <= 226.0\nmse = 1.22463871736e+15\nsamples = 0.0%\nvalue = 26039090.91", fillcolor="#e5813900"] ;
821 -> 825 ;
826 [label="mse = 0.0\nsamples = 0.0%\nvalue = 114050000.0", fillcolor="#e5813901"] ;
825 -> 826 ;
827 [label="yearday_local <= 317.5\nmse = 4.95051376e+14\nsamples = 0.0%\nvalue = 17238000.0", fillcolor="#e5813900"] ;
825 -> 827 ;
828 [label="yearday_local <= 244.5\nmse = 3.95805464e+14\nsamples = 0.0%\nvalue = 34476000.0", fillcolor="#e5813900"] ;
827 -> 828 ;
829 [label="mse = 0.0\nsamples = 0.0%\nvalue = 0.0", fillcolor="#e5813900"] ;
828 -> 829 ;
830 [label="hour_local <= 14.0\nmse = 1.23321025e+14\nsamples = 0.0%\nvalue = 43095000.0", fillcolor="#e5813900"] ;
828 -> 830 ;
831 [label="mse = 0.0\nsamples = 0.0%\nvalue = 54200000.0", fillcolor="#e5813901"] ;
830 -> 831 ;
832 [label="mse = 0.0\nsamples = 0.0%\nvalue = 31990000.0", fillcolor="#e5813900"] ;
830 -> 832 ;
833 [label="mse = 0.0\nsamples = 0.0%\nvalue = 0.0", fillcolor="#e5813900"] ;
827 -> 833 ;
834 [label="mse = 0.0\nsamples = 0.0%\nvalue = 0.0", fillcolor="#e5813900"] ;
810 -> 834 ;
835 [label="hour_local <= 7.5\nmse = 5.97539152438e+14\nsamples = 0.0%\nvalue = 6910250.0", fillcolor="#e5813900"] ;
797 -> 835 ;
836 [label="mse = 0.0\nsamples = 0.0%\nvalue = 76990000.0", fillcolor="#e5813901"] ;
835 -> 836 ;
837 [label="trafficSource_source <= 194.5\nmse = 4.83704288889e+14\nsamples = 0.0%\nvalue = 5113333.33", fillcolor="#e5813900"] ;
835 -> 837 ;
838 [label="month_local <= 7.5\nmse = 1.21739805306e+15\nsamples = 0.0%\nvalue = 14244285.71", fillcolor="#e5813900"] ;
837 -> 838 ;
839 [label="mse = 0.0\nsamples = 0.0%\nvalue = 0.0", fillcolor="#e5813900"] ;
838 -> 839 ;
840 [label="yearday_local <= 292.5\nmse = 2.485521025e+15\nsamples = 0.0%\nvalue = 49855000.0", fillcolor="#e5813901"] ;
838 -> 840 ;
841 [label="mse = 0.0\nsamples = 0.0%\nvalue = 99710000.0", fillcolor="#e5813901"] ;
840 -> 841 ;
842 [label="mse = 0.0\nsamples = 0.0%\nvalue = 0.0", fillcolor="#e5813900"] ;
840 -> 842 ;
843 [label="mse = 0.0\nsamples = 0.0%\nvalue = 0.0", fillcolor="#e5813900"] ;
837 -> 843 ;
844 [label="mse = 0.0\nsamples = 0.1%\nvalue = 0.0", fillcolor="#e5813900"] ;
796 -> 844 ;
845 [label="visitNumber <= 20.5\nmse = 1.54574878916e+16\nsamples = 0.0%\nvalue = 11748705.36", fillcolor="#e5813900"] ;
255 -> 845 ;
846 [label="trafficSource_isTrueDirect <= 0.5\nmse = 2.62382581893e+17\nsamples = 0.0%\nvalue = 234702727.27", fillcolor="#e5813903"] ;
845 -> 846 ;
847 [label="mse = 0.0\nsamples = 0.0%\nvalue = 1573250000.0", fillcolor="#e5813911"] ;
846 -> 847 ;
848 [label="hour_local <= 9.0\nmse = 9.1532871936e+16\nsamples = 0.0%\nvalue = 100848000.0", fillcolor="#e5813901"] ;
846 -> 848 ;
849 [label="mse = 0.0\nsamples = 0.0%\nvalue = 1008480000.0", fillcolor="#e581390b"] ;
848 -> 849 ;
850 [label="mse = 0.0\nsamples = 0.0%\nvalue = 0.0", fillcolor="#e5813900"] ;
848 -> 850 ;
851 [label="trafficSource_source <= 33.5\nmse = 5.8087910732e+12\nsamples = 0.0%\nvalue = 234647.89", fillcolor="#e5813900"] ;
845 -> 851 ;
852 [label="yearday_local <= 283.0\nmse = 2.89773990482e+13\nsamples = 0.0%\nvalue = 1219024.39", fillcolor="#e5813900"] ;
851 -> 852 ;
853 [label="mse = 0.0\nsamples = 0.0%\nvalue = 0.0", fillcolor="#e5813900"] ;
852 -> 853 ;
854 [label="yearday_local <= 294.0\nmse = 6.83046984375e+13\nsamples = 0.0%\nvalue = 3123750.0", fillcolor="#e5813900"] ;
852 -> 854 ;
855 [label="visitNumber <= 39.5\nmse = 1.387778e+14\nsamples = 0.0%\nvalue = 16660000.0", fillcolor="#e5813900"] ;
854 -> 855 ;
856 [label="mse = 0.0\nsamples = 0.0%\nvalue = 0.0", fillcolor="#e5813900"] ;
855 -> 856 ;
857 [label="mse = 0.0\nsamples = 0.0%\nvalue = 24990000.0", fillcolor="#e5813900"] ;
855 -> 857 ;
858 [label="mse = 0.0\nsamples = 0.0%\nvalue = 0.0", fillcolor="#e5813900"] ;
854 -> 858 ;
859 [label="mse = 0.0\nsamples = 0.0%\nvalue = 0.0", fillcolor="#e5813900"] ;
851 -> 859 ;
860 [label="visitNumber <= 2.5\nmse = 1.57014086652e+15\nsamples = 2.9%\nvalue = 3108483.39", fillcolor="#e5813900"] ;
4 -> 860 ;
861 [label="geoNetwork_continent <= 0.5\nmse = 2.6090431786e+14\nsamples = 2.4%\nvalue = 1310505.46", fillcolor="#e5813900"] ;
860 -> 861 ;
862 [label="hour_local <= 20.5\nmse = 4.31442928163e+15\nsamples = 0.0%\nvalue = 75845714.29", fillcolor="#e5813901"] ;
861 -> 862 ;
863 [label="mse = 0.0\nsamples = 0.0%\nvalue = 132730000.0", fillcolor="#e5813901"] ;
862 -> 863 ;
864 [label="mse = 0.0\nsamples = 0.0%\nvalue = 0.0", fillcolor="#e5813900"] ;
862 -> 864 ;
865 [label="totals_newVisits <= 0.5\nmse = 2.56729840822e+14\nsamples = 2.4%\nvalue = 1278133.03", fillcolor="#e5813900"] ;
861 -> 865 ;
866 [label="geoNetwork_country <= 211.5\nmse = 8.3549590722e+14\nsamples = 0.4%\nvalue = 3690828.88", fillcolor="#e5813900"] ;
865 -> 866 ;
867 [label="yearday_local <= 321.0\nmse = 2.89921197712e+12\nsamples = 0.1%\nvalue = 144564.16", fillcolor="#e5813900"] ;
866 -> 867 ;
868 [label="trafficSource_source <= 27.0\nmse = 1.13470665749e+12\nsamples = 0.1%\nvalue = 85627.53", fillcolor="#e5813900"] ;
867 -> 868 ;
869 [label="geoNetwork_country <= 39.0\nmse = 4.46956615534e+12\nsamples = 0.0%\nvalue = 337567.57", fillcolor="#e5813900"] ;
868 -> 869 ;
870 [label="hour_local <= 18.0\nmse = 1.72165333333e+13\nsamples = 0.0%\nvalue = 1193333.33", fillcolor="#e5813900"] ;
869 -> 870 ;
871 [label="mse = 0.0\nsamples = 0.0%\nvalue = 0.0", fillcolor="#e5813900"] ;
870 -> 871 ;
872 [label="yearday_local <= 160.0\nmse = 4.8650464e+13\nsamples = 0.0%\nvalue = 4296000.0", fillcolor="#e5813900"] ;
870 -> 872 ;
873 [label="hour_local <= 21.5\nmse = 2.296875e+12\nsamples = 0.0%\nvalue = 875000.0", fillcolor="#e5813900"] ;
872 -> 873 ;
874 [label="mse = 0.0\nsamples = 0.0%\nvalue = 0.0", fillcolor="#e5813900"] ;
873 -> 874 ;
875 [label="mse = 0.0\nsamples = 0.0%\nvalue = 3500000.0", fillcolor="#e5813900"] ;
873 -> 875 ;
876 [label="mse = 0.0\nsamples = 0.0%\nvalue = 17980000.0", fillcolor="#e5813900"] ;
872 -> 876 ;
877 [label="geoNetwork_country <= 187.0\nmse = 1.83323496358e+12\nsamples = 0.0%\nvalue = 171935.48", fillcolor="#e5813900"] ;
869 -> 877 ;
878 [label="weekday_local <= 1.5\nmse = 61594921642.5\nsamples = 0.0%\nvalue = 42253.52", fillcolor="#e5813900"] ;
877 -> 878 ;
879 [label="geoNetwork_continent <= 3.5\nmse = 312500000000.0\nsamples = 0.0%\nvalue = 250000.0", fillcolor="#e5813900"] ;
878 -> 879 ;
880 [label="geoNetwork_continent <= 2.5\nmse = 500000000000.0\nsamples = 0.0%\nvalue = 1000000.0", fillcolor="#e5813900"] ;
